svm_type c_svc
kernel_type rbf
gamma 0.0625
nr_class 26
total_sv 8621
rho -0.0021424912594692827 -0.04804686945099021 -0.48565354492360374 0.6586230004809365 -0.12956758882470032 -0.3184834347428777 0.1815157040528186 0.030416292124293934 -0.03888447201255741 2.539919297651462 -0.5266374022485989 0.5935570295106111 0.8946636870971635 0.413713024391255 -0.031089341629631884 -0.03564424585188125 0.07997693588127683 0.20418171213178876 0.15491102563455433 0.046897520350156555 -0.4640387036122554 -0.6054174475377738 0.29634874968719327 -0.28969152451570146 -0.027710066718392833 -0.13897136303134333 -0.7144925389739343 -0.8872144493358438 0.0046078291183628 -0.5224089586917412 -1.0268740224000568 -1.3116018428181473 -0.30537815116600825 0.7012101063525215 -1.2816498072607074 -0.46279990789183095 0.463995761049992 -0.1116898202557364 -1.0977412215316549 -0.7113582481636413 -1.1823416526407655 -0.206648742344479 0.1345945741592835 -0.5363439216926996 -1.0761861598520095 -0.005320573370143105 -0.053105723762583934 -0.5833311615106371 -0.14384902605550767 -0.3282659111805493 -0.8620430252724381 -0.47714835871589323 -1.4657986573145674 -1.591205859426225 -1.3217058808799302 -0.1725637457250069 0.5718655838697547 -1.8074144003596895 0.2106196430588571 0.02330794788435122 -0.22948014877108594 -1.270428597055263 -0.9850801927215486 -2.0007915379369674 -0.3988715969682819 -1.0817535430027136 -1.948565818897471 -1.907907771867029 -0.3786049683981374 -0.36083295154070893 -1.7053876613750398 -0.7984544803860066 0.3787714510643911 0.4220395001916286 0.11436068881603108 0.30192089016280205 -2.2673360212132843 0.7787472968112019 1.0761730979996023 -0.1779988313133811 -0.06481385081430888 1.66949744199223 0.4965987527287439 -0.14105067743616695 0.5631902264758265 0.14682844372317716 -0.080562452086161 0.04634774586766179 0.1405639771982905 -0.614039928683701 0.4617259323578473 0.8074977187107482 0.0807100053872434 0.2375686941160832 -0.017941598872678013 -0.23269677362827582 -2.133353071893765 -2.28450425934374 -0.07928439286704225 0.4215287136248145 0.37375035598560724 -0.15351119147075007 -0.15579606670373283 0.5376058156113592 -0.8081756534327745 -0.5467700674352689 -1.2804432574325635 0.38475125087974643 0.3566744363872867 -0.7773568559219175 -1.8285309583954037 -0.5493032972712973 -0.31614196482681833 -0.165421481943413 -0.5553878266595973 -1.2633380969672934 -0.8408935704067619 -0.6341521569881993 -0.6842504414590331 0.8773535897935472 -0.9000801443754864 0.34557675018874107 0.41892008702024075 -1.181168626489524 -0.43560712529149537 0.024933141304493343 -1.0189122279857152 0.21736680388035776 -0.4765620116967217 -1.3903045002853125 -2.4299659322499165 -0.27059377821227554 -0.14770165602761526 -1.0002966973222664 0.2913945467064645 -0.47001955071529994 -0.5644670022834261 0.5120506340879429 0.9280671538553922 0.1654874690360847 0.1812343933946232 0.5773003713765 -0.6923304843174843 0.2146927820595492 0.38945206763479967 -1.7402983985845213 0.35647584233106994 0.6195078685990442 -1.3022312039902242 -1.9834495916054633 0.2453615604222049 0.43351986536810766 -0.39247182278228876 1.1058200195797483 -0.8439716274463244 0.07228865885558856 1.0541616829257858 0.9647350729792727 1.1389148229736243 0.614798504172674 -0.5799449536942042 0.05184856023264054 -0.26103499506494693 -0.544622107289186 0.46552471667991974 0.8436169820401456 -0.017575912252620566 -5.892879496891499 -0.5981952768646631 0.5437949928771543 0.24807015708317162 -0.3098063108341327 0.8038028409018707 1.0760409950551222 -0.5162630421935073 0.34586197521561257 0.941955892552825 1.0720977230358406 0.3706813938111997 0.7169073507731432 -1.089734114194877 -0.33307799115442094 0.7677580271021256 -0.6158703070144405 -0.12533325379893415 0.2532104349531677 0.5668282825643103 -0.3887629603235768 0.18306780737794426 0.8343781791863812 -0.7591931379425862 0.25274343444760744 0.28784217275781987 -0.2517677287834658 -0.42183375520775446 0.24261211863213816 -0.9119677113742581 -0.2293935759015683 0.22990430376568624 -0.680488191787482 -1.1936141544008336 0.046896532479120775 -0.22756457942621877 -0.6391040776424257 -0.06948292742920852 -1.0515816014007588 -1.4531120558189157 0.06926180115072043 -0.8792639756702096 -0.6184727272695619 -0.7736271874126216 -0.8655511850990749 -0.435153888584937 -0.6737675398472109 -1.0845079980145806 -0.9257617860717402 -0.9866694174096509 -1.6782935442963498 -1.3932256055002532 -1.6887806478745426 0.44971564515717677 0.2908273690929319 2.1030463522383536 0.03820839900763311 0.3610210531679749 -0.7184040837225437 0.6432768365026764 0.8947761252687166 -0.566619928203291 0.2197449100901361 -0.1571618088525312 0.18090545671435504 -1.321142290263455 0.1627031405916283 0.3277895212651624 0.4319256081520785 -0.05418953986895551 -0.1746691716535862 -0.3830465811157912 0.13799681048971713 -0.11183574320313726 -0.2623799793195515 -0.42046410887032587 -0.2881965467372227 -0.8998097387053523 -0.7391431236037782 -0.5408540199421936 -0.34516968878407156 -0.4608270503113866 -0.3891638157581549 -0.7773524129236677 -0.338263765528016 -0.23021082112480507 -0.6587846488680726 -1.3450644551615152 -1.6338628329780092 -0.42716904013639684 -0.5492160677165239 -0.584222368237385 -0.17225297116826108 0.19811263184791267 -1.5632677117268383 -0.12854396054095354 0.4407849506956066 -1.1324899485868634 -0.4830468159837391 -0.34082876410052637 -0.8464468909704876 -2.225307525112671 -0.331891565156969 -0.128966823947085 -0.16868749151685383 0.28893389760113825 -0.020600701625587896 -0.15077380198394347 -1.1818337174697968 0.12630439109153616 0.3723131646297386 -0.3275873202235109 -0.11762591853079755 -0.2419579290652096 0.23020255671677492 -0.10943102760498148 -0.23096039382211617 -2.046251130862464 -0.7815838521376677 -0.10754542138178409 -0.19245787106001963 -0.10513711835890195 0.9541968834139904 1.4981798226743872 0.8303088624670901 -0.23868943452844052 0.2810150916283724 0.08720743208462357 0.26146547037206885 0.6445614254556218 0.04930420722487909 -0.7239181538570265 -0.4687279167970305 -0.17126087544314336 -0.21167145667201337 -0.2808004529742484 -0.1854599244328035 -1.0347006926229942 -1.2969311097648462 -0.3085726767603376 0.5202995629422558 -1.203057020971924 0.05243986137371854 0.19890626625026625 0.5201967373871116 0.7671453113850514 -0.5543504851601072 1.3627035470178308 0.19611869647737512 0.7113745933545284 -0.33459311795182817 0.893010602814549 0.24020135119436892 -0.2825917614144327 -0.1101016887035926 -0.9836306076245567 -0.27113088592543805 0.32868977200940785
label 22 12 9 3 11 10 4 8 7 1 25 24 20 13 17 21 14 18 26 19 2 15 23 6 5 16
nr_sv 356 209 275 305 389 303 355 372 384 212 403 402 355 264 357 310 393 353 279 387 360 396 238 319 370 275
SV
0.0 0.0 0.0 0.0 0.0 0.0 0.0 0.0 0.0 0.0 0.0 0.0 0.0 0.0 0.0 1.0 0.0 0.0 0.0 0.0 0.0 1.0 1.0 0.0 1.0 1:-0.466667 2:-0.0666667 3:-0.466667 4:-0.333333 5:-0.733333 6:-0.6 7:0.6 8:-0.466667 9:-0.6 10:0.466667 11:0.466667 12:-0.0666667 13:-0.6 14:0.333333 15:-0.866667 16:-0.0666667 
0.0 0.0 0.0 0.0 0.0 0.0 0.0 0.0 0.0 1.0 0.0 1.0 0.0 0.0 0.0 0.0 0.0 0.0 0.0 0.0 0.0 0.0 0.0 0.0 0.0 1:-0.333333 2:0.2 3:-0.333333 4:-0.0666667 5:-0.6 6:-0.466667 7:0.466667 8:-0.733333 9:-0.466667 10:0.2 11:0.466667 12:-0.0666667 13:-0.6 14:0.333333 15:-0.866667 16:0.0666667 
0.0 0.0 0.0 0.0 0.0 0.0 0.0 0.0 0.0 1.0 0.0 0.0 0.0 0.0 0.0 0.0 0.0 0.0 0.0 0.0 0.0 0.0 0.0 0.0 0.0 1:-0.6 2:-0.2 3:-0.466667 4:-0.466667 5:-0.733333 6:0.0666667 7:0.2 8:-0.466667 9:-0.733333 10:-0.0666667 11:0.6 12:0.0666667 13:-0.733333 14:0.333333 15:-1.0 16:0.0666667 
1.0 0.0 1.0 1.0 0.0 1.0 1.0 1.0 0.9946570564770849 1.0 0.0 1.0 1.0 1.0 1.0 1.0 1.0 0.0 1.0 1.0 1.0 1.0 1.0 1.0 1.0 1:0.0666667 2:0.2 3:0.333333 4:0.0666667 5:0.6 6:-0.0666667 7:-0.2 8:-0.333333 9:-0.333333 10:-0.0666667 11:-0.2 12:0.0666667 13:-0.0666667 14:0.333333 15:-0.2 16:0.2 
0.0 0.0 0.0 0.0 0.0 0.0 0.0 0.0 0.0 1.0 0.0 0.0 0.0 0.0 0.0 0.0 0.0 0.0 0.0 0.0 0.0 0.0 0.0 0.0 0.0 1:-0.2 2:0.466667 3:-0.2 4:0.0666667 5:-0.466667 6:-0.6 7:0.466667 8:-0.6 9:-0.466667 10:0.2 11:0.466667 12:0.0666667 13:-0.6 14:0.466667 15:-0.866667 16:-0.0666667 
1.0 0.0 0.318812188587006 1.0 1.0 1.0 1.0 1.0 1.0 1.0 1.0 1.0 1.0 1.0 1.0 1.0 1.0 1.0 1.0 1.0 0.6605876565890259 1.0 1.0 1.0 1.0 1:-0.0666667 2:0.0666667 3:0.2 4:-0.0666667 5:0.333333 6:0.0666667 7:-0.0666667 8:-0.466667 9:-0.333333 10:-0.0666667 11:-0.2 12:0.0666667 13:0.0666667 14:0.333333 15:0.2 16:-0.466667 
0.0 0.0 0.0 0.0 0.0 0.0 0.0 0.0 0.0 1.0 0.0 0.0 0.0 0.0 0.0 0.0 0.0 0.0 0.0 0.0 0.0 0.0 0.0 0.0 0.0 1:-0.733333 2:-0.333333 3:-0.466667 4:-0.6 5:-0.733333 6:-0.0666667 7:0.6 8:-0.733333 9:-0.733333 10:-0.0666667 11:0.466667 12:0.2 13:-0.733333 14:0.333333 15:-0.866667 16:0.0666667 
0.0 0.0 0.0 0.0 0.0 0.0 0.0 1.0 0.0 0.0 0.0 0.0 -0.0 1.0 0.0 0.0 0.0 0.0 0.0 1.0 0.0 1.0 0.0 1.0 0.0 1:-0.2 2:0.333333 3:0.0666667 4:0.0666667 5:-0.2 6:0.0666667 7:0.6 8:-0.6 9:-0.733333 10:-0.2 11:0.333333 12:0.2 13:-0.0666667 14:0.466667 15:-0.0666667 16:0.0666667 
0.0 0.0 0.0 0.0 0.0 0.0 0.0 0.0 0.0 1.0 0.0 0.0 0.0 0.0 0.0 0.0 0.0 0.0 0.0 0.0 0.0 1.0 1.0 0.0 0.0 1:-0.733333 2:-0.6 3:-0.6 4:-0.866667 5:-0.866667 6:-0.466667 7:0.6 8:-0.6 9:-0.733333 10:0.333333 11:0.466667 12:-0.0666667 13:-0.733333 14:0.466667 15:-0.866667 16:-0.0666667 
0.0 0.0 0.0 0.0 0.0 0.0 0.0 0.0 0.0 1.0 0.0 1.0 0.0 0.0 0.0 0.0 0.0 0.0 0.0 0.0 0.0 1.0 0.0 0.0 0.0 1:-0.733333 2:-0.6 3:-0.6 4:-0.733333 5:-0.866667 6:-0.333333 7:0.6 8:-0.733333 9:-0.733333 10:0.0666667 11:0.333333 12:-0.0666667 13:-0.733333 14:0.466667 15:-1.0 16:0.0666667 
0.0 0.0 0.0 0.0 0.0 0.0 0.0 0.0 0.0 1.0 0.0 0.0 0.0 0.0 0.0 0.0 0.0 0.0 0.0 0.0 0.0 1.0 0.0 0.0 0.0 1:-0.6 2:-0.0666667 3:-0.466667 4:-0.333333 5:-0.6 6:-0.0666667 7:0.466667 8:-0.866667 9:-0.733333 10:-0.2 11:0.333333 12:0.0666667 13:-0.6 14:0.6 15:-0.866667 16:0.0666667 
0.0 0.0 0.0 0.0 0.0 0.8483447936537886 1.0 0.0 0.0 0.0 0.0 1.0 0.0 0.0 1.0 1.0 0.0 0.0 0.0 0.0 0.9600254563432575 0.6092498697991678 1.0 0.0 1.0 1:-0.733333 2:-0.6 3:-0.6 4:-0.733333 5:-0.866667 6:-0.333333 7:0.6 8:-0.466667 9:-0.6 10:0.333333 11:0.466667 12:-0.0666667 13:-0.733333 14:0.333333 15:-1.0 16:0.0666667 
0.0 0.0 0.0 0.0 0.0 0.0 0.0 0.0 0.0 0.0 0.0 0.0 0.0 0.0 1.0 0.0 0.0 0.0 0.0 0.0 0.0 0.0 0.0 0.0 0.0 1:-0.6 2:0.0666667 3:-0.2 4:-0.2 5:-0.866667 6:-0.0666667 7:0.0666667 8:-0.466667 9:-0.6 10:-0.0666667 11:0.866667 12:0.0666667 13:-0.6 14:0.2 15:-1.0 16:0.0666667 
0.0 0.0 0.0 0.0 0.0 0.0 0.0 0.0 0.0 1.0 0.0 0.0 0.0 0.0 0.0 0.0 0.0 0.0 0.0 0.0 0.0 0.0 0.0 0.0 0.0 1:-0.6 2:0.0666667 3:-0.466667 4:-0.2 5:-0.733333 6:-0.0666667 7:0.2 8:-0.466667 9:-0.733333 10:0.0666667 11:0.6 12:0.0666667 13:-0.733333 14:0.333333 15:-1.0 16:0.0666667 
0.0 0.0 0.0 0.0 0.0 0.0 0.0 0.0 0.0 1.0 0.0 0.0 0.0 0.0 0.0 0.0 0.0 0.0 0.0 0.0 0.0 0.3536780430529062 0.0 0.0 0.0 1:-0.733333 2:-0.6 3:-0.466667 4:-0.333333 5:-0.866667 6:-0.0666667 7:0.0666667 8:-0.466667 9:-0.733333 10:-0.0666667 11:0.733333 12:0.0666667 13:-0.6 14:0.333333 15:-1.0 16:0.0666667 
0.0 0.0 0.0 0.0 0.0 0.0 0.0 0.0 0.0 1.0 0.0 1.0 0.0 0.0 0.0 0.0 0.0 0.0 0.0 0.0 0.0 0.0 0.0 0.0 0.0 1:-0.6 2:-0.2 3:-0.333333 4:-0.466667 5:-0.733333 6:-0.0666667 7:0.6 8:-0.733333 9:-0.6 10:-0.2 11:0.466667 12:0.2 13:-0.733333 14:0.333333 15:-0.866667 16:0.0666667 
1.0 1.0 0.0 0.0 0.28038057922104415 0.3692250003878291 0.0 0.0 1.0 1.0 0.763150288115794 1.0 0.0 0.0 1.0 0.0 0.2389840599328089 0.0 0.0 0.0 0.0 0.0 0.0 0.0 0.0 1:-0.733333 2:-0.2 3:-0.466667 4:-0.466667 5:-0.733333 6:0.2 7:0.466667 8:-0.6 9:-0.466667 10:-0.466667 11:0.466667 12:0.0666667 13:-0.733333 14:0.333333 15:-0.866667 16:0.0666667 
0.0 0.0 0.0 0.0 0.0 0.0 0.0 0.0 0.0 1.0 1.0 0.0 0.0 0.0 0.0 0.0 0.0 0.0 0.0 0.0 0.0 0.0 1.0 0.0 0.0 1:-0.333333 2:0.0666667 3:-0.333333 4:-0.2 5:-0.733333 6:-0.6 7:0.466667 8:-0.6 9:-0.466667 10:0.333333 11:0.6 12:-0.0666667 13:-0.733333 14:0.333333 15:-0.866667 16:0.0666667 
0.0 0.0 0.0 0.0 0.0 0.0 0.0 0.0 0.0 0.0 0.0 0.0 1.0 0.0 1.0 1.0 0.0 0.0 0.0 0.0 1.0 1.0 0.0 0.0 0.0 1:0.333333 2:0.866667 3:0.0666667 4:0.0666667 5:-0.333333 6:0.0666667 7:0.0666667 8:-0.0666667 9:-0.333333 10:-0.2 11:0.333333 12:-0.0666667 13:-0.0666667 14:0.733333 15:-0.6 16:-0.0666667 
0.0 0.0 0.0 1.0 0.0 0.0 0.0 0.0 0.0 1.0 0.0 0.0 0.0 0.0 0.0 0.0 0.0 0.0 0.0 0.0 0.0 1.0 0.0 0.0 0.0 1:-0.466667 2:-0.2 3:-0.466667 4:-0.466667 5:-0.733333 6:-0.6 7:0.466667 8:-0.733333 9:-0.6 10:0.2 11:0.333333 12:0.0666667 13:-0.733333 14:0.466667 15:-1.0 16:0.0666667 
0.0 0.0 0.0 0.0 0.0 0.0 0.0 0.0 0.0 1.0 0.0 0.0 0.0 0.0 0.0 0.0 0.0 0.0 0.0 0.0 0.0 0.0 0.0 0.0 0.0 1:-0.6 2:-0.2 3:-0.333333 4:-0.466667 5:-0.733333 6:0.2 7:0.2 8:-0.466667 9:-0.866667 10:-0.2 11:0.6 12:0.0666667 13:-0.733333 14:0.333333 15:-1.0 16:0.0666667 
0.0 0.0 0.0 0.0 0.0 0.0 0.0 0.0 0.0 0.0 0.0 0.0 0.0 0.0 0.0 0.0 0.0 0.0 0.0 0.0 0.0 1.0 0.0 0.0 0.0 1:-0.333333 2:0.2 3:-0.0666667 4:-0.0666667 5:-0.466667 6:-0.0666667 7:0.6 8:-0.733333 9:-0.6 10:-0.333333 11:0.466667 12:0.2 13:-0.466667 14:0.333333 15:-0.733333 16:-0.0666667 
0.0 0.0 1.0 0.0 0.0 0.0 1.0 0.0 0.0 0.0 0.0 1.0 0.0 0.0 1.0 1.0 0.0 0.0 0.0 0.0 0.0 0.0 1.0 0.0 0.0 1:-0.0666667 2:0.2 3:-0.0666667 4:-0.0666667 5:-0.6 6:-0.6 7:0.466667 8:-0.333333 9:-0.333333 10:0.6 11:0.6 12:-0.0666667 13:-0.6 14:0.333333 15:-0.866667 16:0.0666667 
0.0 0.0 0.0 0.0 0.0 0.0 0.0 0.0 0.0 1.0 0.0 0.0 0.0 0.0 0.0 0.0 0.0 0.0 0.0 0.0 0.0 0.0 0.0 0.0 0.0 1:-0.733333 2:-1.0 3:-0.6 4:-0.866667 5:-1.0 6:-0.0666667 7:0.2 8:-0.466667 9:-0.733333 10:-0.0666667 11:0.733333 12:0.0666667 13:-0.733333 14:0.333333 15:-1.0 16:0.0666667 
0.0 0.0 0.0 0.0 0.0 0.0 0.0 0.0 0.0 1.0 0.0 0.0 0.0 0.0 0.0 0.0 0.0 0.0 0.0 0.0 0.0 0.0 0.0 0.0 0.0 1:-0.6 2:-0.0666667 3:-0.333333 4:-0.333333 5:-0.866667 6:0.2 7:0.0666667 8:-0.466667 9:-0.733333 10:-0.2 11:0.866667 12:0.0666667 13:-0.6 14:0.333333 15:-1.0 16:0.0666667 
0.0 0.0 0.0 0.0 0.0 0.0 0.0 0.0 0.0 1.0 0.0 0.0 0.0 0.0 0.0 0.0 0.0 0.0 0.0 0.0 0.0 1.0 0.0 0.0 0.0 1:-0.866667 2:-1.0 3:-0.733333 4:-1.0 5:-1.0 6:0.0666667 7:0.2 8:-0.6 9:-0.866667 10:-0.2 11:0.6 12:0.0666667 13:-0.733333 14:0.466667 15:-1.0 16:0.0666667 
0.0 0.0 0.0 0.0 0.0 0.0 0.0 0.0 0.0 1.0 0.0 0.0 0.0 0.0 0.0 0.0 0.0 0.0 0.0 0.0 0.0 1.0 0.0 0.0 0.0 1:-0.733333 2:-0.6 3:-0.6 4:-0.733333 5:-0.866667 6:-0.466667 7:0.6 8:-0.6 9:-0.733333 10:0.333333 11:0.466667 12:-0.0666667 13:-0.733333 14:0.466667 15:-1.0 16:0.0666667 
1.0 0.7180867410632276 1.0 1.0 1.0 1.0 1.0 1.0 0.0 1.0 1.0 1.0 0.0 1.0 1.0 0.0 1.0 1.0 1.0 1.0 1.0 -0.0 1.0 1.0 1.0 1:-0.2 2:0.2 3:0.0666667 4:0.0666667 5:0.2 6:-0.0666667 7:0.0666667 8:-0.2 9:-0.333333 10:-0.0666667 11:-0.2 12:-0.0666667 13:-0.2 14:0.466667 15:0.0666667 16:0.466667 
0.0 0.0 0.0 0.0 0.0 0.0 0.0 0.0 0.0 1.0 0.0 0.0 0.0 0.0 0.0 0.0 0.0 0.0 0.0 0.0 0.0 0.0 0.0 0.0 0.0 1:-0.333333 2:0.2 3:-0.333333 4:-0.0666667 5:-0.6 6:-0.6 7:0.466667 8:-0.733333 9:-0.6 10:0.333333 11:0.466667 12:0.0666667 13:-0.733333 14:0.466667 15:-0.866667 16:0.0666667 
0.0 0.0 0.0 0.0 0.0 0.0 0.0 0.0 0.0 0.0 0.0 0.0 0.0 0.0 0.0 0.0 0.0 0.0 0.0 0.0 0.0 1.0 0.0 0.0 0.0 1:-0.2 2:0.0666667 3:-0.2 4:-0.2 5:-0.6 6:-0.6 7:0.6 8:-0.6 9:-0.6 10:0.2 11:0.466667 12:0.0666667 13:-0.6 14:0.466667 15:-0.866667 16:-0.0666667 
1.0 0.0 1.0 1.0 0.0 0.5286426490601797 1.0 1.0 0.0 0.0 1.0 0.0 1.0 0.0 1.0 1.0 1.0 0.0 0.0 0.0 1.0 1.0 0.0 0.0 0.0 1:-0.0666667 2:0.6 3:-0.0666667 4:-0.0666667 5:-0.466667 6:-0.0666667 7:0.0666667 8:-0.466667 9:-0.466667 10:-0.0666667 11:-0.0666667 12:-0.2 13:-0.2 14:0.6 15:-0.733333 16:0.2 
0.0 0.9441283690898906 0.0 0.0 0.0 0.0 0.0 0.0 0.0 1.0 0.0 0.0 0.0 0.0 0.0 0.0 0.0 0.0 0.0 0.0 0.0 0.0 1.0 0.0 1.0 1:-0.466667 2:0.0666667 3:-0.466667 4:-0.2 5:-0.6 6:-0.466667 7:0.466667 8:-0.866667 9:-0.733333 10:0.2 11:0.333333 12:-0.0666667 13:-0.733333 14:0.466667 15:-0.866667 16:-0.0666667 
0.0 0.0 0.0 0.0 0.0 0.0 0.0 0.0 0.0 0.0 0.0 0.0 0.0 0.0 0.0 1.0 0.0 0.0 0.0 0.0 0.0 1.0 0.0 0.0 0.0 1:-0.0666667 2:0.0666667 3:-0.0666667 4:-0.2 5:-0.466667 6:-0.466667 7:0.6 8:-0.866667 9:-0.733333 10:0.2 11:0.333333 12:-0.0666667 13:-0.2 14:0.466667 15:-0.733333 16:-0.0666667 
0.0 0.0 0.0 0.0 0.0 0.0 0.0 0.0 0.0 1.0 0.0 1.0 0.0 0.0 0.0 0.0 0.0 0.0 0.0 0.0 0.0 0.0 0.0 0.0 0.0 1:-0.733333 2:-0.866667 3:-0.466667 4:-0.733333 5:-0.866667 6:-0.2 7:0.6 8:-0.733333 9:-0.6 10:0.0666667 11:0.466667 12:0.0666667 13:-0.733333 14:0.466667 15:-0.866667 16:0.0666667 
0.0 0.0 0.0 0.0 0.0 0.0 0.0 0.0 0.0 1.0 0.0 1.0 0.0 0.0 0.0 0.0 0.0 0.0 0.0 0.0 0.0 0.0 0.0 0.0 0.0 1:-0.733333 2:-0.2 3:-0.466667 4:-0.466667 5:-0.733333 6:-0.0666667 7:0.466667 8:-0.6 9:-0.6 10:-0.0666667 11:0.466667 12:0.0666667 13:-0.733333 14:0.333333 15:-0.866667 16:0.0666667 
0.0 0.0 0.0 0.0 0.0 0.0 1.0 0.0 1.0 1.0 0.7724666012351351 1.0 0.0 0.0 1.0 1.0 0.0 0.7102299965457041 0.0 0.0 0.0 0.0 0.0 0.0 0.0 1:0.0666667 2:0.333333 3:-0.0666667 4:-0.2 5:-0.6 6:0.0666667 7:0.333333 8:-0.333333 9:-0.333333 10:-0.333333 11:0.333333 12:-0.0666667 13:-0.466667 14:0.466667 15:-0.6 16:-0.333333 
0.0 0.0 0.0 0.0 0.0 0.0 1.0 0.0 0.0 0.0 0.0 0.0 0.0 0.0 0.0 1.0 0.0 0.0 0.0 0.0 0.0 1.0 1.0 0.0 1.0 1:-0.2 2:0.466667 3:-0.2 4:-0.2 5:-0.6 6:-0.333333 7:0.2 8:-0.466667 9:-0.6 10:0.333333 11:0.0666667 12:-0.333333 13:-0.333333 14:0.6 15:-0.733333 16:-0.0666667 
0.0 0.0 0.0 0.0 0.0 0.0 0.0 0.0 0.0 0.0 0.0 1.0 0.0 0.0 0.0 1.0 0.0 0.0 0.0 0.0 0.0 1.0 1.0 0.0 0.0 1:-0.6 2:-0.333333 3:-0.466667 4:-0.6 5:-0.733333 6:-0.466667 7:0.6 8:-0.733333 9:-0.6 10:0.2 11:0.466667 12:-0.0666667 13:-0.6 14:0.333333 15:-0.866667 16:-0.0666667 
0.0 0.0 0.0 0.0 0.0 0.0 0.0 0.0 0.0 1.0 0.0 0.0 0.0 0.0 0.0 0.0 0.0 0.0 0.0 0.0 0.0 0.0 0.0 0.0 0.0 1:-0.733333 2:0.0666667 3:-0.466667 4:-0.2 5:-0.866667 6:0.0666667 7:0.0666667 8:-0.466667 9:-0.733333 10:-0.0666667 11:0.733333 12:0.0666667 13:-0.6 14:0.333333 15:-1.0 16:0.0666667 
0.0 0.0 0.0 0.0 0.0 0.0 0.0 0.0 0.0 1.0 0.0 0.0 0.0 0.0 0.0 0.0 0.0 0.0 0.0 0.0 0.0 0.0 0.0 0.0 0.0 1:-0.733333 2:-0.6 3:-0.466667 4:-0.466667 5:-0.866667 6:0.2 7:0.0666667 8:-0.466667 9:-0.733333 10:-0.2 11:0.733333 12:0.0666667 13:-0.6 14:0.333333 15:-1.0 16:0.0666667 
0.0 0.0 0.0 0.0 0.0 0.0 0.0 0.0 0.0 1.0 0.0 1.0 0.0 0.0 0.0 0.0 0.0 0.0 0.0 0.0 0.0 0.0 0.0 0.0 0.0 1:-0.6 2:-0.466667 3:-0.333333 4:-0.6 5:-0.733333 6:0.0666667 7:0.6 8:-0.733333 9:-0.6 10:-0.2 11:0.466667 12:0.2 13:-0.733333 14:0.333333 15:-0.866667 16:0.0666667 
0.0 0.0 0.0 0.0 0.0 0.0 0.0 0.0 0.0 0.8491428670422703 0.0 0.0 0.0 0.0 0.0 0.0 0.0 0.0 1.0 0.0 0.0 0.0 0.0 0.0 0.0 1:-0.2 2:0.333333 3:0.0666667 4:-0.0666667 5:-0.333333 6:-0.2 7:0.466667 8:-0.6 9:-0.733333 10:0.0666667 11:0.466667 12:0.0666667 13:-0.6 14:0.333333 15:-0.466667 16:0.0666667 
1.0 1.0 1.0 1.0 1.0 1.0 1.0 1.0 1.0 1.0 1.0 1.0 1.0 1.0 1.0 1.0 1.0 1.0 1.0 1.0 1.0 1.0 1.0 1.0 1.0 1:-0.466667 2:-0.2 3:-0.333333 4:-0.333333 5:-0.2 6:0.0666667 7:-0.0666667 8:-0.333333 9:-0.466667 10:-0.0666667 11:-0.2 12:0.2 13:-0.2 14:0.0666667 15:0.0666667 16:-0.466667 
0.0 0.0 0.0 0.0 0.0 0.0 0.0 0.0 0.0 0.0 0.0 0.0 0.0 0.0 0.0 1.0 0.0 0.0 0.0 0.0 0.0 1.0 0.0 0.0 0.0 1:-0.333333 2:-0.0666667 3:-0.333333 4:-0.333333 5:-0.733333 6:-0.466667 7:0.466667 8:-0.6 9:-0.6 10:0.2 11:0.466667 12:-0.0666667 13:-0.6 14:0.333333 15:-0.866667 16:-0.0666667 
0.0 0.0 0.0 0.0 0.0 0.0 0.0 0.0 0.0 1.0 0.0 0.0 0.0 0.0 0.0 0.0 0.0 0.0 0.0 0.0 0.0 0.0 1.0 0.0 0.0 1:-0.466667 2:-0.0666667 3:-0.466667 4:-0.333333 5:-0.733333 6:-0.466667 7:0.466667 8:-0.6 9:-0.6 10:0.2 11:0.466667 12:-0.0666667 13:-0.733333 14:0.333333 15:-0.866667 16:0.0666667 
0.0 0.0 0.0 1.0 0.0 0.0 1.0 1.0 1.0 0.0 0.0 0.0 1.0 1.0 1.0 1.0 1.0 0.0 0.0 1.0 1.0 1.0 0.0 1.0 1.0 1:-0.466667 2:0.2 3:-0.2 4:-0.0666667 5:-0.0666667 6:-0.0666667 7:0.0666667 8:-0.6 9:-0.733333 10:-0.0666667 11:0.0666667 12:0.0666667 13:0.0666667 14:0.2 15:-0.2 16:-0.0666667 
1.0 1.0 1.0 1.0 1.0 1.0 1.0 1.0 1.0 0.0 1.0 0.0 1.0 1.0 1.0 1.0 1.0 0.0 1.0 1.0 1.0 1.0 1.0 1.0 1.0 1:-0.6 2:0.0666667 3:-0.333333 4:-0.2 5:-0.2 6:-0.2 7:-0.2 8:-0.333333 9:-0.733333 10:0.0666667 11:0.0666667 12:0.2 13:-0.333333 14:0.2 15:-0.333333 16:0.0666667 
0.0 0.0 0.0 0.0 0.0 0.0 0.0 0.0 0.0 0.0 0.0 0.0 0.0 0.0 1.0 0.0 0.0 0.0 0.0 0.0 0.0 0.0 1.0 0.0 0.0 1:-0.333333 2:0.333333 3:-0.333333 4:0.0666667 5:-0.6 6:-0.6 7:0.466667 8:-0.466667 9:-0.466667 10:0.333333 11:0.466667 12:-0.0666667 13:-0.6 14:0.333333 15:-0.866667 16:0.0666667 
0.0 0.0 0.0 0.0 0.0 0.0 0.0 0.0 0.0 1.0 0.0 1.0 0.0 0.0 0.0 0.0 0.0 0.0 0.0 0.0 0.0 0.0 0.0 0.0 0.0 1:-0.466667 2:0.0666667 3:-0.2 4:-0.2 5:-0.6 6:-0.0666667 7:0.466667 8:-0.6 9:-0.466667 10:-0.2 11:0.6 12:0.2 13:-0.733333 14:0.333333 15:-0.866667 16:0.0666667 
0.0 0.0 0.0 0.0 0.0 0.0 0.0 0.0 0.0 1.0 0.0 0.0 0.0 0.0 0.0 0.0 0.0 0.0 0.0 0.0 0.0 0.0 0.0 0.0 0.0 1:-0.466667 2:0.333333 3:-0.2 4:0.0666667 5:-0.733333 6:0.0666667 7:0.0666667 8:-0.466667 9:-0.6 10:-0.2 11:0.866667 12:0.0666667 13:-0.6 14:0.2 15:-1.0 16:0.0666667 
0.0 0.0 0.8949834634132399 0.0 0.0 0.0 1.0 1.0 0.0 0.0 0.0 0.0 1.0 0.0 1.0 1.0 0.0 0.0 0.0 0.7377893803252656 1.0 1.0 0.0 0.0 0.0 1:0.0666667 2:0.333333 3:-0.0666667 4:-0.333333 5:-0.6 6:0.0666667 7:0.0666667 8:-0.0666667 9:-0.333333 10:-0.0666667 11:0.333333 12:-0.2 13:-0.0666667 14:0.6 15:-0.466667 16:0.0666667 
0.0 0.0 1.0 0.8066905257352198 0.0 0.0 0.0 0.0 0.0 0.0 0.0 0.0 0.0 0.0 0.0 0.0 0.0 0.0 0.0 0.0 0.0 0.0 1.0 0.0 0.0 1:-0.6 2:-0.2 3:-0.466667 4:-0.466667 5:-0.733333 6:-0.733333 7:0.466667 8:-0.466667 9:-0.6 10:0.466667 11:0.6 12:0.0666667 13:-0.733333 14:0.333333 15:-0.866667 16:0.0666667 
0.0 0.0 0.0 0.0 0.0 0.0 0.0 0.0 0.0 0.0 0.0 0.0 0.0 0.0 0.0 0.0 0.0 0.0 0.0 0.0 0.0 1.0 0.0 0.0 0.0 1:-0.2 2:-0.0666667 3:-0.333333 4:-0.333333 5:-0.6 6:-0.6 7:0.466667 8:-0.733333 9:-0.6 10:0.2 11:0.466667 12:0.0666667 13:-0.6 14:0.466667 15:-0.866667 16:-0.0666667 
0.0 0.0 0.0 0.0 0.6253803452120724 1.0 0.0 0.0 0.0 0.0 0.0 0.0 0.0 0.0 0.0 1.0 0.0 0.0 0.0 0.0 1.0 0.0 1.0 0.0 1.0 1:-0.2 2:0.6 3:-0.2 4:-0.0666667 5:-0.6 6:-0.333333 7:0.466667 8:-0.466667 9:-0.6 10:0.333333 11:0.0666667 12:-0.333333 13:-0.466667 14:0.466667 15:-0.733333 16:0.0666667 
1.0 1.0 1.0 1.0 1.0 1.0 1.0 1.0 0.0 0.0 1.0 1.0 1.0 1.0 1.0 1.0 1.0 1.0 1.0 1.0 1.0 1.0 1.0 1.0 1.0 1:-0.333333 2:-0.0666667 3:-0.0666667 4:-0.2 5:-0.0666667 6:-0.2 7:0.2 8:-0.2 9:-0.2 10:0.0666667 11:-0.0666667 12:0.0666667 13:-0.333333 14:0.2 15:-0.2 16:0.466667 
0.0 0.0 0.0 0.0 0.0 0.12422540233273581 0.0 0.0 0.0 0.0 0.0 1.0 0.0 0.0 0.0 0.0 0.0 1.0 1.0 0.0 0.0 0.0 1.0 0.0 0.0 1:-0.0666667 2:1.0 3:-0.2 4:0.0666667 5:-0.6 6:-0.0666667 7:0.466667 8:-0.333333 9:-0.333333 10:0.2 11:0.333333 12:-0.333333 13:-0.333333 14:0.6 15:-0.466667 16:0.0666667 
0.0 0.0 0.0 0.0 0.0 0.0 0.0 0.0 0.0 0.0 0.0 0.0 0.0 0.0 1.0 0.0 0.0 0.0 0.0 0.0 0.0 0.0 0.0 0.0 0.0 1:-0.466667 2:0.2 3:-0.2 4:-0.0666667 5:-0.733333 6:0.0666667 7:0.0666667 8:-0.333333 9:-0.6 10:-0.2 11:0.866667 12:0.0666667 13:-0.6 14:0.2 15:-1.0 16:0.0666667 
0.0 0.0 0.0 0.0 0.0 0.0 0.0 0.0 0.0 1.0 0.0 0.0 0.0 0.0 0.0 0.0 0.0 0.0 0.0 0.0 0.0 1.0 0.0 0.0 0.0 1:-0.6 2:-0.733333 3:-0.2 4:-0.466667 5:-0.733333 6:-0.0666667 7:0.6 8:-0.733333 9:-0.6 10:-0.2 11:0.466667 12:0.2 13:-0.466667 14:0.6 15:-0.733333 16:-0.0666667 
0.0 0.0 1.0 0.0 0.0 0.0 0.0 0.0 0.0 1.0 0.0 1.0 0.0 0.0 0.0 0.0 0.0 0.0 0.0 0.0 0.0 0.0 0.0 0.0 0.0 1:-0.733333 2:-0.0666667 3:-0.466667 4:-0.333333 5:-0.733333 6:-0.333333 7:0.466667 8:-0.6 9:-0.6 10:0.2 11:0.466667 12:0.2 13:-0.733333 14:0.466667 15:-0.866667 16:0.0666667 
1.0 1.0 1.0 1.0 1.0 1.0 1.0 1.0 1.0 0.0 1.0 0.9495824060217869 1.0 1.0 1.0 1.0 1.0 1.0 1.0 1.0 1.0 1.0 1.0 1.0 1.0 1:-0.466667 2:-0.0666667 3:-0.2 4:-0.2 5:-0.0666667 6:-0.2 7:-0.0666667 8:-0.333333 9:-0.466667 10:-0.0666667 11:-0.2 12:0.0666667 13:-0.2 14:0.2 15:-0.0666667 16:0.333333 
0.0 0.0 0.0 0.0 0.0 0.0 0.0 0.0 0.0 1.0 0.0 1.0 0.0 0.0 0.0 0.0 0.0 0.0 0.0 0.0 0.0 0.0 0.0 0.0 0.0 1:-0.6 2:-0.466667 3:-0.333333 4:-0.6 5:-0.866667 6:-0.0666667 7:0.6 8:-0.6 9:-0.6 10:-0.0666667 11:0.466667 12:0.0666667 13:-0.733333 14:0.333333 15:-0.866667 16:0.0666667 
0.0 0.0 0.0 0.0 0.0 0.0 0.0 0.0 0.0 1.0 0.37975030910399243 1.0 0.0 0.0 0.0 0.0 0.0 0.0 0.0 0.0 0.0 0.0 0.0 0.0 0.0 1:-0.6 2:0.2 3:-0.333333 4:-0.0666667 5:-0.6 6:-0.0666667 7:0.466667 8:-0.733333 9:-0.6 10:-0.2 11:0.466667 12:0.2 13:-0.733333 14:0.333333 15:-0.866667 16:0.0666667 
1.0 1.0 1.0 1.0 1.0 1.0 1.0 1.0 1.0 1.0 1.0 1.0 1.0 1.0 1.0 1.0 1.0 1.0 1.0 1.0 1.0 1.0 1.0 1.0 1.0 1:-0.466667 2:-0.0666667 3:-0.2 4:-0.2 5:-0.2 6:-0.2 7:0.0666667 8:-0.333333 9:-0.333333 10:0.0666667 11:-0.2 12:0.0666667 13:-0.2 14:0.2 15:0.0666667 16:-0.0666667 
0.0 0.0 0.0 0.0 0.0 0.0 0.0 0.0 0.0 1.0 0.0 1.0 0.0 0.0 0.0 0.0 0.0 0.0 0.0 0.0 0.0 0.0 0.0 0.0 0.0 1:-0.6 2:0.2 3:-0.333333 4:-0.0666667 5:-0.733333 6:-0.0666667 7:0.466667 8:-0.6 9:-0.466667 10:0.2 11:0.6 12:0.0666667 13:-0.6 14:0.333333 15:-0.866667 16:0.2 
0.0 0.0 0.0 0.0 1.0 0.0 0.0 0.0 0.0 1.0 1.0 1.0 0.0 0.0 0.0 0.0 0.0 0.0 0.0 0.0 0.0 0.0 0.0 0.0 0.0 1:-0.733333 2:-0.733333 3:-0.466667 4:-0.6 5:-0.866667 6:-0.0666667 7:0.6 8:-0.733333 9:-0.6 10:-0.0666667 11:0.466667 12:0.2 13:-0.733333 14:0.333333 15:-0.866667 16:0.0666667 
0.0 0.0 0.0 1.0 0.0 0.0 1.0 0.0 0.0 0.0 0.0 0.0 0.7148875669798864 0.0 0.0 1.0 0.0 0.0 0.0 0.0 0.0 0.0 0.0 0.0 0.0 1:0.0666667 2:0.333333 3:0.0666667 4:0.0666667 5:-0.466667 6:-0.6 7:0.6 8:-0.6 9:-0.466667 10:0.466667 11:0.6 12:0.0666667 13:-0.6 14:0.2 15:-0.866667 16:-0.0666667 
1.0 0.0 1.0 1.0 0.0 1.0 1.0 1.0 1.0 0.0 1.0 0.0 1.0 1.0 1.0 1.0 1.0 0.0 0.0 1.0 1.0 1.0 0.0 1.0 1.0 1:-0.466667 2:-0.2 3:-0.333333 4:-0.466667 5:-0.2 6:0.0666667 7:-0.2 8:-0.466667 9:-0.733333 10:0.0666667 11:-0.0666667 12:0.2 13:-0.0666667 14:0.2 15:-0.466667 16:0.0666667 
0.0 0.0 0.0 0.0 0.0 0.0 0.0 0.0 0.0 0.0 0.0 0.0 0.0 0.0 0.0 0.0 0.0 0.0 0.0 0.0 0.0 0.0 1.0 0.0 0.0 1:-0.466667 2:-0.2 3:-0.466667 4:-0.466667 5:-0.733333 6:-0.733333 7:0.6 8:-0.6 9:-0.6 10:0.466667 11:0.466667 12:0.0666667 13:-0.733333 14:0.466667 15:-0.866667 16:0.0666667 
0.0 0.0 0.0 1.0 1.0 0.0 1.0 0.0 0.0 1.0 1.0 1.0 0.0 0.0 0.0 1.0 0.0 1.0 0.0 0.0 0.0 0.0 -0.0 1.0 0.0 1:-0.6 2:-0.733333 3:-0.333333 4:-0.6 5:-0.866667 6:-0.2 7:0.6 8:-0.6 9:-0.466667 10:0.0666667 11:0.466667 12:0.0666667 13:-0.733333 14:0.333333 15:-0.866667 16:0.0666667 
0.0 0.0 0.0 0.0 0.0 0.0 0.0 0.0 0.0 0.0 0.0 0.0 1.0 0.0 0.0 0.0 0.0 0.0 0.0 0.0 0.0 0.0 0.0 0.0 0.0 1:0.466667 2:0.866667 3:0.2 4:0.0666667 5:-0.466667 6:0.0666667 7:0.2 8:-0.2 9:-0.333333 10:-0.0666667 11:0.333333 12:-0.333333 13:-0.0666667 14:0.733333 15:-0.6 16:0.0666667 
1.0 0.0 0.0 1.0 0.0 0.0 1.0 1.0 0.0 0.7092590241624704 0.8226846958986673 0.0 1.0 0.0 1.0 1.0 1.0 0.0 0.0 1.0 1.0 1.0 0.0 0.0 0.0 1:0.333333 2:0.866667 3:0.2 4:0.0666667 5:-0.333333 6:0.2 7:-0.0666667 8:-0.466667 9:-0.333333 10:-0.2 11:0.0666667 12:-0.2 13:-0.0666667 14:0.6 15:-0.6 16:0.0666667 
0.0 0.0 0.0 0.0 0.0 0.0 0.0 0.0 0.0 1.0 0.0 0.0 0.0 0.0 0.0 0.0 0.0 0.0 0.0 0.0 0.0 0.0 1.0 0.0 1.0 1:-0.733333 2:-0.6 3:-0.6 4:-0.733333 5:-0.866667 6:-0.466667 7:0.6 8:-0.6 9:-0.733333 10:0.333333 11:0.466667 12:-0.0666667 13:-0.733333 14:0.466667 15:-0.866667 16:0.0666667 
0.0 0.0 0.0 0.9529161162472481 0.0 0.0 0.0 0.0 0.0 0.0 0.0 0.0 0.0 0.0 0.0 0.13731955289390665 0.0 0.0 0.0 0.0 0.0 0.0 1.0 0.0 0.0 1:-0.2 2:0.2 3:-0.2 4:-0.0666667 5:-0.6 6:-0.866667 7:0.6 8:-0.466667 9:-0.466667 10:0.6 11:0.6 12:0.0666667 13:-0.733333 14:0.333333 15:-0.866667 16:-0.0666667 
1.0 1.0 1.0 1.0 1.0 1.0 1.0 1.0 1.0 1.0 1.0 1.0 1.0 1.0 1.0 1.0 1.0 1.0 1.0 1.0 1.0 1.0 1.0 1.0 1.0 1:-0.466667 2:-0.2 3:-0.2 4:-0.333333 5:-0.2 6:-0.0666667 7:-0.0666667 8:-0.333333 9:-0.466667 10:-0.0666667 11:-0.2 12:0.0666667 13:-0.2 14:0.2 15:-0.0666667 16:0.0666667 
0.0 0.0 0.0 0.0 0.0 0.0 0.0 0.0 0.0 0.0 0.0 0.0 0.0 0.0 0.0 1.0 0.0 0.0 0.0 0.0 0.0 1.0 0.0 0.0 0.0 1:0.0666667 2:0.466667 3:-0.0666667 4:0.0666667 5:-0.333333 6:-0.6 7:0.466667 8:-0.866667 9:-0.6 10:0.0666667 11:0.333333 12:-0.0666667 13:-0.2 14:0.466667 15:-0.733333 16:-0.0666667 
0.0 0.0 0.0 0.0 0.0 0.0 0.8711667108741361 0.0 0.0 0.0 0.0 0.0 0.0 0.0 0.0 1.0 0.0 0.0 0.0 0.0 0.0 0.0 1.0 0.0 1.0 1:0.0666667 2:0.333333 3:0.0666667 4:0.0666667 5:-0.466667 6:-0.733333 7:0.733333 8:-0.333333 9:-0.466667 10:0.466667 11:0.6 12:-0.0666667 13:-0.6 14:0.2 15:-0.733333 16:-0.0666667 
0.0 0.0 0.0 0.0 0.0 0.0 0.0 0.0 0.0 0.9220096334635528 0.0 0.0 0.0 0.0 0.0 0.0 0.0 0.0 0.0 0.0 0.0 0.0 0.0 0.0 0.0 1:-0.466667 2:0.333333 3:-0.0666667 4:0.0666667 5:-0.733333 6:-0.0666667 7:0.0666667 8:-0.466667 9:-0.6 10:-0.0666667 11:0.866667 12:0.0666667 13:-0.6 14:0.2 15:-1.0 16:0.0666667 
1.0 1.0 1.0 1.0 1.0 1.0 1.0 1.0 1.0 1.0 1.0 1.0 1.0 1.0 1.0 1.0 1.0 1.0 1.0 1.0 1.0 1.0 1.0 1.0 1.0 1:-0.466667 2:-0.0666667 3:-0.2 4:-0.2 5:-0.0666667 6:-0.0666667 7:0.0666667 8:-0.333333 9:-0.333333 10:-0.0666667 11:-0.2 12:0.0666667 13:-0.2 14:0.2 15:-0.0666667 16:0.0666667 
0.0 0.0 0.0 0.0 0.0 0.0 0.0 0.0 0.0 1.0 0.0 1.0 0.0 0.0 0.0 0.0 0.0 0.0 0.0 0.0 0.0 0.0 1.0 0.0 1.0 1:-0.733333 2:-0.866667 3:-0.466667 4:-0.733333 5:-0.866667 6:-0.333333 7:0.6 8:-0.6 9:-0.6 10:0.2 11:0.466667 12:0.0666667 13:-0.733333 14:0.466667 15:-0.866667 16:0.0666667 
0.0 0.0 0.0 0.0 0.0 0.0 0.0 0.0 0.0 1.0 0.0 0.0 0.0 0.0 0.0 0.0 0.0 0.0 0.0 0.0 0.0 0.0 0.0 0.0 0.0 1:-0.333333 2:-0.0666667 3:-0.333333 4:-0.333333 5:-0.6 6:-0.6 7:0.466667 8:-0.733333 9:-0.6 10:0.333333 11:0.466667 12:0.0666667 13:-0.733333 14:0.466667 15:-0.866667 16:0.0666667 
0.0 0.0 0.0 0.0 0.0 0.0 0.0 0.0 0.0 1.0 0.0 0.0 0.0 0.0 0.0 0.0 0.0 0.0 0.0 0.0 0.0 1.0 0.0 0.0 0.0 1:-0.333333 2:0.2 3:-0.333333 4:-0.0666667 5:-0.466667 6:-0.6 7:0.466667 8:-0.733333 9:-0.6 10:0.2 11:0.466667 12:0.0666667 13:-0.6 14:0.6 15:-0.866667 16:-0.0666667 
0.0 0.0 0.0 0.0 0.0 0.0 0.0 0.0 0.0 1.0 0.0 0.0 0.0 0.0 0.0 0.0 0.0 0.0 0.0 0.0 0.0 0.0 0.0 0.0 0.0 1:-0.733333 2:-0.866667 3:-0.6 4:-0.866667 5:-1.0 6:-0.0666667 7:0.2 8:-0.466667 9:-0.733333 10:-0.0666667 11:0.733333 12:0.0666667 13:-0.733333 14:0.333333 15:-1.0 16:0.0666667 
1.0 0.5877013498851116 1.0 1.0 1.0 1.0 1.0 1.0 1.0 1.0 1.0 1.0 1.0 1.0 1.0 1.0 1.0 1.0 1.0 1.0 1.0 1.0 1.0 1.0 1.0 1:-0.2 2:-0.0666667 3:0.0666667 4:-0.2 5:0.0666667 6:0.0666667 7:-0.0666667 8:-0.466667 9:-0.466667 10:-0.0666667 11:-0.2 12:0.0666667 13:-0.0666667 14:0.2 15:0.0666667 16:-0.466667 
0.0 0.0 0.0 1.0 0.0 0.0 0.0 0.0 0.0 0.0 0.0 0.0 1.0 0.0 0.0 1.0 0.0 0.0 0.0 0.0 0.0 1.0 0.0 0.0 0.0 1:-0.0666667 2:0.0666667 3:-0.2 4:-0.2 5:-0.466667 6:-0.6 7:0.466667 8:-0.866667 9:-0.6 10:0.2 11:0.333333 12:0.0666667 13:-0.466667 14:0.2 15:-0.866667 16:0.0666667 
0.0 0.0 0.0 0.0 0.0 0.0 0.0 0.0 0.0 1.0 0.0 0.0 0.0 0.0 0.0 0.0 0.0 0.0 0.0 0.0 0.0 1.0 0.0 0.0 0.0 1:-0.733333 2:-0.6 3:-0.6 4:-0.733333 5:-0.866667 6:-0.466667 7:0.6 8:-0.6 9:-0.733333 10:0.2 11:0.466667 12:-0.0666667 13:-0.733333 14:0.466667 15:-1.0 16:-0.0666667 
0.0 0.0 0.0 0.0 0.0 0.0 0.0 0.0 0.0 1.0 0.0 1.0 0.0 0.0 0.0 0.0 0.0 0.0 0.0 0.0 0.0 0.0 1.0 0.0 0.0 1:-0.6 2:-0.466667 3:-0.466667 4:-0.6 5:-0.866667 6:-0.466667 7:0.6 8:-0.6 9:-0.6 10:0.333333 11:0.466667 12:-0.0666667 13:-0.733333 14:0.466667 15:-0.866667 16:0.0666667 
0.0 1.0 0.0 0.0 0.0 0.0 0.0 0.0 0.0 1.0 0.0 0.0 0.0 1.0 1.0 0.0 0.0 0.0 0.0 0.0 0.0 1.0 0.0 0.0 0.0 1:-0.866667 2:-1.0 3:-0.733333 4:-0.866667 5:-1.0 6:-0.0666667 7:0.2 8:-0.6 9:-0.733333 10:-0.0666667 11:0.6 12:0.0666667 13:-0.733333 14:0.333333 15:-1.0 16:0.0666667 
1.0 1.0 1.0 1.0 1.0 1.0 1.0 1.0 1.0 1.0 1.0 1.0 1.0 1.0 1.0 1.0 1.0 1.0 1.0 1.0 1.0 1.0 1.0 1.0 1.0 1:-0.466667 2:-0.333333 3:-0.2 4:-0.466667 5:-0.333333 6:-0.0666667 7:0.0666667 8:-0.333333 9:-0.333333 10:-0.0666667 11:-0.2 12:0.0666667 13:-0.2 14:0.2 15:-0.0666667 16:-0.2 
0.0 0.0 0.0 0.0 0.0 0.0 0.0 0.0 0.0 1.0 0.0 0.0 0.0 0.0 0.0 0.0 0.0 0.0 0.0 0.0 0.0 0.0 0.0 0.0 0.0 1:-0.733333 2:-0.2 3:-0.466667 4:-0.466667 5:-0.866667 6:0.0666667 7:0.0666667 8:-0.466667 9:-0.733333 10:-0.2 11:0.733333 12:0.0666667 13:-0.6 14:0.333333 15:-1.0 16:0.0666667 
0.0 0.0 0.0 0.0 0.0 0.0 0.0 0.0 0.0 1.0 0.0 0.0 0.0 0.0 0.0 0.0 0.0 0.0 0.0 0.0 0.0 0.0 1.0 0.0 0.0 1:-0.333333 2:0.333333 3:-0.333333 4:-0.0666667 5:-0.6 6:-0.466667 7:0.466667 8:-0.733333 9:-0.6 10:0.2 11:0.466667 12:-0.0666667 13:-0.733333 14:0.333333 15:-0.866667 16:0.0666667 
0.0 0.0 0.0 0.0 0.0 0.0 0.0 0.0 0.0 1.0 0.0 0.0 0.0 0.0 0.0 0.0 0.0 0.0 0.0 0.0 0.0 0.0 0.0 0.0 0.0 1:-0.733333 2:-1.0 3:-0.6 4:-0.866667 5:-1.0 6:0.0666667 7:0.2 8:-0.466667 9:-0.733333 10:-0.2 11:0.733333 12:0.0666667 13:-0.733333 14:0.333333 15:-1.0 16:0.0666667 
0.0 0.0 1.0 1.0 0.0 0.0 0.0 0.0 0.0 1.0 1.0 0.0 0.0 0.0 0.0 0.0 0.0 0.0 0.0 0.0 0.0 0.0 0.0 1.0 0.0 1:-0.466667 2:0.2 3:-0.2 4:-0.0666667 5:-0.6 6:-0.466667 7:0.466667 8:-0.6 9:-0.466667 10:0.2 11:0.6 12:0.2 13:-0.733333 14:0.333333 15:-0.866667 16:0.0666667 
0.0 0.0 0.0 0.6921303837952004 0.0 0.0 0.0 0.0 0.0 0.0 0.0 0.0 0.0 0.0 0.0 1.0 0.0 0.0 0.0 0.0 0.0 1.0 1.0 0.0 0.0 1:-0.0666667 2:0.466667 3:-0.0666667 4:0.0666667 5:-0.333333 6:-0.733333 7:0.6 8:-0.733333 9:-0.6 10:0.2 11:0.466667 12:0.0666667 13:-0.6 14:0.2 15:-0.733333 16:-0.2 
0.0 1.0 1.0 1.0 1.0 1.0 1.0 0.0 0.0 1.0 1.0 1.0 0.0 0.0 0.0 0.0 0.0 1.0 1.0 0.0 1.0 0.0 1.0 1.0 1.0 1:0.2 2:0.866667 3:-0.0666667 4:0.0666667 5:-0.6 6:-0.0666667 7:0.466667 8:-0.333333 9:-0.2 10:0.333333 11:0.333333 12:-0.333333 13:-0.466667 14:0.466667 15:-0.6 16:0.0666667 
0.0 0.0 1.0 1.0 0.0 0.0 1.0 1.0 1.0 0.0 0.0 0.0 1.0 1.0 1.0 1.0 1.0 0.0 0.0 1.0 1.0 1.0 0.0 0.0 1.0 1:-0.466667 2:0.0666667 3:-0.2 4:-0.2 5:-0.0666667 6:-0.0666667 7:-0.0666667 8:-0.466667 9:-0.866667 10:0.0666667 11:-0.0666667 12:0.2 13:-0.0666667 14:0.333333 15:-0.466667 16:-0.0666667 
0.0 0.0 0.0 0.0 0.0 0.0 0.0 0.0 0.0 1.0 0.0 0.0 0.0 0.12045492044823564 0.0 0.0 0.0 0.0 0.0 0.0 0.0 0.0 0.0 0.0 0.0 1:-0.466667 2:-0.466667 3:-0.2 4:-0.0666667 5:-0.866667 6:0.2 7:0.0666667 8:-0.466667 9:-0.6 10:-0.2 11:0.866667 12:0.0666667 13:-0.6 14:0.2 15:-1.0 16:0.0666667 
0.0 0.0 0.0 0.0 0.0 0.0 0.0 0.0 0.0 0.0 0.0 0.0 0.0 0.0 1.0 0.0 0.0 0.0 0.0 0.0 0.0 0.0 0.0 0.0 0.0 1:-0.466667 2:0.2 3:-0.2 4:-0.0666667 5:-0.733333 6:-0.0666667 7:0.0666667 8:-0.466667 9:-0.6 10:-0.0666667 11:0.866667 12:0.0666667 13:-0.6 14:0.2 15:-1.0 16:0.0666667 
0.0 0.0 1.0 0.0 0.0 0.0 0.0 0.0 0.0 1.0 0.0 0.0 0.0 0.0 0.0 0.0 0.0 0.0 0.0 0.0 0.0 0.0 0.0 0.0 0.0 1:-0.2 2:0.2 3:-0.333333 4:-0.0666667 5:-0.6 6:-0.6 7:0.466667 8:-0.6 9:-0.466667 10:0.333333 11:0.6 12:0.0666667 13:-0.733333 14:0.333333 15:-0.866667 16:0.0666667 
0.0 0.0 0.0 0.0 0.0 0.0 0.0 0.0 0.0 0.0 0.0 0.0 0.0 0.0 0.0 1.0 0.0 0.0 0.0 0.0 1.0 0.0 1.0 0.0 0.0 1:-0.2 2:0.466667 3:-0.2 4:0.0666667 5:-0.6 6:-0.6 7:0.6 8:-0.333333 9:-0.466667 10:0.466667 11:0.6 12:-0.0666667 13:-0.6 14:0.2 15:-0.866667 16:0.0666667 
0.0 0.0 0.0 0.0 0.0 1.0 0.0 0.0 0.0 1.0 0.0 1.0 0.0 0.0 0.0 0.0 0.0 0.0 0.0 0.0 0.0 0.0 0.0 0.0 0.0 1:-0.0666667 2:0.6 3:-0.333333 4:-0.2 5:-0.6 6:0.0666667 7:0.333333 8:-0.333333 9:-0.333333 10:-0.0666667 11:0.333333 12:-0.333333 13:-0.333333 14:0.6 15:-0.6 16:-0.0666667 
0.0 0.0 0.0 0.0 0.0 0.0 0.0 0.0 0.0 1.0 0.0 1.0 0.0 0.0 0.0 0.0 0.0 0.0 0.0 0.0 0.0 0.0 0.0 0.0 0.0 1:-0.6 2:0.333333 3:-0.333333 4:-0.0666667 5:-0.466667 6:-0.0666667 7:0.466667 8:-0.733333 9:-0.6 10:-0.333333 11:0.466667 12:0.2 13:-0.733333 14:0.466667 15:-0.866667 16:0.0666667 
0.0 0.0 1.0 0.0 0.0 0.0 1.0 0.0 0.0 0.0 0.0 1.0 0.0 0.0 1.0 1.0 0.0 0.0 1.0 0.0 0.9286112196972157 0.0 1.0 1.0 1.0 1:-0.333333 2:-0.2 3:-0.333333 4:-0.466667 5:-0.733333 6:-0.733333 7:0.6 8:-0.333333 9:-0.466667 10:0.6 11:0.466667 12:-0.0666667 13:-0.733333 14:0.333333 15:-0.866667 16:-0.0666667 
0.0 1.0 0.0 0.0 0.0 0.0 1.0 0.0 0.4372650539135365 1.0 0.0 1.0 1.0 0.0 1.0 1.0 0.0 0.0 0.0 0.3919787387405295 0.19008189213624088 1.0 0.0 0.0 0.0 1:-0.866667 2:-1.0 3:-0.733333 4:-1.0 5:-1.0 6:0.0666667 7:0.2 8:-0.6 9:-0.733333 10:-0.0666667 11:0.6 12:0.0666667 13:-0.733333 14:0.333333 15:-1.0 16:0.0666667 
0.0 0.0 0.0 0.0 0.0 0.0 0.0 0.0 0.0 1.0 0.0 1.0 0.0 0.0 0.0 0.0 0.0 0.0 0.0 0.0 0.0 0.0 1.0 0.0 0.0 1:-0.6 2:-0.466667 3:-0.466667 4:-0.6 5:-0.866667 6:-0.466667 7:0.6 8:-0.733333 9:-0.6 10:0.2 11:0.466667 12:-0.0666667 13:-0.733333 14:0.333333 15:-0.866667 16:-0.0666667 
0.0 0.0 0.0 0.0 0.0 0.0 0.0 0.0 0.0 1.0 0.0 0.0 0.0 0.0 0.0 0.0 0.0 0.0 0.0 0.0 0.0 0.0 0.0 0.0 0.0 1:-0.6 2:-0.0666667 3:-0.466667 4:-0.333333 5:-0.733333 6:-0.333333 7:0.466667 8:-0.6 9:-0.6 10:0.2 11:0.466667 12:0.0666667 13:-0.733333 14:0.466667 15:-0.866667 16:0.0666667 
0.0 0.0 0.0 0.0 0.0 0.0 0.0 0.0 0.0 1.0 1.0 0.0 0.0 0.0 0.0 0.0 0.0 0.0 0.0 0.0 0.0 0.0 1.0 0.0 1.0 1:-0.466667 2:0.0666667 3:-0.466667 4:-0.2 5:-0.733333 6:-0.6 7:0.466667 8:-0.6 9:-0.6 10:0.333333 11:0.466667 12:-0.0666667 13:-0.733333 14:0.333333 15:-0.866667 16:-0.0666667 
0.0 0.0 0.0 0.0 0.0 1.0 1.0 1.0 0.0 0.0 0.0 0.0 0.0 0.0 0.0 1.0 1.0 0.0 0.0 1.0 1.0 1.0 1.0 0.0 1.0 1:-0.333333 2:0.333333 3:-0.333333 4:-0.333333 5:-0.6 6:-0.2 7:0.2 8:-0.466667 9:-0.6 10:0.2 11:-0.0666667 12:-0.333333 13:-0.333333 14:0.6 15:-0.733333 16:0.0666667 
0.0 0.0 0.0 0.0 0.0 0.0 0.0 0.0 0.0 0.0 0.0 0.0 0.0 0.0 0.0 0.0 0.0 0.0 0.0 0.0 0.0 1.0 1.0 0.0 0.0 1:-0.333333 2:-0.2 3:-0.333333 4:-0.466667 5:-0.6 6:-0.733333 7:0.6 8:-0.6 9:-0.6 10:0.333333 11:0.466667 12:0.0666667 13:-0.733333 14:0.466667 15:-0.866667 16:-0.0666667 
0.0 0.0 0.0 1.0 1.0 0.0 1.0 0.0 0.0 1.0 1.0 1.0 0.0 1.0 0.0 1.0 0.03966088553460344 0.0 0.0 0.0 0.0 0.0 0.0 0.0 0.0 1:-0.733333 2:-0.866667 3:-0.466667 4:-0.6 5:-0.866667 6:-0.0666667 7:0.6 8:-0.733333 9:-0.6 10:-0.0666667 11:0.466667 12:0.2 13:-0.733333 14:0.333333 15:-0.866667 16:0.0666667 
0.0 0.0 1.0 0.0 0.0 0.0 0.0 0.0 0.0 0.0 0.0 0.0 0.0 0.0 0.0 0.0 0.0 0.0 0.0 0.0 0.0 0.0 1.0 0.0 0.0 1:-0.466667 2:-0.0666667 3:-0.466667 4:-0.333333 5:-0.733333 6:-0.733333 7:0.466667 8:-0.6 9:-0.6 10:0.466667 11:0.466667 12:0.0666667 13:-0.733333 14:0.466667 15:-1.0 16:0.0666667 
0.0 0.0 0.0 0.0 0.0 0.0 0.0 0.0 0.0 0.0 0.0 0.0 0.0 0.0 1.0 0.9188396161923039 0.0 0.0 0.0 0.0 0.0 0.0 0.0 0.0 0.0 1:-0.466667 2:0.0666667 3:-0.2 4:-0.2 5:-0.866667 6:-0.2 7:0.0666667 8:-0.333333 9:-0.6 10:0.0666667 11:0.866667 12:0.0666667 13:-0.6 14:0.2 15:-1.0 16:0.0666667 
0.0 0.0 0.0 0.0 0.0 0.0 0.0 0.0 0.0 0.0 0.0 0.0 1.0 0.0 0.0 1.0 0.0 0.0 0.0 0.0 0.0 1.0 0.0 0.0 0.0 1:0.0666667 2:0.333333 3:-0.0666667 4:0.0666667 5:-0.333333 6:-0.6 7:0.6 8:-0.733333 9:-0.6 10:0.2 11:0.466667 12:0.0666667 13:-0.0666667 14:0.466667 15:-0.733333 16:-0.2 
0.0 0.0 1.0 1.0 0.0 0.0 1.0 1.0 0.0 0.0 0.0 0.0 0.0 0.0 1.0 1.0 0.0 0.6615819140211637 1.0 0.0 1.0 0.0 1.0 1.0 0.0 1:-0.333333 2:0.0666667 3:-0.333333 4:-0.2 5:-0.733333 6:-0.733333 7:0.466667 8:-0.2 9:-0.466667 10:0.733333 11:0.6 12:0.0666667 13:-0.733333 14:0.333333 15:-0.866667 16:-0.0666667 
0.0 0.0 0.0 0.0 1.0 0.0 1.0 1.0 0.0 1.0 1.0 0.0 0.0 1.0 0.0 0.0 0.0 1.0 1.0 0.0 0.0 0.0 0.0 1.0 0.36382230343188154 1:-0.466667 2:-0.0666667 3:-0.333333 4:-0.333333 5:-0.733333 6:-0.2 7:0.466667 8:-0.6 9:-0.733333 10:0.0666667 11:0.466667 12:0.0666667 13:-0.733333 14:0.2 15:-0.6 16:0.0666667 
0.0 0.0 0.0 0.0 0.0 0.0 0.0 0.0 0.0 0.3849734435014926 0.0 0.0 0.0 0.0 0.0 0.0 0.0 0.0 0.0 0.0 0.0 0.8958576455171348 0.0 0.0 0.0 1:0.2 2:0.466667 3:-0.0666667 4:-0.2 5:-0.466667 6:0.2 7:0.2 8:-0.2 9:-0.333333 10:-0.2 11:0.333333 12:-0.333333 13:-0.2 14:0.733333 15:-0.6 16:-0.0666667 
0.0 0.0 0.0 0.0 0.0 0.0 0.0 0.0 0.0 0.0 0.0 0.0 0.0 0.0 0.0 1.0 0.0 0.0 0.0 0.0 0.0 1.0 0.0 0.0 0.0 1:-0.0666667 2:0.333333 3:-0.0666667 4:0.0666667 5:-0.466667 6:-0.466667 7:0.466667 8:-0.733333 9:-0.466667 10:0.0666667 11:0.466667 12:-0.0666667 13:-0.333333 14:0.466667 15:-0.866667 16:-0.0666667 
0.0 0.0 0.0 0.0 0.0 0.0 0.0 0.0 0.0 1.0 0.0 1.0 0.0 0.0 0.0 0.0 0.0 0.0 0.0 0.0 0.0 1.0 0.0 0.0 0.0 1:-0.866667 2:-0.866667 3:-0.733333 4:-0.733333 5:-0.866667 6:-0.0666667 7:0.6 8:-0.733333 9:-0.733333 10:-0.0666667 11:0.466667 12:0.0666667 13:-0.733333 14:0.466667 15:-1.0 16:0.0666667 
0.4351821154752775 0.0 0.0 1.0 1.0 0.0 1.0 1.0 1.0 0.0 0.0 0.0 1.0 1.0 0.0 1.0 1.0 0.0 1.0 1.0 1.0 1.0 1.0 1.0 1.0 1:-0.466667 2:-0.0666667 3:-0.2 4:-0.333333 5:-0.0666667 6:-0.0666667 7:0.0666667 8:-0.466667 9:-0.866667 10:0.0666667 11:-0.0666667 12:0.0666667 13:-0.333333 14:0.333333 15:-0.333333 16:0.0666667 
0.0 0.0 0.0 0.0 0.0 0.0 0.0 0.0 0.0 0.0 0.0 0.0 0.0 0.0 0.0 0.0 0.0 0.0 0.0 0.0 0.0 0.09361900130476303 0.0 0.0 0.0 1:-0.6 2:-0.333333 3:-0.333333 4:-0.466667 5:-0.733333 6:-0.466667 7:0.6 8:-0.6 9:-0.6 10:0.2 11:0.466667 12:0.0666667 13:-0.733333 14:0.466667 15:-1.0 16:0.0666667 
0.8351577814437467 1.0 1.0 1.0 1.0 1.0 1.0 1.0 1.0 1.0 1.0 1.0 0.0 0.0 1.0 1.0 1.0 1.0 1.0 1.0 1.0 0.0 1.0 0.0 1.0 1:-0.333333 2:0.2 3:-0.466667 4:-0.466667 5:-0.733333 6:-0.0666667 7:0.333333 8:-0.466667 9:-0.466667 10:0.0666667 11:0.2 12:-0.2 13:-0.6 14:0.333333 15:-0.733333 16:-0.0666667 
0.5575138772038115 0.0 0.19402469959109864 1.0 0.0 1.0 1.0 1.0 1.0 0.0 0.0 0.0 1.0 1.0 1.0 1.0 1.0 0.0 0.0 1.0 1.0 1.0 0.0 0.0 1.0 1:-0.466667 2:0.2 3:-0.2 4:-0.0666667 5:-0.0666667 6:0.0666667 7:-0.2 8:-0.466667 9:-0.733333 10:0.0666667 11:-0.0666667 12:0.0666667 13:0.0666667 14:0.2 15:-0.466667 16:-0.0666667 
1.0 1.0 1.0 1.0 1.0 1.0 1.0 1.0 1.0 1.0 1.0 0.0 1.0 1.0 1.0 1.0 1.0 0.0 1.0 1.0 1.0 1.0 0.20084436683434492 0.0 1.0 1:-0.6 2:-0.0666667 3:-0.333333 4:-0.333333 5:-0.333333 6:0.0666667 7:-0.333333 8:-0.466667 9:-0.866667 10:-0.0666667 11:-0.0666667 12:0.0666667 13:-0.333333 14:0.2 15:-0.6 16:-0.0666667 
0.0 0.0 0.0 0.0 0.0 0.0 0.0 0.0 0.0 1.0 0.0 1.0 0.0 0.0 0.0 0.0 0.0 0.0 0.0 0.0 0.0 0.0 0.0 0.0 0.0 1:-0.866667 2:-0.6 3:-0.6 4:-0.733333 5:-0.866667 6:-0.2 7:0.466667 8:-0.6 9:-0.6 10:0.0666667 11:0.466667 12:0.0666667 13:-0.733333 14:0.466667 15:-0.866667 16:0.0666667 
0.0 0.0 0.0 0.0 0.0 0.0 0.0 0.0 0.0 1.0 0.0 0.0 0.0 0.0 0.0 0.0 0.0 0.0 0.0 0.0 0.0 0.0 0.0 0.0 0.0 1:-0.6 2:0.0666667 3:-0.333333 4:-0.2 5:-0.866667 6:0.0666667 7:0.0666667 8:-0.466667 9:-0.6 10:-0.2 11:0.866667 12:0.0666667 13:-0.6 14:0.333333 15:-1.0 16:0.0666667 
0.0 0.0 0.0 0.0 0.0 0.0 0.0 0.0 0.0 1.0 0.0 1.0 0.0 0.0 0.0 0.0 0.0 0.0 0.0 0.0 0.0 0.0 0.0 0.0 0.0 1:-0.6 2:-0.466667 3:-0.466667 4:-0.6 5:-0.866667 6:-0.466667 7:0.6 8:-0.6 9:-0.6 10:0.2 11:0.466667 12:-0.0666667 13:-0.733333 14:0.466667 15:-1.0 16:0.0666667 
0.0 0.0 0.0 0.0 0.0 0.0 0.0 0.0 0.0 0.0 0.0 0.0 0.0 0.0 1.0 0.0 0.0 0.0 0.0 0.0 0.0 0.0 0.0 0.0 0.0 1:-0.6 2:0.2 3:-0.333333 4:-0.2 5:-0.866667 6:-0.0666667 7:0.0666667 8:-0.466667 9:-0.6 10:-0.0666667 11:0.866667 12:0.0666667 13:-0.6 14:0.2 15:-1.0 16:0.0666667 
0.0 0.0 0.0 0.0 0.0 0.0 0.0 0.0 0.0 1.0 0.0 1.0 0.0 0.0 0.0 0.0 0.0 0.0 0.0 0.0 0.0 0.872134014019494 0.0 0.0 0.0 1:-0.866667 2:-0.6 3:-0.733333 4:-0.866667 5:-0.866667 6:-0.2 7:0.6 8:-0.733333 9:-0.6 10:0.0666667 11:0.466667 12:0.0666667 13:-0.733333 14:0.466667 15:-1.0 16:0.0666667 
0.0 0.0 0.0 0.0 0.0 0.0 0.0 0.0 0.0 0.0 0.0 0.0 0.0 0.0 0.0 0.0 0.0 0.0 0.0 0.0 0.0 1.0 0.0 0.0 0.0 1:-0.333333 2:0.333333 3:-0.0666667 4:0.0666667 5:-0.466667 6:0.2 7:0.2 8:-0.466667 9:-0.733333 10:-0.333333 11:0.733333 12:0.0666667 13:-0.466667 14:0.2 15:-0.866667 16:-0.0666667 
0.0 0.0 0.0 0.0 0.0 0.0 0.0 0.0 0.0 1.0 0.0 1.0 0.0 1.0 0.0 0.0 0.0 0.0 0.0 0.0 0.0 0.0 0.0 0.0 1.0 1:-0.733333 2:-0.866667 3:-0.6 4:-0.6 5:-0.866667 6:-0.0666667 7:0.6 8:-0.733333 9:-0.733333 10:-0.0666667 11:0.466667 12:0.0666667 13:-0.733333 14:0.333333 15:-0.866667 16:0.0666667 
0.0 0.0 0.0 0.0 0.0 0.0 0.0 0.0 0.0 1.0 0.0 1.0 0.0 1.0 0.0 0.0 0.0 0.0 0.0 0.0 0.0 0.0 0.0 0.0 0.0 1:-0.733333 2:-0.0666667 3:-0.466667 4:-0.333333 5:-0.6 6:0.2 7:0.6 8:-0.733333 9:-0.6 10:-0.466667 11:0.333333 12:0.2 13:-0.733333 14:0.466667 15:-0.866667 16:0.2 
1.0 0.0 1.0 1.0 0.0 1.0 1.0 1.0 1.0 0.0 0.0 0.0 1.0 1.0 1.0 1.0 1.0 0.0 0.0 1.0 1.0 1.0 1.0 1.0 1.0 1:-0.466667 2:-0.0666667 3:-0.2 4:-0.333333 5:-0.2 6:-0.0666667 7:-0.0666667 8:-0.466667 9:-0.733333 10:0.0666667 11:-0.0666667 12:0.0666667 13:-0.0666667 14:0.333333 15:-0.333333 16:-0.0666667 
1.0 0.0 0.0 1.0 0.0 0.0 1.0 1.0 0.0 0.0 0.0 0.0 0.0 1.0 0.0 0.0 1.0 0.0 0.0 1.0 1.0 0.0 0.0 1.0 0.0 1:-0.6 2:-0.2 3:-0.333333 4:-0.466667 5:-0.6 6:0.0666667 7:0.466667 8:-0.6 9:-0.733333 10:-0.333333 11:0.333333 12:0.2 13:-0.6 14:0.333333 15:-0.6 16:0.333333 
0.0 0.0 0.0 0.0 0.0 0.0 0.0 0.0 0.0 1.0 0.0 0.0 0.0 1.0 0.0 0.0 0.0 0.0 0.0 0.0 0.0 0.0 0.0 0.0 0.0 1:-0.733333 2:-0.6 3:-0.466667 4:-0.333333 5:-0.866667 6:0.0666667 7:0.0666667 8:-0.466667 9:-0.733333 10:-0.2 11:0.733333 12:0.0666667 13:-0.6 14:0.333333 15:-1.0 16:0.0666667 
0.0 0.0 0.0 0.0 0.0 0.0 0.0 0.0 0.0 1.0 1.0 1.0 0.0 0.0 0.0 0.0 0.0 0.0 0.0 0.0 0.0 0.0 0.0 0.0 0.0 1:-0.2 2:0.2 3:-0.2 4:-0.0666667 5:-0.6 6:-0.466667 7:0.466667 8:-0.6 9:-0.466667 10:0.2 11:0.466667 12:-0.0666667 13:-0.733333 14:0.333333 15:-0.866667 16:0.0666667 
0.0 0.0 0.0 0.0 0.0 0.0 0.0 0.0 0.0 1.0 0.0 0.0 0.0 0.0 0.0 0.0 0.0 0.0 0.0 0.0 0.0 0.0 0.0 0.0 0.0 1:-0.466667 2:0.333333 3:-0.2 4:0.0666667 5:-0.466667 6:0.0666667 7:0.466667 8:-0.733333 9:-0.6 10:-0.466667 11:0.333333 12:0.2 13:-0.6 14:0.466667 15:-0.866667 16:0.0666667 
0.0 0.0 0.0 0.0 0.0 0.0 0.0 0.0 0.0 0.0 0.0 0.0 0.0 1.0 0.0 0.0 0.0 0.0 0.0 0.0 0.0 0.0 0.0 0.0 0.0 1:-0.2 2:0.466667 3:0.2 4:0.0666667 5:-0.333333 6:-0.0666667 7:0.466667 8:-0.6 9:-0.733333 10:-0.2 11:0.466667 12:0.2 13:-0.6 14:0.333333 15:-0.6 16:0.2 
0.0 0.0 0.0 0.0 0.0 0.0 0.0 0.0 0.0 0.0 0.0 0.0 0.0 0.0 0.0 0.0 0.0 0.0 0.0 0.0 0.0 0.0 0.0 0.0 0.20612600034958056 1:0.2 2:0.466667 3:-0.0666667 4:-0.2 5:-0.6 6:-0.0666667 7:0.466667 8:-0.2 9:-0.333333 10:0.0666667 11:0.333333 12:-0.466667 13:-0.333333 14:0.6 15:-0.6 16:0.2 
1.0 1.0 1.0 1.0 1.0 1.0 1.0 1.0 1.0 0.0 1.0 0.0 1.0 1.0 1.0 1.0 1.0 1.0 1.0 1.0 1.0 1.0 1.0 1.0 1.0 1:-0.466667 2:-0.2 3:-0.2 4:-0.2 5:-0.2 6:-0.0666667 7:-0.2 8:-0.333333 9:-0.466667 10:-0.2 11:-0.333333 12:0.0666667 13:-0.0666667 14:0.2 15:-0.0666667 16:0.2 
0.0 0.0 0.0 0.0 0.0 0.0 0.0 0.0 0.0 1.0 0.0 0.0 0.0 0.0 0.0 0.0 0.0 0.0 0.0 0.0 0.0 0.0 0.0 0.0 0.0 1:-0.6 2:0.2 3:-0.466667 4:-0.0666667 5:-0.6 6:0.2 7:0.2 8:-0.6 9:-0.866667 10:-0.2 11:0.6 12:0.0666667 13:-0.6 14:0.333333 15:-0.866667 16:0.0666667 
0.0 0.0 0.0 0.0 0.0 0.0 0.0 0.0 0.0 1.0 0.0 0.0 0.0 0.0 0.0 0.0 0.0 0.0 0.0 0.0 0.0 1.0 0.0 0.0 0.0 1:-0.733333 2:-0.733333 3:-0.466667 4:-0.466667 5:-0.866667 6:0.0666667 7:0.2 8:-0.466667 9:-0.733333 10:-0.0666667 11:0.733333 12:0.0666667 13:-0.6 14:0.333333 15:-1.0 16:0.0666667 
0.0 0.0 0.0 0.0 0.0 0.0 0.0 0.0 0.0 1.0 0.0 0.0 0.0 0.0 0.0 0.0 0.0 0.0 0.0 0.0 0.0 0.0 0.0 0.0 0.0 1:-0.6 2:0.0666667 3:-0.333333 4:-0.2 5:-0.733333 6:0.2 7:0.2 8:-0.466667 9:-0.866667 10:-0.2 11:0.6 12:0.0666667 13:-0.733333 14:0.333333 15:-1.0 16:0.0666667 
0.0 0.0 0.0 0.0 0.0 0.0 0.0 0.0 0.0 1.0 0.0 0.0 0.0 0.0 0.0 0.0 0.0 0.0 0.0 0.0 0.0 0.0 0.0 0.0 0.0 1:-0.333333 2:0.2 3:-0.333333 4:-0.2 5:-0.6 6:-0.733333 7:0.466667 8:-0.733333 9:-0.6 10:0.333333 11:0.466667 12:0.0666667 13:-0.733333 14:0.466667 15:-0.866667 16:0.0666667 
0.0 0.0 0.0 1.0 0.0 0.0 0.2566729164346572 0.0 0.0 1.0 0.0 0.0 0.0 0.0 0.0 0.59734859824803 0.0 0.0 1.0 0.0 0.0 0.0 0.0 0.0 1.0 1:0.333333 2:1.0 3:0.2 4:0.0666667 5:-0.333333 6:-0.2 7:0.2 8:-0.466667 9:-0.466667 10:0.2 11:0.0666667 12:-0.333333 13:-0.333333 14:0.6 15:-0.6 16:0.0666667 
0.0 1.0 0.0 0.0 0.0 0.0 0.0 0.0 0.0 1.0 1.0 1.0 0.0 0.0 0.0 0.0 0.0 0.0 0.0 0.0 0.0 0.0 0.0 0.0 0.0 1:-0.733333 2:-0.0666667 3:-0.466667 4:-0.333333 5:-0.733333 6:0.0666667 7:0.466667 8:-0.733333 9:-0.6 10:-0.333333 11:0.333333 12:0.0666667 13:-0.733333 14:0.466667 15:-0.866667 16:0.0666667 
0.0 0.0 0.0 0.0 0.0 0.0 0.0 0.0 0.0 1.0 0.0 1.0 0.0 0.0 0.0 0.0 0.0 0.0 0.0 0.0 0.0 0.0 0.0 0.0 0.0 1:-0.6 2:-0.333333 3:-0.466667 4:-0.466667 5:-0.733333 6:-0.333333 7:0.6 8:-0.733333 9:-0.6 10:0.0666667 11:0.466667 12:-0.0666667 13:-0.733333 14:0.466667 15:-0.866667 16:0.0666667 
0.3699016434386535 0.811005721132875 0.0 0.0 0.0 0.0 0.0 0.0 0.0 1.0 0.0 1.0 0.0 1.0 0.0 0.0 0.0 0.0 0.0 0.0 0.0 0.0 0.0 0.0 0.0 1:-0.733333 2:-0.2 3:-0.466667 4:-0.466667 5:-0.733333 6:0.2 7:0.6 8:-0.733333 9:-0.6 10:-0.466667 11:0.333333 12:0.2 13:-0.733333 14:0.466667 15:-0.866667 16:0.2 
0.0 0.0 0.0 0.0 0.0 0.0 0.0 0.0 0.0 1.0 0.0 0.0 0.0 0.0 0.0 0.0 0.0 0.0 0.0 0.0 0.0 1.0 0.0 0.0 0.0 1:-0.466667 2:-0.2 3:-0.466667 4:-0.466667 5:-0.733333 6:-0.466667 7:0.6 8:-0.866667 9:-0.733333 10:0.2 11:0.333333 12:-0.0666667 13:-0.733333 14:0.466667 15:-1.0 16:0.0666667 
0.0 0.0 1.0 0.0 0.0 0.0 0.0 0.0 0.0 1.0 0.0 0.0 0.0 0.0 0.0 0.0 0.0 0.0 0.0 0.0 0.0 0.0 1.0 0.0 0.0 1:-0.333333 2:0.333333 3:-0.333333 4:-0.0666667 5:-0.6 6:-0.733333 7:0.466667 8:-0.6 9:-0.6 10:0.466667 11:0.466667 12:0.0666667 13:-0.733333 14:0.466667 15:-0.866667 16:0.0666667 
0.0 0.0 0.0 0.0 0.0 0.0 0.0 0.0 0.0 1.0 0.0 0.0 0.0 0.0 0.0 0.0 0.0 0.0 0.0 0.0 0.0 0.0 0.0 0.0 0.0 1:0.0666667 2:0.866667 3:-0.0666667 4:0.0666667 5:-0.466667 6:0.2 7:0.333333 8:-0.2 9:-0.466667 10:-0.0666667 11:0.333333 12:-0.333333 13:-0.2 14:0.733333 15:-0.466667 16:-0.0666667 
0.0 0.0 0.0 0.0 0.0 0.0 0.0 0.0 0.0 1.0 0.0 0.0 0.0 0.0 0.0 0.0 0.0 0.0 0.0 0.0 0.0 0.0 0.0 0.0 0.0 1:-0.466667 2:0.466667 3:-0.2 4:0.0666667 5:-0.466667 6:-0.2 7:0.466667 8:-0.733333 9:-0.6 10:-0.2 11:0.466667 12:0.2 13:-0.733333 14:0.333333 15:-0.866667 16:0.0666667 
0.0 0.0 0.0 0.0 0.0 0.0 0.0 0.0 0.0 1.0 0.0 0.0 0.0 0.0 0.0 0.0 0.0 0.0 0.0 0.0 0.0 0.0 0.0 0.0 0.0 1:-0.733333 2:-1.0 3:-0.6 4:-0.866667 5:-1.0 6:-0.0666667 7:0.2 8:-0.466667 9:-0.733333 10:-0.0666667 11:0.733333 12:0.0666667 13:-0.733333 14:0.333333 15:-1.0 16:0.0666667 
0.0 0.0 1.0 0.0 0.6386780483300998 0.0 1.0 0.0 0.0 0.0 0.0 1.0 0.0 0.8848715881869226 1.0 0.0 0.0 0.0 1.0 0.0 1.0 0.0 1.0 1.0 0.0 1:-0.333333 2:0.333333 3:-0.333333 4:0.0666667 5:-0.6 6:-0.6 7:0.466667 8:-0.333333 9:-0.466667 10:0.6 11:0.6 12:0.0666667 13:-0.733333 14:0.333333 15:-0.866667 16:0.0666667 
0.0 0.0 0.0 0.0 0.0 0.0 0.0 0.0 0.0 1.0 0.0 0.0 0.0 0.0 0.0 0.0 0.0 0.0 0.0 0.0 0.0 0.0 0.0 0.0 0.0 1:-0.6 2:-0.0666667 3:-0.466667 4:-0.333333 5:-0.733333 6:0.0666667 7:0.2 8:-0.6 9:-0.866667 10:-0.2 11:0.6 12:0.0666667 13:-0.733333 14:0.333333 15:-1.0 16:0.0666667 
0.0 0.0 0.0 0.0 0.0 0.0 1.0 0.0 0.0 1.0 0.0 0.0 0.1558208590256239 1.0 1.0 0.0 0.0 0.0 0.0 0.0 0.0 0.0 0.0 0.0 0.0 1:-0.466667 2:-0.466667 3:-0.2 4:-0.0666667 5:-0.866667 6:0.2 7:0.0666667 8:-0.333333 9:-0.6 10:-0.2 11:0.866667 12:0.0666667 13:-0.6 14:0.2 15:-1.0 16:0.0666667 
0.0 0.0 0.0 0.0 0.0 0.0 0.0 0.0 0.0 1.0 0.0 1.0 0.0 0.0 0.0 0.0 0.0 0.0 0.0 0.0 0.0 0.21521397071436804 1.0 0.0 1.0 1:-0.466667 2:-0.466667 3:-0.333333 4:-0.6 5:-0.733333 6:-0.333333 7:0.6 8:-0.733333 9:-0.6 10:0.0666667 11:0.333333 12:-0.0666667 13:-0.733333 14:0.333333 15:-0.866667 16:0.0666667 
0.0 0.0 0.0 0.0 0.0 0.0 0.0 1.0 0.0 1.0 0.0 0.0 0.0 1.0 0.0 0.0 0.0 0.0 0.0 0.0 0.0 0.0 0.0 0.0 0.0 1:-0.2 2:0.333333 3:0.0666667 4:0.0666667 5:-0.333333 6:-0.0666667 7:0.466667 8:-0.6 9:-0.733333 10:-0.333333 11:0.333333 12:0.2 13:-0.6 14:0.466667 15:-0.466667 16:0.0666667 
0.0 0.0 0.0 0.0 0.0 1.0 0.0 0.0 0.0 1.0 0.0 1.0 0.0 0.0 0.0 0.0 0.0 0.0 0.0 1.0 1.0 0.0 0.0 0.0 1.0 1:-0.2 2:0.2 3:-0.466667 4:-0.466667 5:-0.733333 6:0.0666667 7:0.333333 8:-0.333333 9:-0.466667 10:-0.0666667 11:0.333333 12:-0.333333 13:-0.466667 14:0.466667 15:-0.6 16:-0.0666667 
0.0 0.0 0.0 0.0 0.0 0.0 0.0 0.0 1.0 1.0 0.0 1.0 0.0 1.0 0.0 0.0 0.0 0.0 0.0 0.0 0.0 0.0 0.0 0.0 0.0 1:-0.6 2:-0.2 3:-0.466667 4:-0.466667 5:-0.733333 6:0.2 7:0.466667 8:-0.6 9:-0.6 10:-0.466667 11:0.466667 12:0.2 13:-0.733333 14:0.333333 15:-0.866667 16:0.0666667 
1.0 1.0 1.0 1.0 1.0 1.0 1.0 1.0 1.0 1.0 1.0 1.0 1.0 1.0 1.0 1.0 1.0 1.0 1.0 1.0 1.0 1.0 1.0 1.0 1.0 1:-0.466667 2:0.0666667 3:-0.2 4:-0.0666667 5:-0.0666667 6:0.0666667 7:0.0666667 8:-0.333333 9:-0.466667 10:-0.0666667 11:-0.2 12:0.0666667 13:-0.0666667 14:-0.0666667 15:0.333333 16:-0.466667 
0.0 0.0 1.0 0.0 0.0 0.0 0.0 0.0 0.0 1.0 0.0 1.0 0.0 0.0 0.0 0.0 0.0 0.0 0.0 0.0 0.0 0.0 0.0 0.4138389658686898 0.0 1:-0.6 2:0.0666667 3:-0.333333 4:-0.2 5:-0.6 6:-0.333333 7:0.466667 8:-0.6 9:-0.466667 10:0.0666667 11:0.6 12:0.2 13:-0.733333 14:0.333333 15:-0.866667 16:0.0666667 
0.0 0.0 0.0 0.0 0.0 0.0 0.0 1.0 0.0 0.0 0.0 0.0 0.0 0.0 0.0 0.0 0.0 0.0 0.0 0.0 1.0 1.0 0.0 0.0 1.0 1:-0.2 2:0.2 3:-0.466667 4:-0.333333 5:-0.6 6:0.0666667 7:0.2 8:-0.2 9:-0.6 10:-0.0666667 11:0.2 12:-0.2 13:-0.2 14:0.6 15:-0.6 16:0.0666667 
0.0 0.0 0.0 0.0 0.0 0.0 0.0 0.0 0.0 1.0 0.0 1.0 0.2952658860160396 0.0 0.0 1.0 0.0 0.0 0.0 0.0 0.0 1.0 0.0 0.0 0.0 1:-0.6 2:-0.733333 3:-0.2 4:-0.466667 5:-0.733333 6:-0.0666667 7:0.6 8:-0.733333 9:-0.6 10:-0.0666667 11:0.466667 12:0.2 13:-0.6 14:0.333333 15:-0.866667 16:0.0666667 
0.0 0.0 0.0 0.0 0.0 0.0 0.0 0.0 0.0 1.0 0.0 0.23748896689350354 0.0 0.0 0.0 0.0 0.0 0.0 0.0 0.0 0.0 0.0 0.0 0.0 0.0 1:-0.6 2:0.0666667 3:-0.333333 4:-0.2 5:-0.6 6:-0.2 7:0.466667 8:-0.733333 9:-0.6 10:-0.0666667 11:0.466667 12:0.2 13:-0.733333 14:0.333333 15:-0.866667 16:0.0666667 
0.0 0.0 0.0 0.0 0.0 0.0 0.0 0.0 0.0 1.0 0.0 0.0 0.0 0.0 0.0 0.0 0.0 0.0 0.0 0.0 0.0 0.0 0.0 0.0 0.0 1:-0.333333 2:0.333333 3:-0.0666667 4:0.0666667 5:-0.466667 6:-0.0666667 7:0.6 8:-0.733333 9:-0.6 10:-0.2 11:0.466667 12:0.2 13:-0.466667 14:0.333333 15:-0.6 16:-0.0666667 
0.0 0.0 0.0 0.0 0.0 0.0 0.0 0.0 0.0 1.0 0.0 0.0 0.0 0.0 0.0 0.0 0.0 0.0 0.0 0.0 0.0 1.0 0.0 0.0 0.0 1:-0.2 2:0.333333 3:-0.2 4:0.0666667 5:-0.466667 6:-0.733333 7:0.466667 8:-0.733333 9:-0.6 10:0.2 11:0.466667 12:0.0666667 13:-0.6 14:0.466667 15:-0.866667 16:-0.0666667 
0.0 0.0 0.0 0.0 0.0 0.0 0.0 0.0 0.0 1.0 0.0 0.0 0.0 0.0 0.0 0.0 0.0 0.0 0.0 0.0 0.0 0.0 0.0 0.0 0.0 1:-0.733333 2:0.0666667 3:-0.466667 4:-0.2 5:-0.866667 6:0.2 7:0.0666667 8:-0.466667 9:-0.733333 10:-0.2 11:0.733333 12:0.0666667 13:-0.6 14:0.333333 15:-1.0 16:0.0666667 
1.0 0.0 1.0 1.0 0.0 0.0 0.0 0.0 0.0 1.0 1.0 1.0 0.0 0.0 0.0 0.0 0.0 0.0 0.8601833258830165 0.0 0.0 0.0 0.0 0.8827321421718558 0.0 1:-0.466667 2:0.466667 3:-0.333333 4:0.0666667 5:-0.6 6:-0.333333 7:0.466667 8:-0.6 9:-0.466667 10:0.2 11:0.6 12:0.2 13:-0.733333 14:0.333333 15:-0.866667 16:0.0666667 
0.0 0.0 0.0 0.0 0.0 0.0 0.0 0.0 0.0 1.0 0.0 0.0 0.0 0.0 0.0 0.0 0.0 0.0 0.0 0.0 0.0 0.0 0.0 0.0 0.0 1:-0.466667 2:-0.466667 3:-0.2 4:-0.0666667 5:-0.866667 6:0.0666667 7:0.0666667 8:-0.466667 9:-0.6 10:-0.2 11:0.866667 12:0.0666667 13:-0.6 14:0.2 15:-1.0 16:0.0666667 
0.0 0.0 0.0 0.0 0.0 1.0 1.0 0.0 1.0 1.0 0.32895380205268987 1.0 0.0 0.0 1.0 1.0 0.20951203623961243 1.0 0.0 0.0 0.0 0.0 0.0 0.0 0.0 1:0.0666667 2:0.6 3:-0.2 4:-0.2 5:-0.6 6:0.0666667 7:0.466667 8:-0.466667 9:-0.333333 10:-0.333333 11:0.333333 12:-0.2 13:-0.466667 14:0.333333 15:-0.6 16:-0.333333 
1.0 0.0 1.0 1.0 0.0 1.0 1.0 1.0 0.0 0.0 0.003841646090568615 0.0 1.0 1.0 1.0 1.0 1.0 0.0 0.21707130155115242 1.0 1.0 1.0 0.0 1.0 1.0 1:-0.333333 2:0.466667 3:-0.0666667 4:0.0666667 5:0.0666667 6:0.0666667 7:-0.333333 8:-0.333333 9:-0.6 10:0.0666667 11:-0.0666667 12:0.2 13:0.2 14:0.2 15:-0.2 16:0.466667 
1.0 1.0 1.0 1.0 1.0 1.0 1.0 1.0 1.0 1.0 1.0 1.0 1.0 1.0 1.0 1.0 1.0 1.0 1.0 1.0 1.0 1.0 1.0 1.0 1.0 1:-0.6 2:-0.333333 3:-0.466667 4:-0.466667 5:-0.333333 6:0.0666667 7:0.0666667 8:-0.333333 9:-0.466667 10:-0.0666667 11:-0.2 12:0.0666667 13:-0.2 14:0.0666667 15:-0.0666667 16:-0.466667 
1.0 0.0 1.0 1.0 1.0 1.0 1.0 1.0 1.0 0.0 1.0 0.0 1.0 1.0 1.0 1.0 1.0 0.0 1.0 1.0 1.0 1.0 0.0 1.0 1.0 1:-0.466667 2:-0.0666667 3:-0.2 4:-0.333333 5:-0.2 6:0.0666667 7:-0.333333 8:-0.466667 9:-0.733333 10:-0.0666667 11:-0.0666667 12:0.0666667 13:-0.0666667 14:0.0666667 15:-0.333333 16:0.0666667 
0.0 0.0 0.0 0.0 0.0 0.0 0.0 0.0 0.0 0.0 0.0 0.0 0.0 0.0 0.0 1.0 0.0 0.0 0.0 0.0 0.0 1.0 0.0 0.0 0.0 1:-0.333333 2:0.466667 3:0.0666667 4:0.0666667 5:-0.333333 6:-0.0666667 7:0.6 8:-0.733333 9:-0.6 10:-0.333333 11:0.333333 12:0.2 13:-0.466667 14:0.466667 15:-0.733333 16:-0.0666667 
0.0 0.0 0.0 0.0 0.0 0.0 0.0 0.0 0.0 1.0 0.0 0.0 0.0 0.0 0.0 0.0 0.0 0.0 0.0 0.0 0.0 0.0 0.0 0.0 0.0 1:-0.6 2:-0.333333 3:-0.333333 4:-0.6 5:-0.733333 6:-0.466667 7:0.6 8:-0.6 9:-0.6 10:0.2 11:0.466667 12:-0.0666667 13:-0.733333 14:0.466667 15:-0.866667 16:0.0666667 
0.0 0.0 0.0 0.0 0.0 0.0 0.0 0.0 0.0 1.0 0.0 0.0 0.0 0.0 1.0 0.0 0.0 0.0 0.0 0.0 0.0 0.0 0.0 0.0 0.0 1:-0.866667 2:-0.866667 3:-0.733333 4:-0.866667 5:-1.0 6:-0.0666667 7:0.2 8:-0.466667 9:-0.733333 10:-0.0666667 11:0.733333 12:0.0666667 13:-0.733333 14:0.333333 15:-1.0 16:0.0666667 
0.0 0.0 0.0 0.0 0.0 0.0 0.0 0.0 0.0 1.0 0.0 1.0 0.0 0.0 0.0 0.0 0.0 0.0 0.0 0.0 0.0 1.0 0.0 0.0 0.0 1:-0.733333 2:-0.6 3:-0.6 4:-0.733333 5:-0.866667 6:-0.333333 7:0.6 8:-0.733333 9:-0.733333 10:0.0666667 11:0.333333 12:-0.0666667 13:-0.733333 14:0.466667 15:-1.0 16:0.0666667 
0.0 0.0 0.0 0.0 0.0 0.0 0.0 0.0 0.0 0.0 0.0 0.0 0.0 0.0 0.0 1.0 0.0 0.0 0.0 0.0 0.0 1.0 0.0 0.0 0.0 1:-0.2 2:-0.0666667 3:-0.2 4:-0.333333 5:-0.6 6:-0.466667 7:0.466667 8:-0.866667 9:-0.6 10:0.0666667 11:0.333333 12:0.0666667 13:-0.333333 14:0.466667 15:-0.733333 16:-0.0666667 
0.0 0.0 0.0 0.0 0.0 0.0 0.0 0.0 0.0 1.0 0.0 0.0 0.0 0.0 0.0 0.0 0.0 0.0 0.0 0.0 0.0 0.0 0.0 0.0 0.0 1:-0.6 2:0.2 3:-0.333333 4:-0.0666667 5:-0.866667 6:0.2 7:0.0666667 8:-0.466667 9:-0.6 10:-0.2 11:0.866667 12:0.0666667 13:-0.6 14:0.333333 15:-1.0 16:0.0666667 
0.0 0.0 0.0 0.0 0.0 0.0 0.0 0.0 0.0 1.0 0.0 0.0 0.0 0.0 0.0 0.0 0.0 0.0 0.0 0.0 0.0 0.0 0.0 0.0 0.0 1:-0.733333 2:-0.0666667 3:-0.466667 4:-0.333333 5:-0.733333 6:0.2 7:0.2 8:-0.6 9:-0.866667 10:-0.333333 11:0.6 12:0.0666667 13:-0.733333 14:0.466667 15:-1.0 16:0.0666667 
0.0 0.0 0.0 0.0 0.0 0.0 0.0 0.0 0.0 0.0 0.0 0.0 0.0 0.0 1.0 0.0 0.0 0.0 0.0 0.0 0.0 0.0 0.0 0.0 0.0 1:-0.6 2:0.2 3:-0.333333 4:-0.0666667 5:-0.866667 6:-0.2 7:0.0666667 8:-0.466667 9:-0.6 10:-0.0666667 11:0.866667 12:0.0666667 13:-0.6 14:0.2 15:-1.0 16:0.0666667 
1.0 0.0 0.0 1.0 0.44349257131553427 1.0 1.0 1.0 1.0 1.0 1.0 0.0 1.0 1.0 1.0 1.0 1.0 0.0 1.0 1.0 1.0 1.0 1.0 1.0 1.0 1:-0.333333 2:0.466667 3:0.0666667 4:0.0666667 5:0.2 6:-0.0666667 7:-0.2 8:-0.466667 9:-0.733333 10:-0.0666667 11:0.0666667 12:0.0666667 13:-0.333333 14:0.2 15:-0.466667 16:-0.0666667 
0.2177505949486503 0.0 0.0 1.0 0.0 1.0 1.0 0.0 0.0 1.0 1.0 1.0 0.0 0.0 1.0 0.0 0.0 0.0 1.0 1.0 0.0 0.0 0.0 0.4853311126289032 0.6152933933710815 1:0.333333 2:0.866667 3:0.2 4:0.0666667 5:-0.333333 6:0.0666667 7:0.2 8:-0.466667 9:-0.2 10:0.0666667 11:0.2 12:-0.333333 13:-0.2 14:0.6 15:-0.466667 16:0.0666667 
0.0 0.0 0.0 0.0 0.0 0.0 0.0 0.0 0.0 1.0 0.0 1.0 0.0 0.0 0.0 0.0 0.0 0.0 0.0 0.0 0.0 0.0 0.0 0.0 0.0 1:-0.733333 2:-0.333333 3:-0.466667 4:-0.466667 5:-0.733333 6:-0.2 7:0.6 8:-0.733333 9:-0.6 10:0.0666667 11:0.466667 12:0.0666667 13:-0.733333 14:0.333333 15:-0.866667 16:0.0666667 
0.0 0.0 0.0 0.0 0.0 0.0 0.0 0.0 0.0 0.0 0.0 0.0 0.0 0.0 1.0 0.0 0.0 0.0 0.0 0.0 0.42173007838869236 0.0 0.0 0.0 0.0 1:-0.466667 2:0.2 3:-0.2 4:-0.0666667 5:-0.866667 6:0.0666667 7:0.0666667 8:-0.333333 9:-0.6 10:-0.2 11:0.866667 12:0.0666667 13:-0.6 14:0.2 15:-1.0 16:0.0666667 
0.0 0.0 0.0 0.0 0.0 0.0 0.0 0.0 0.0 1.0 0.0 0.0 0.4918120599872412 0.0 0.0 0.0 0.0 0.0 0.0 0.0 0.0 0.0 0.0 0.0 0.0 1:-0.733333 2:-1.0 3:-0.6 4:-0.866667 5:-1.0 6:-0.0666667 7:0.2 8:-0.466667 9:-0.733333 10:-0.0666667 11:0.733333 12:0.0666667 13:-0.733333 14:0.333333 15:-1.0 16:0.0666667 
0.0 0.0 0.0 0.0 0.0 0.0 0.0 0.0 0.0 1.0 0.0 0.0 1.0 0.0 0.6636667804301547 0.0 0.0 0.0 0.0 0.0 0.0 0.0 0.0 0.0 0.0 1:-0.733333 2:-1.0 3:-0.6 4:-0.866667 5:-1.0 6:-0.0666667 7:0.2 8:-0.466667 9:-0.733333 10:-0.0666667 11:0.733333 12:0.0666667 13:-0.733333 14:0.333333 15:-1.0 16:0.0666667 
0.0 0.0 0.0 0.0 0.0 0.0 0.0 0.0 0.0 0.0 0.0 0.0 0.0 1.0 0.0 0.0 0.0 0.0 0.0 0.0 0.0 0.0 0.0 0.0 0.0 1:-0.6 2:-0.333333 3:-0.333333 4:-0.466667 5:-0.733333 6:0.2 7:0.6 8:-0.6 9:-0.6 10:-0.333333 11:0.466667 12:0.2 13:-0.6 14:0.333333 15:-0.733333 16:0.2 
0.0 0.0 0.0 0.0 1.0 1.0 0.0 0.0 0.03885816304078865 1.0 0.0 1.0 0.0 0.0 0.0 0.0 0.0 1.0 0.0 1.0 0.0 0.0 0.0 0.0 1.0 1:-0.2 2:0.466667 3:-0.333333 4:-0.2 5:-0.6 6:0.2 7:0.333333 8:-0.333333 9:-0.466667 10:-0.0666667 11:0.333333 12:-0.333333 13:-0.466667 14:0.466667 15:-0.6 16:-0.2 
0.0 0.0 0.0 0.0 0.0 0.0 0.0 0.0 0.0 1.0 0.0 0.0 0.0 0.0 0.0 0.0 0.0 0.0 0.0 0.0 0.0 1.0 0.0 0.0 0.0 1:-0.733333 2:-0.866667 3:-0.466667 4:-0.733333 5:-0.866667 6:-0.0666667 7:0.6 8:-0.733333 9:-0.733333 10:-0.2 11:0.466667 12:0.2 13:-0.466667 14:0.466667 15:-0.733333 16:-0.0666667 
0.0 0.0 0.0 0.0 0.0 0.0 1.0 1.0 0.0 0.0 0.0 0.0 0.0 0.0 0.0 0.0 0.0 0.0 1.0 1.0 0.0 0.0 1.0 1.0 1.0 1:-0.333333 2:0.333333 3:-0.0666667 4:-0.0666667 5:-0.466667 6:-0.333333 7:0.333333 8:-0.6 9:-0.733333 10:0.2 11:0.466667 12:-0.0666667 13:-0.466667 14:0.2 15:-0.333333 16:0.0666667 
0.0 0.0 0.0 0.0 0.0 0.0 0.7403560047082981 0.0 0.0 1.0 0.0 1.0 0.0 0.0 0.0 0.0 0.0 0.0 0.0 0.0 0.0 0.0 0.0 0.0 0.0 1:-0.733333 2:-0.733333 3:-0.466667 4:-0.6 5:-0.733333 6:-0.0666667 7:0.6 8:-0.733333 9:-0.6 10:-0.0666667 11:0.466667 12:0.2 13:-0.733333 14:0.333333 15:-0.866667 16:0.0666667 
0.0 0.0 0.0 0.0 0.0 0.0 0.0 0.0 0.0 0.0 0.0 0.0 0.0 0.0 0.0 0.0 0.0 0.0 0.0 0.0 0.0 0.0 1.0 0.0 0.0 1:-0.466667 2:-0.333333 3:-0.2 4:-0.6 5:-0.733333 6:-0.466667 7:0.6 8:-0.6 9:-0.6 10:0.333333 11:0.466667 12:-0.0666667 13:-0.733333 14:0.333333 15:-0.866667 16:0.0666667 
0.0 0.0 0.0 0.0 0.0 0.0 0.0 0.0 0.0 1.0 0.0 1.0 0.0 0.0 0.0 1.0 0.0 0.0 0.0 0.0 0.0 1.0 0.0 0.0 0.0 1:-0.733333 2:-0.866667 3:-0.466667 4:-0.866667 5:-0.866667 6:-0.0666667 7:0.6 8:-0.6 9:-0.733333 10:-0.2 11:0.466667 12:0.2 13:-0.733333 14:0.466667 15:-1.0 16:-0.0666667 
0.0 0.0 0.0 0.0 0.0 0.0 0.0 1.0 0.0 0.0 0.0 0.0 0.0 0.0 0.0 0.0 1.0 0.0 0.0 1.0 0.0 1.0 0.0 0.0 0.0 1:-0.466667 2:-0.0666667 3:-0.2 4:-0.333333 5:-0.466667 6:0.0666667 7:0.466667 8:-0.733333 9:-0.733333 10:-0.2 11:0.333333 12:0.0666667 13:-0.466667 14:0.333333 15:-0.466667 16:0.2 
0.0 0.0 0.0 0.0 0.0 0.0 0.0 0.34603716200880824 0.07798544010492561 1.0 0.0 1.0 0.0 1.0 0.0 1.0 1.0 0.0 0.0 0.0 0.0 0.0 0.0 0.0 0.0 1:-0.733333 2:-0.866667 3:-0.466667 4:-0.733333 5:-0.866667 6:0.0666667 7:0.6 8:-0.6 9:-0.6 10:-0.333333 11:0.466667 12:0.2 13:-0.733333 14:0.333333 15:-0.866667 16:0.0666667 
0.0 0.0 0.0 0.0 0.0 1.0 1.0 0.0 0.0 0.0 1.0 0.0 0.0 0.0 0.0 1.0 0.0 0.0 1.0 0.0 1.0 0.0 1.0 0.0 1.0 1:0.2 2:0.6 3:0.0666667 4:-0.0666667 5:-0.466667 6:-0.333333 7:0.333333 8:-0.466667 9:-0.466667 10:0.333333 11:0.0666667 12:-0.333333 13:-0.466667 14:0.466667 15:-0.733333 16:0.0666667 
1.0 1.0 1.0 1.0 1.0 1.0 1.0 1.0 1.0 1.0 1.0 0.0 1.0 1.0 1.0 1.0 1.0 1.0 1.0 1.0 1.0 1.0 1.0 1.0 1.0 1:-0.6 2:-0.2 3:-0.333333 4:-0.466667 5:-0.333333 6:0.0666667 7:-0.333333 8:-0.333333 9:-0.733333 10:-0.0666667 11:-0.0666667 12:-0.0666667 13:-0.466667 14:0.2 15:-0.466667 16:-0.2 
0.0 0.0 0.0 0.0 0.0 0.0 0.0 0.0 0.0 0.0 0.0 0.0 0.0 0.0 0.0 0.0 0.0 0.0 0.0 0.0 0.0 1.0 0.0 0.0 0.0 1:-0.333333 2:0.2 3:-0.0666667 4:-0.0666667 5:-0.6 6:-0.333333 7:0.2 8:-0.466667 9:-0.866667 10:0.2 11:0.733333 12:0.0666667 13:-0.333333 14:0.333333 15:-0.733333 16:0.2 
0.0 0.0 0.0 0.0 0.0 0.0 1.0 1.0 0.0 0.0 0.0 0.0 1.0 0.0 1.0 1.0 0.0 0.0 0.0 0.0 1.0 1.0 0.0 0.0 0.0 1:-0.0666667 2:0.466667 3:-0.2 4:-0.2 5:-0.6 6:0.2 7:0.0666667 8:-0.2 9:-0.466667 10:-0.0666667 11:0.333333 12:-0.0666667 13:-0.0666667 14:0.6 15:-0.6 16:0.0666667 
0.0 0.0 0.0 0.0 0.0 0.0 0.0 0.0 0.0 1.0 0.0 1.0 0.0 0.0 0.0 0.0 0.0 0.0 0.0 0.0 0.0 0.0 0.0 0.0 0.0 1:-0.6 2:-0.466667 3:-0.333333 4:-0.6 5:-0.733333 6:-0.2 7:0.6 8:-0.733333 9:-0.6 10:-0.0666667 11:0.466667 12:0.0666667 13:-0.733333 14:0.333333 15:-0.866667 16:0.0666667 
0.0 0.0 0.0 0.0 0.0 0.0 0.0 0.0 0.0 1.0 0.0 1.0 0.0 0.0 0.0 0.0 0.0 0.0 0.0 0.0 0.0 1.0 1.0 0.0 1.0 1:-0.733333 2:-0.6 3:-0.733333 4:-0.866667 5:-0.866667 6:-0.333333 7:0.6 8:-0.6 9:-0.733333 10:0.2 11:0.333333 12:-0.0666667 13:-0.733333 14:0.466667 15:-0.866667 16:0.0666667 
0.0 0.0 0.0 0.0 0.0 0.0 0.0 0.0 0.0 0.0 0.0 0.0 0.0 0.0 1.0 0.0 0.0 0.0 0.0 0.0 0.0 0.0 0.0 0.0 0.0 1:-0.6 2:0.333333 3:-0.333333 4:-0.0666667 5:-0.733333 6:-0.0666667 7:0.0666667 8:-0.466667 9:-0.6 10:-0.0666667 11:0.866667 12:0.0666667 13:-0.6 14:0.2 15:-1.0 16:0.0666667 
0.0 0.0 0.0 0.0 0.0 0.0 0.0 0.0 0.0 1.0 0.0 1.0 0.0 0.0 0.0 0.0 0.0 0.0 0.0 0.0 0.0 0.0 0.0 0.0 0.0 1:0.2 2:0.733333 3:-0.0666667 4:-0.0666667 5:-0.466667 6:0.2 7:0.333333 8:-0.333333 9:-0.333333 10:-0.2 11:0.333333 12:-0.2 13:-0.333333 14:0.6 15:-0.6 16:-0.2 
1.0 0.0 1.0 1.0 1.0 1.0 1.0 1.0 1.0 1.0 1.0 0.0 1.0 1.0 1.0 1.0 1.0 0.0 1.0 1.0 1.0 1.0 1.0 1.0 1.0 1:-0.466667 2:-0.0666667 3:-0.2 4:-0.333333 5:-0.2 6:-0.0666667 7:-0.2 8:-0.466667 9:-0.733333 10:0.0666667 11:0.0666667 12:0.0666667 13:-0.333333 14:0.333333 15:-0.466667 16:-0.0666667 
0.0 0.0 0.0 0.0 0.0 0.0 0.0 0.0 0.0 0.0 0.0 0.0 0.0 0.0 0.0 0.0 0.0 0.0 0.0 0.0 0.0 0.0 0.0 0.0 1.0 1:0.2 2:0.733333 3:0.2 4:-0.0666667 5:-0.466667 6:-0.2 7:0.333333 8:-0.466667 9:-0.6 10:0.0666667 11:0.0666667 12:-0.333333 13:-0.333333 14:0.6 15:-0.6 16:0.2 
1.0 1.0 1.0 1.0 1.0 1.0 1.0 1.0 1.0 1.0 1.0 1.0 1.0 1.0 1.0 1.0 1.0 1.0 1.0 1.0 1.0 1.0 1.0 1.0 1.0 1:-0.2 2:0.2 3:0.0666667 4:0.0666667 5:0.2 6:0.0666667 7:-0.0666667 8:-0.333333 9:-0.333333 10:-0.0666667 11:-0.2 12:0.0666667 13:0.0666667 14:0.0666667 15:0.333333 16:-0.6 
0.0 0.0 0.0 0.0 0.0 0.0 0.0 0.0 0.0 1.0 0.0 0.0 0.0 0.0 0.0 0.0 0.0 0.0 0.0 0.0 0.0 0.0 0.0 0.0 0.0 1:-0.466667 2:0.333333 3:-0.333333 4:0.0666667 5:-0.6 6:-0.333333 7:0.466667 8:-0.6 9:-0.6 10:0.2 11:0.6 12:0.2 13:-0.733333 14:0.333333 15:-0.866667 16:0.0666667 
0.0 0.0 0.0 0.0 0.0 0.0 0.0 0.0 0.0 1.0 0.0 0.0 0.0 0.0 0.0 0.0 0.0 0.0 0.0 0.0 0.0 0.0 0.0 0.0 0.0 1:-0.6 2:-0.0666667 3:-0.466667 4:-0.333333 5:-0.733333 6:0.2 7:0.2 8:-0.466667 9:-0.733333 10:-0.333333 11:0.733333 12:0.0666667 13:-0.733333 14:0.333333 15:-1.0 16:0.0666667 
1.0 0.0 0.32233774842481333 1.0 0.0 1.0 1.0 1.0 1.0 1.0 0.0 0.0 1.0 1.0 1.0 1.0 1.0 0.0 1.0 1.0 1.0 1.0 0.0 0.8671379387003775 1.0 1:-0.333333 2:0.466667 3:0.0666667 4:0.0666667 5:0.333333 6:0.0666667 7:-0.333333 8:-0.333333 9:-0.733333 10:0.0666667 11:0.0666667 12:0.0666667 13:-0.2 14:0.2 15:-0.466667 16:0.0666667 
1.0 1.0 1.0 1.0 1.0 1.0 1.0 1.0 1.0 1.0 1.0 1.0 1.0 1.0 1.0 1.0 1.0 0.4774054917145897 1.0 1.0 1.0 1.0 1.0 1.0 1.0 1:-0.333333 2:0.2 3:-0.0666667 4:0.0666667 5:0.2 6:-0.0666667 7:-0.2 8:-0.333333 9:-0.466667 10:-0.2 11:-0.333333 12:0.0666667 13:-0.0666667 14:0.333333 15:-0.0666667 16:0.2 
1.0 0.0 0.0 0.0 0.0 0.0 0.0 0.0 0.0 0.5981647663677094 0.0 0.0 0.0 0.0 0.0 0.0 0.0 0.0 0.0 0.0 0.0 0.0 0.0 0.0 0.0 1:-0.466667 2:0.466667 3:-0.2 4:0.0666667 5:-0.466667 6:-0.2 7:0.466667 8:-0.733333 9:-0.6 10:-0.0666667 11:0.466667 12:0.2 13:-0.733333 14:0.333333 15:-0.866667 16:0.2 
0.0 0.0 0.0 0.0 0.0 0.0 0.0 0.0 0.0 0.0 0.0 0.0 1.0 0.0 1.0 1.0 0.0 0.0 0.0 0.0 0.0 1.0 0.0 0.0 0.0 1:-0.0666667 2:0.333333 3:-0.0666667 4:0.0666667 5:-0.466667 6:-0.466667 7:0.466667 8:-0.733333 9:-0.466667 10:0.2 11:0.466667 12:-0.0666667 13:-0.466667 14:0.2 15:-0.866667 16:-0.0666667 
1.0 0.0 0.0 0.0 1.0 0.0 0.0 1.0 0.0 1.0 0.0 0.0 0.0 1.0 0.0 0.0 1.0 0.0 0.0 0.0 0.0 0.0 0.0 1.0 0.0 1:-0.333333 2:0.2 3:-0.2 4:-0.0666667 5:-0.466667 6:0.0666667 7:0.466667 8:-0.6 9:-0.733333 10:-0.333333 11:0.333333 12:0.2 13:-0.733333 14:0.333333 15:-0.6 16:0.2 
1.0 0.5913001089998396 0.0 0.0 1.0 1.0 0.0 0.0 1.0 1.0 1.0 1.0 0.0 0.0 1.0 0.0 0.0 1.0 1.0 0.0 0.0 0.0 0.0 0.0 0.0 1:0.0666667 2:0.866667 3:-0.0666667 4:0.0666667 5:-0.6 6:0.2 7:0.333333 8:-0.466667 9:-0.2 10:-0.2 11:0.466667 12:-0.2 13:-0.466667 14:0.466667 15:-0.6 16:-0.2 
0.0 0.0 0.0 0.0 0.0 0.0 0.0 0.0 0.0 1.0 0.0 0.0 0.0 0.0 0.0 0.0 0.0 0.0 0.0 0.0 0.0 0.0 0.0 0.0 0.0 1:-0.6 2:-0.0666667 3:-0.333333 4:-0.333333 5:-0.733333 6:0.0666667 7:0.2 8:-0.466667 9:-0.866667 10:-0.2 11:0.6 12:0.0666667 13:-0.733333 14:0.333333 15:-1.0 16:0.0666667 
0.0 0.0 0.0 0.0 0.0 0.0 0.0 0.0 0.0 0.0 0.0 0.0 0.0 0.0 1.0 0.0 0.0 0.0 0.0 0.0 0.0 0.0 0.0 0.0 0.0 1:-0.466667 2:0.0666667 3:-0.2 4:-0.2 5:-0.866667 6:-0.0666667 7:0.0666667 8:-0.466667 9:-0.6 10:-0.0666667 11:0.866667 12:0.0666667 13:-0.6 14:0.2 15:-1.0 16:0.0666667 
1.0 0.0 1.0 0.0 0.0 0.0 0.0 0.0 0.0 1.0 0.0 1.0 0.0 0.0 0.0 0.0 0.0 0.0 0.0 0.0 0.0 0.0 0.0 0.0 0.0 1:-0.466667 2:0.333333 3:-0.2 4:0.0666667 5:-0.6 6:-0.2 7:0.466667 8:-0.6 9:-0.466667 10:-0.0666667 11:0.6 12:0.2 13:-0.733333 14:0.333333 15:-0.866667 16:0.2 
0.0 0.0 0.0 0.0 0.0 0.0 0.0 0.0 0.0 0.0 0.0 0.0 0.0 0.0 0.0 1.0 0.0 0.0 0.0 0.0 0.0 1.0 0.0 0.0 0.0 1:-0.0666667 2:0.333333 3:-0.0666667 4:-0.0666667 5:-0.6 6:-0.466667 7:0.466667 8:-0.733333 9:-0.466667 10:0.2 11:0.466667 12:-0.0666667 13:-0.466667 14:0.333333 15:-0.866667 16:-0.0666667 
0.0 0.0 0.0 0.0 0.0 0.0 0.0 0.0 0.0 0.0 0.0 0.0 0.0 1.0 0.0 0.0 0.0 0.0 0.0 0.0 0.0 0.0 0.0 0.0 0.0 1:-0.333333 2:0.2 3:-0.2 4:-0.0666667 5:-0.466667 6:-0.0666667 7:0.466667 8:-0.6 9:-0.733333 10:-0.2 11:0.466667 12:0.0666667 13:-0.6 14:0.333333 15:-0.6 16:0.2 
0.0 0.0 0.0 0.0 0.0 0.0 0.0 0.0 0.0 1.0 0.0 0.0 0.0 0.0 0.0 0.0 0.0 0.0 0.0 0.0 0.0 0.0 0.0 0.0 0.0 1:-0.466667 2:-0.333333 3:-0.0666667 4:0.0666667 5:-0.733333 6:-0.0666667 7:0.0666667 8:-0.466667 9:-0.6 10:-0.0666667 11:0.866667 12:0.0666667 13:-0.6 14:0.2 15:-1.0 16:0.0666667 
0.0 0.0 0.0 0.39593990778196547 0.0 1.0 1.0 0.0 0.0 0.0 1.0 1.0 0.2123893332612914 0.0 1.0 1.0 0.0 0.0 0.0 0.0 0.0 1.0 0.0 0.0 1.0 1:0.0666667 2:0.466667 3:0.0666667 4:-0.2 5:-0.466667 6:-0.0666667 7:0.333333 8:-0.466667 9:-0.333333 10:0.0666667 11:0.2 12:-0.2 13:-0.333333 14:0.466667 15:-0.6 16:-0.0666667 
1.0 1.0 0.6707569271660769 1.0 1.0 0.0 1.0 0.0 1.0 1.0 1.0 1.0 0.0 0.18309577757113557 -0.0 0.0 1.0 0.0 0.0 0.0 0.0 0.0 0.0 1.0 0.0 1:-0.466667 2:0.466667 3:-0.2 4:0.2 5:-0.466667 6:-0.0666667 7:0.466667 8:-0.733333 9:-0.466667 10:-0.2 11:0.466667 12:0.2 13:-0.6 14:0.2 15:-0.733333 16:0.0666667 
0.0 0.0 0.0 0.0 0.0 0.0 0.0 0.0 0.0 1.0 0.0 0.0 0.0 0.0 0.0 0.0 0.0 0.0 0.0 0.0 0.0 0.0 0.0 0.0 0.0 1:-0.466667 2:0.466667 3:-0.2 4:0.0666667 5:-0.6 6:-0.0666667 7:0.2 8:-0.466667 9:-0.733333 10:-0.0666667 11:0.733333 12:0.0666667 13:-0.733333 14:0.333333 15:-1.0 16:0.0666667 
0.0 0.0 0.0 0.0 0.0 0.0 0.0 0.0 0.0 0.0 0.0 0.0 0.0 0.0 0.0 0.0 0.0 0.0 0.0 0.0 0.0 1.0 0.0 0.0 0.0 1:-0.6 2:-0.2 3:-0.333333 4:-0.466667 5:-0.733333 6:-0.0666667 7:0.2 8:-0.466667 9:-0.733333 10:-0.2 11:0.733333 12:0.0666667 13:-0.6 14:0.333333 15:-1.0 16:0.0666667 
0.0 0.03819907422887915 0.0 0.0 0.0 1.0 1.0 0.0 0.0 0.0 0.4990314091695759 0.0 0.0 0.0 0.0 1.0 0.5170346831205074 0.0 0.0 0.0 1.0 1.0 1.0 0.0 1.0 1:-0.2 2:0.466667 3:-0.2 4:-0.2 5:-0.6 6:-0.333333 7:0.333333 8:-0.466667 9:-0.6 10:0.333333 11:0.0666667 12:-0.333333 13:-0.466667 14:0.466667 15:-0.733333 16:0.0666667 
1.0 0.0 1.0 1.0 1.0 1.0 1.0 1.0 1.0 1.0 1.0 0.0 1.0 1.0 1.0 1.0 1.0 0.0 1.0 1.0 1.0 1.0 1.0 1.0 1.0 1:-0.333333 2:0.333333 3:-0.0666667 4:-0.0666667 5:0.0666667 6:0.0666667 7:-0.0666667 8:-0.333333 9:-0.733333 10:0.0666667 11:-0.0666667 12:0.0666667 13:-0.333333 14:0.333333 15:-0.333333 16:0.0666667 
0.0 0.0 0.0 0.0 0.0 0.0 0.0 0.0 0.0 1.0 0.0 0.0 0.0 0.0 0.0 0.0 0.0 0.0 0.0 0.0 0.0 1.0 0.0 0.0 0.0 1:-0.0666667 2:0.466667 3:-0.2 4:-0.2 5:-0.6 6:0.2 7:0.2 8:-0.2 9:-0.466667 10:-0.2 11:0.333333 12:-0.2 13:-0.2 14:0.733333 15:-0.6 16:-0.2 
0.0 0.0 0.0 0.0 0.0 0.0 0.0 0.0 0.0 0.0 0.0 0.0 0.0 0.0 0.0 1.0 0.0 0.0 0.0 0.0 0.0 1.0 0.0 0.0 0.0 1:0.0666667 2:0.466667 3:0.0666667 4:0.0666667 5:-0.333333 6:-0.6 7:0.6 8:-0.733333 9:-0.6 10:0.2 11:0.466667 12:0.0666667 13:-0.2 14:0.466667 15:-0.6 16:-0.2 
0.0 0.0 0.0 0.0 0.0 0.0 0.0 0.0 0.0 0.0 0.0 0.0 0.0 0.0 0.0 1.0 0.0 0.0 0.0 0.0 0.0 1.0 0.0 0.0 0.0 1:-0.466667 2:-0.466667 3:-0.333333 4:-0.6 5:-0.733333 6:-0.333333 7:0.6 8:-0.733333 9:-0.6 10:0.2 11:0.466667 12:-0.0666667 13:-0.466667 14:0.466667 15:-0.866667 16:-0.0666667 
1.0 1.0 1.0 1.0 1.0 1.0 1.0 1.0 1.0 1.0 1.0 1.0 1.0 1.0 1.0 1.0 1.0 1.0 1.0 1.0 1.0 1.0 1.0 1.0 1.0 1:-0.0666667 2:0.2 3:0.2 4:0.0666667 5:0.333333 6:-0.0666667 7:0.0666667 8:-0.333333 9:-0.2 10:0.0666667 11:-0.2 12:0.0666667 13:-0.0666667 14:-0.0666667 15:0.0666667 16:0.0666667 
0.0 0.0 0.0 0.0 0.0 0.0 0.0 0.0 0.0 0.0 0.0 0.0 1.0 0.0 0.0 1.0 0.0 0.0 0.0 0.0 0.0 1.0 0.0 0.0 0.0 1:0.0666667 2:0.466667 3:0.0666667 4:0.0666667 5:-0.466667 6:-0.466667 7:0.6 8:-0.733333 9:-0.466667 10:0.0666667 11:0.466667 12:-0.0666667 13:-0.2 14:0.333333 15:-0.866667 16:-0.0666667 
0.0 0.0 0.0 1.0 0.0 0.0 1.0 1.0 1.0 0.0 0.0 0.0 1.0 1.0 1.0 1.0 1.0 0.0 0.15892837313253202 1.0 1.0 1.0 0.0 1.0 1.0 1:-0.333333 2:0.2 3:0.0666667 4:-0.2 5:0.0666667 6:-0.0666667 7:-0.0666667 8:-0.466667 9:-0.733333 10:0.0666667 11:0.0666667 12:0.0666667 13:-0.333333 14:0.333333 15:-0.466667 16:0.0666667 
0.0 0.0 0.0 0.0 0.0 0.0 0.0 0.0 0.0 0.0 0.0 0.0 0.0 0.0 0.0 0.0 0.0 0.0 0.0 0.0 0.0 1.0 0.0 0.0 0.0 1:-0.2 2:0.0666667 3:-0.333333 4:-0.2 5:-0.6 6:-0.466667 7:0.6 8:-0.866667 9:-0.733333 10:0.0666667 11:0.333333 12:-0.0666667 13:-0.466667 14:0.6 15:-0.866667 16:0.0666667 
0.0 0.0 0.0 0.0 0.0 1.0 0.0 0.9364508694330281 0.0 0.0 0.0 0.0 0.0 0.0 0.0 0.0 0.0 0.0 0.0 0.0 1.0 0.0 0.0 0.0 1.0 1:-0.2 2:0.6 3:-0.333333 4:-0.0666667 5:-0.6 6:-0.0666667 7:0.333333 8:-0.2 9:-0.466667 10:0.2 11:0.2 12:-0.333333 13:-0.333333 14:0.6 15:-0.6 16:0.0666667 
0.0 0.0 0.0 0.0 0.0 0.0 0.0 0.0 0.0 0.5945868938978124 0.0 0.0 0.0 0.0 0.0 0.0 0.0 0.0 0.0 0.0 0.0 0.0 0.0 0.0 0.0 1:-0.6 2:-0.6 3:-0.466667 4:-0.733333 5:-0.866667 6:-0.466667 7:0.733333 8:-0.6 9:-0.733333 10:0.333333 11:0.466667 12:-0.0666667 13:-0.733333 14:0.466667 15:-0.866667 16:0.0666667 
0.0 0.0 0.0 0.0 0.0 0.0 0.0 0.0 0.0 0.0 0.0 0.0 0.0 0.0 0.0 1.0 0.0 0.0 0.0 0.0 0.0 1.0 0.0 0.0 0.0 1:0.0666667 2:0.466667 3:0.0666667 4:0.0666667 5:-0.333333 6:-0.6 7:0.6 8:-0.733333 9:-0.6 10:0.2 11:0.333333 12:-0.0666667 13:-0.333333 14:0.466667 15:-0.733333 16:-0.2 
0.0 0.0 0.0 0.0 0.0 0.0 0.0 0.0 0.0 0.0 0.0 0.0 0.0 0.0 0.0 0.3125957826221753 0.0 0.0 0.0 0.0 0.0 0.0 0.0 0.0 0.0 1:-0.0666667 2:0.2 3:-0.0666667 4:-0.0666667 5:-0.6 6:-0.6 7:0.466667 8:-0.466667 9:-0.466667 10:0.333333 11:0.6 12:-0.0666667 13:-0.6 14:0.333333 15:-0.866667 16:-0.0666667 
0.0 0.0 0.0 0.0 0.0 0.0 0.0 0.0 0.0 0.0 0.0 1.0 0.0 0.0 0.0 0.0 0.0 0.0 0.0 0.0 0.0 0.0 1.0 0.0 1.0 1:-0.6 2:-0.6 3:-0.466667 4:-0.733333 5:-0.866667 6:-0.333333 7:0.733333 8:-0.466667 9:-0.6 10:0.333333 11:0.466667 12:-0.2 13:-0.733333 14:0.333333 15:-0.866667 16:0.0666667 
0.0 0.0 0.0 0.0 0.0 0.0 0.0 0.0 0.0 1.0 0.0 0.0 0.0 0.0 1.0 0.0 0.0 0.0 0.0 0.0 0.0 0.0 0.0 0.0 0.0 1:-0.6 2:-0.466667 3:-0.333333 4:-0.2 5:-0.866667 6:0.0666667 7:0.0666667 8:-0.466667 9:-0.6 10:-0.0666667 11:0.866667 12:0.0666667 13:-0.6 14:0.2 15:-1.0 16:0.0666667 
0.0 0.0 0.0 0.0 0.0 0.0 0.0 0.0 0.0 1.0 0.0 0.0 0.0 1.0 0.6069142855341181 0.0 0.0 0.0 0.0 0.0 0.0 0.0 0.0 0.0 0.0 1:-0.6 2:-0.466667 3:-0.333333 4:-0.0666667 5:-0.866667 6:0.0666667 7:0.0666667 8:-0.466667 9:-0.6 10:-0.2 11:0.866667 12:0.0666667 13:-0.6 14:0.2 15:-1.0 16:0.0666667 
0.0 0.0 0.0 0.0 0.0 0.0 0.0 0.0 0.0 1.0 0.0 0.0 0.0 0.0 0.0 0.0 0.0 0.0 0.0 0.0 0.0 0.0 0.0 0.0 0.0 1:-0.733333 2:-0.2 3:-0.466667 4:-0.466667 5:-0.866667 6:0.0666667 7:0.0666667 8:-0.466667 9:-0.733333 10:-0.2 11:0.733333 12:0.0666667 13:-0.6 14:0.333333 15:-1.0 16:0.0666667 
0.0 0.0 0.0 0.0 0.0 0.0 0.0 0.0 0.0 1.0 0.0 0.0 0.0 0.0 0.0 0.0 0.0 0.0 0.0 0.0 0.0 0.0 0.0 0.0 0.0 1:-0.6 2:-0.0666667 3:-0.333333 4:-0.333333 5:-0.6 6:0.2 7:0.466667 8:-0.733333 9:-0.733333 10:-0.466667 11:0.333333 12:0.0666667 13:-0.733333 14:0.6 15:-0.866667 16:0.0666667 
0.0 0.0 0.0 0.0 0.0 0.0 0.0 0.0 0.0 1.0 0.0 0.0 0.0 0.0 0.0 0.0 0.0 0.0 0.0 0.0 0.0 0.0 0.0 0.0 0.0 1:-0.6 2:-0.0666667 3:-0.333333 4:-0.333333 5:-0.866667 6:0.0666667 7:0.0666667 8:-0.466667 9:-0.733333 10:-0.2 11:0.866667 12:0.0666667 13:-0.6 14:0.333333 15:-1.0 16:0.0666667 
0.0 0.1442966795000355 0.0 0.0 0.0 0.0 0.0 0.0 0.3855389156377922 1.0 0.0 1.0 0.0 1.0 0.0 0.0 8.594144741381534E-4 0.0 0.0 0.0 0.0 0.0 0.0 0.0 0.0 1:-0.466667 2:0.2 3:-0.333333 4:-0.0666667 5:-0.466667 6:0.2 7:0.466667 8:-0.733333 9:-0.6 10:-0.466667 11:0.333333 12:0.0666667 13:-0.6 14:0.333333 15:-0.733333 16:0.0666667 
0.0 0.0 0.0 0.0 0.0 0.0 0.0 0.0 0.0 1.0 0.0 0.0 0.0 0.0 0.0 0.0 0.0 0.0 0.0 0.0 0.0 0.0 0.0 0.0 0.0 1:-0.6 2:0.2 3:-0.333333 4:-0.0666667 5:-0.866667 6:0.333333 7:0.0666667 8:-0.466667 9:-0.6 10:-0.333333 11:0.866667 12:0.0666667 13:-0.6 14:0.333333 15:-1.0 16:0.0666667 
1.0 1.0 1.0 1.0 1.0 1.0 1.0 1.0 1.0 1.0 1.0 1.0 1.0 1.0 1.0 1.0 1.0 1.0 1.0 1.0 1.0 1.0 1.0 1.0 1.0 1:-0.466667 2:0.0666667 3:-0.2 4:-0.0666667 5:-0.0666667 6:0.0666667 7:-0.0666667 8:-0.466667 9:-0.466667 10:-0.0666667 11:-0.2 12:0.0666667 13:-0.0666667 14:-0.0666667 15:0.2 16:-0.333333 
0.0 0.0 0.0 0.0 0.0 0.0 0.0 0.0 0.0 0.0 0.0 0.0 0.0 0.0 1.0 0.0 0.0 0.0 0.0 0.0 0.0 0.0 0.0 0.0 0.0 1:-0.6 2:0.333333 3:-0.333333 4:-0.0666667 5:-0.733333 6:-0.333333 7:0.0666667 8:-0.333333 9:-0.6 10:0.2 11:0.866667 12:0.0666667 13:-0.6 14:0.333333 15:-1.0 16:0.0666667 
0.0 0.0 1.0 1.0 0.0 0.0 0.0 0.0 0.0 0.0 0.0 0.0 0.0 0.0 1.0 1.0 0.0 0.0 0.0 0.0 0.0 0.0 0.0 0.0 0.0 1:-0.466667 2:0.2 3:-0.2 4:-0.2 5:-0.6 6:-0.466667 7:0.466667 8:-0.6 9:-0.466667 10:0.2 11:0.6 12:0.2 13:-0.6 14:0.333333 15:-0.866667 16:0.0666667 
0.0 0.0 0.0 0.0 0.0 0.0 0.0 0.0 0.0 0.0 0.0 0.0 0.0 0.0 0.0 0.0 0.0 0.0 0.0 0.0 0.0 0.0 1.0 0.0 1.0 1:-0.6 2:-0.333333 3:-0.333333 4:-0.466667 5:-0.733333 6:-0.466667 7:0.6 8:-0.6 9:-0.6 10:0.2 11:0.466667 12:-0.0666667 13:-0.733333 14:0.333333 15:-0.866667 16:0.0666667 
0.0 0.0 0.0 0.0 0.0 0.0 0.0 0.0 0.0 1.0 0.0 0.0 0.0 0.0 0.0 0.0 0.0 0.0 0.0 0.0 0.0 0.0 0.0 0.0 0.0 1:-0.6 2:-0.333333 3:-0.2 4:-0.466667 5:-0.733333 6:-0.2 7:0.6 8:-0.733333 9:-0.6 10:0.0666667 11:0.466667 12:0.0666667 13:-0.733333 14:0.333333 15:-0.866667 16:0.2 
0.0 0.0 1.0 1.0 0.0 0.0 0.0 0.0 0.0 0.0 0.0 0.0 0.0 0.0 0.0 0.0 0.0 0.0 0.0 0.0 0.0 0.0 0.0 1.0 0.0 1:-0.6 2:0.0666667 3:-0.333333 4:-0.2 5:-0.733333 6:-0.333333 7:0.466667 8:-0.6 9:-0.466667 10:0.2 11:0.6 12:0.2 13:-0.6 14:0.333333 15:-0.866667 16:0.2 
0.0 0.0 0.0 0.0 0.0 0.45874981006092486 0.0 0.0 0.0 1.0 0.0 0.0 0.0 0.0 0.0 1.0 0.0 0.0 0.0 0.0 0.0 1.0 0.0 0.0 1.0 1:-0.0666667 2:0.733333 3:-0.0666667 4:-0.0666667 5:-0.466667 6:0.2 7:0.0666667 8:-0.466667 9:-0.466667 10:0.0666667 11:0.0666667 12:-0.333333 13:-0.2 14:0.733333 15:-0.6 16:-0.0666667 
0.0 0.0 0.0 0.0 0.0 0.0 0.0 0.0 0.0 1.0 0.0 0.0 0.0 0.0 0.0 0.0 0.0 0.0 0.0 0.0 0.0 1.0 0.0 0.0 0.0 1:-0.6 2:-0.333333 3:-0.2 4:-0.466667 5:-0.733333 6:-0.0666667 7:0.6 8:-0.733333 9:-0.6 10:-0.2 11:0.466667 12:0.2 13:-0.466667 14:0.6 15:-0.733333 16:-0.0666667 
0.0 0.0 0.0 0.0 0.0 0.0 0.0 0.0 0.0 1.0 0.0 0.0 0.0 0.0 1.0 0.0 0.0 0.0 0.0 0.0 0.0 0.0 0.0 0.0 0.0 1:-0.6 2:-0.466667 3:-0.333333 4:-0.2 5:-0.866667 6:-0.0666667 7:0.0666667 8:-0.466667 9:-0.6 10:-0.0666667 11:0.866667 12:0.0666667 13:-0.6 14:0.2 15:-1.0 16:0.0666667 
0.0 0.0 0.0 0.0 0.0 0.0 0.0 0.0 0.0 1.0 0.0 0.0 0.0 1.0 0.0 0.0 0.0 0.0 0.0 0.0 0.0 0.0 0.0 0.0 0.0 1:-0.733333 2:-0.6 3:-0.466667 4:-0.333333 5:-0.866667 6:0.2 7:0.0666667 8:-0.466667 9:-0.733333 10:-0.2 11:0.733333 12:0.0666667 13:-0.6 14:0.333333 15:-1.0 16:0.0666667 
0.0 0.0 0.0 0.0 0.0 0.0 0.0 0.0 0.0 1.0 0.0 1.0 0.0 0.0 0.0 0.0 0.0 0.0 0.0 0.0 0.0 0.0 0.0 0.0 0.0 1:-0.466667 2:0.2 3:-0.2 4:-0.0666667 5:-0.6 6:0.0666667 7:0.466667 8:-0.6 9:-0.466667 10:-0.333333 11:0.466667 12:0.0666667 13:-0.6 14:0.333333 15:-0.866667 16:0.0666667 
0.0 0.0 0.0 0.0 0.0 0.0 0.0 0.0 0.0 1.0 0.0 0.0 0.0 0.0 0.0 0.0 0.0 0.0 0.0 0.0 0.0 0.0 0.0 0.0 0.0 1:-0.466667 2:-0.466667 3:-0.2 4:-0.0666667 5:-0.866667 6:0.0666667 7:0.0666667 8:-0.466667 9:-0.6 10:-0.0666667 11:0.866667 12:0.0666667 13:-0.6 14:0.2 15:-1.0 16:0.0666667 
0.1062752085479867 0.0 1.0 1.0 0.0 0.0 1.0 1.0 0.0 1.0 1.0 1.0 0.0 0.0 1.0 0.0 0.0 0.0 1.0 0.0 1.0 0.0 1.0 1.0 0.0 1:-0.0666667 2:0.333333 3:-0.2 4:0.0666667 5:-0.6 6:-0.733333 7:0.466667 8:-0.333333 9:-0.333333 10:0.6 11:0.6 12:0.0666667 13:-0.733333 14:0.333333 15:-0.866667 16:0.0666667 
1.0 1.0 1.0 1.0 1.0 1.0 1.0 1.0 1.0 1.0 1.0 0.0 1.0 1.0 1.0 1.0 1.0 1.0 1.0 1.0 1.0 1.0 1.0 1.0 1.0 1:-0.733333 2:-0.2 3:-0.466667 4:-0.466667 5:-0.466667 6:0.0666667 7:-0.0666667 8:-0.466667 9:-0.733333 10:0.0666667 11:-0.0666667 12:0.0666667 13:-0.333333 14:0.333333 15:-0.466667 16:-0.0666667 
1.0 1.0 1.0 1.0 1.0 1.0 1.0 1.0 1.0 1.0 1.0 1.0 1.0 1.0 1.0 1.0 1.0 1.0 1.0 1.0 1.0 1.0 1.0 1.0 1.0 1:-0.466667 2:-0.2 3:-0.2 4:-0.333333 5:-0.2 6:-0.0666667 7:-0.0666667 8:-0.466667 9:-0.466667 10:-0.0666667 11:-0.2 12:0.0666667 13:-0.2 14:0.333333 15:-0.0666667 16:-0.0666667 
1.0 1.0 1.0 1.0 1.0 1.0 1.0 1.0 1.0 1.0 1.0 1.0 1.0 1.0 1.0 1.0 1.0 1.0 1.0 1.0 1.0 1.0 1.0 1.0 1.0 1:-0.333333 2:-0.0666667 3:-0.0666667 4:-0.2 5:-0.0666667 6:0.0666667 7:-0.2 8:-0.333333 9:-0.333333 10:-0.0666667 11:-0.2 12:0.0666667 13:-0.0666667 14:0.333333 15:-0.2 16:-0.0666667 
0.0 0.0 0.0 0.0 0.0 0.0 0.0 0.0 0.0 1.0 0.0 0.0 0.0 0.0 0.0 0.0 0.0 0.0 0.0 0.0 0.0 0.0 0.0 0.0 0.0 1:-0.6 2:-0.466667 3:-0.333333 4:-0.2 5:-0.866667 6:0.2 7:0.0666667 8:-0.466667 9:-0.6 10:-0.2 11:0.866667 12:0.0666667 13:-0.6 14:0.333333 15:-1.0 16:0.0666667 
0.0 0.0 0.0 0.0 0.0 0.0 0.0 0.0 0.0 0.814262845212259 0.0 1.0 0.0 0.0 0.0 0.0 0.0 0.0 0.0 0.0 0.0 0.0 0.0 0.0 0.0 1:-0.466667 2:0.2 3:-0.0666667 4:-0.0666667 5:-0.6 6:-0.333333 7:0.6 8:-0.6 9:-0.466667 10:0.0666667 11:0.6 12:0.2 13:-0.733333 14:0.333333 15:-0.866667 16:0.0666667 
0.0 0.0 0.0 0.0 0.0 0.0 0.0 0.0 0.0 0.0 0.0 0.0 0.0 0.0 0.0 1.0 0.0 0.0 0.0 0.0 0.0 1.0 0.0 0.0 0.0 1:-0.6 2:-0.333333 3:-0.466667 4:-0.6 5:-0.866667 6:-0.466667 7:0.6 8:-0.466667 9:-0.6 10:0.333333 11:0.466667 12:-0.0666667 13:-0.6 14:0.333333 15:-0.866667 16:0.0666667 
0.0 0.0 0.0 1.0 0.0 0.0 1.0 1.0 0.0 1.0 0.0 0.0 1.0 0.0 1.0 1.0 0.0 0.0 0.0 0.0 0.0 1.0 0.0 0.0 0.0 1:-0.866667 2:-1.0 3:-0.733333 4:-1.0 5:-1.0 6:-0.0666667 7:0.2 8:-0.6 9:-0.733333 10:-0.0666667 11:0.6 12:0.0666667 13:-0.733333 14:0.333333 15:-1.0 16:0.0666667 
0.0 0.0 0.0 0.0 0.0 0.0 0.0 0.0 0.0 1.0 0.0 0.0 0.0 0.0 0.0 0.0 0.0 0.0 0.0 0.0 0.0 0.0 0.0 0.0 0.0 1:-0.866667 2:-1.0 3:-0.733333 4:-0.866667 5:-1.0 6:0.0666667 7:0.2 8:-0.6 9:-0.733333 10:-0.0666667 11:0.6 12:0.0666667 13:-0.733333 14:0.466667 15:-1.0 16:0.0666667 
0.0 0.0 0.0 0.0 0.0 0.0 0.0 0.0 0.0 1.0 0.0 0.0 0.0 0.0 0.0 -0.0 0.0 0.0 0.0 0.0 0.0 0.0 0.0 0.0 0.0 1:0.2 2:1.0 3:0.0666667 4:0.2 5:-0.466667 6:0.2 7:0.333333 8:-0.2 9:-0.466667 10:-0.2 11:0.333333 12:-0.2 13:-0.2 14:0.733333 15:-0.6 16:-0.2 
0.0 0.0 0.0 0.0 0.0 0.0 0.0 0.0 0.0 1.0 0.0 0.0 0.0 0.0 0.0 0.0 0.0 0.0 0.0 0.0 0.0 0.0 0.0 0.0 0.0 1:-0.6 2:-0.0666667 3:-0.466667 4:-0.333333 5:-0.733333 6:0.0666667 7:0.2 8:-0.6 9:-0.866667 10:-0.0666667 11:0.6 12:0.0666667 13:-0.733333 14:0.333333 15:-1.0 16:0.0666667 
0.0 0.0 0.0 0.0 0.0 0.0 1.0 1.0 1.0 0.0 0.0 0.0 1.0 1.0 1.0 1.0 1.0 0.0 0.0 1.0 1.0 1.0 0.0 0.17733089451185993 1.0 1:-0.333333 2:0.2 3:0.0666667 4:-0.2 5:0.0666667 6:0.0666667 7:-0.0666667 8:-0.466667 9:-0.733333 10:-0.0666667 11:0.0666667 12:0.0666667 13:-0.333333 14:0.333333 15:-0.466667 16:0.0666667 
0.0 0.0 0.0 0.0 0.0 0.0 0.0 0.0 0.0 1.0 0.0 0.0 0.0 0.0 1.0 0.0 0.0 0.0 0.0 0.0 0.0 0.0 0.0 0.0 0.0 1:-0.866667 2:-0.866667 3:-0.733333 4:-0.866667 5:-1.0 6:-0.0666667 7:0.2 8:-0.466667 9:-0.733333 10:-0.0666667 11:0.733333 12:0.0666667 13:-0.733333 14:0.333333 15:-1.0 16:0.0666667 
0.0 0.0 0.0 0.0 0.0 0.0 0.0 0.0 0.0 1.0 0.0 0.0 0.0 0.0 0.0 0.0 0.0 0.0 0.0 0.0 0.0 0.0 0.0 0.0 0.0 1:-0.6 2:-0.6 3:-0.466667 4:-0.733333 5:-0.866667 6:-0.466667 7:0.6 8:-0.6 9:-0.733333 10:0.333333 11:0.466667 12:-0.0666667 13:-0.733333 14:0.466667 15:-0.866667 16:0.0666667 
0.0 0.0 0.0 1.0 0.0 0.0 0.0 0.0 0.0 1.0 1.0 0.0 0.0 0.0 0.0 0.0 0.0 0.0 0.0 0.0 0.0 0.0 0.0 0.0 0.0 1:-0.333333 2:0.466667 3:0.0666667 4:0.0666667 5:-0.466667 6:-0.2 7:0.466667 8:-0.733333 9:-0.466667 10:0.0666667 11:0.6 12:0.2 13:-0.6 14:0.333333 15:-0.733333 16:0.0666667 
0.0 0.0 0.0 0.0 0.0 0.0 0.0 0.0 0.0 1.0 0.0 0.0 0.0 0.0 0.0 0.0 0.0 0.0 0.0 0.0 0.0 0.0 0.0 0.0 0.0 1:-0.466667 2:0.333333 3:-0.2 4:0.0666667 5:-0.466667 6:-0.0666667 7:0.466667 8:-0.866667 9:-0.6 10:-0.2 11:0.333333 12:0.2 13:-0.6 14:0.466667 15:-0.866667 16:0.0666667 
0.0 0.0 0.0 0.0 0.0 0.0 0.0 0.0 0.0 1.0 0.0 1.0 0.0 0.0 0.0 0.0 0.0 0.0 0.0 0.0 0.0 0.0 1.0 0.0 0.0 1:-0.6 2:-0.466667 3:-0.466667 4:-0.6 5:-0.866667 6:-0.466667 7:0.6 8:-0.6 9:-0.6 10:0.333333 11:0.466667 12:-0.0666667 13:-0.733333 14:0.466667 15:-0.866667 16:0.0666667 
0.0 0.0 0.0 0.0 0.0 0.0 0.0 0.0 0.0 1.0 0.0 1.0 0.0 0.0 0.0 0.0 0.0 0.0 0.0 0.0 0.0 0.0 0.0 0.0 1.0 1:-0.6 2:-0.466667 3:-0.466667 4:-0.6 5:-0.733333 6:-0.333333 7:0.6 8:-0.6 9:-0.6 10:0.2 11:0.466667 12:-0.0666667 13:-0.733333 14:0.466667 15:-0.866667 16:0.0666667 
0.0 1.0 0.0 0.0 1.0 1.0 1.0 1.0 0.0 0.0 0.0 0.0 0.0 0.0 0.0 0.0 1.0 0.3199441763860876 1.0 1.0 1.0 0.0 1.0 0.0 1.0 1:-0.0666667 2:0.333333 3:-0.333333 4:-0.333333 5:-0.733333 6:-0.2 7:0.466667 8:-0.333333 9:-0.466667 10:0.466667 11:0.2 12:-0.466667 13:-0.466667 14:0.466667 15:-0.6 16:0.333333 
0.0 0.0 0.0 0.0 0.0 0.0 0.0 0.0 0.0 1.0 0.0 1.0 0.0 0.0 0.0 0.0 0.0 0.0 0.0 0.0 0.0 0.0 0.0 0.0 0.0 1:-0.733333 2:-0.466667 3:-0.466667 4:-0.6 5:-0.866667 6:-0.0666667 7:0.6 8:-0.733333 9:-0.6 10:-0.2 11:0.466667 12:0.2 13:-0.733333 14:0.333333 15:-0.866667 16:0.0666667 
0.0 0.0 0.0 0.0 0.0 0.0 0.0 0.0 0.0 1.0 0.0 0.0 0.0 0.0 0.0 0.0 0.0 0.0 0.0 0.0 0.0 0.0 0.0 0.0 0.0 1:-0.6 2:0.0666667 3:-0.333333 4:-0.2 5:-0.866667 6:0.0666667 7:0.0666667 8:-0.466667 9:-0.6 10:-0.2 11:0.866667 12:0.0666667 13:-0.6 14:0.333333 15:-1.0 16:0.0666667 
1.0 1.0 1.0 1.0 1.0 1.0 1.0 1.0 1.0 1.0 1.0 1.0 1.0 1.0 1.0 1.0 1.0 1.0 1.0 1.0 1.0 1.0 1.0 1.0 1.0 1:-0.466667 2:-0.333333 3:-0.2 4:-0.466667 5:-0.2 6:-0.0666667 7:-0.0666667 8:-0.333333 9:-0.466667 10:-0.0666667 11:-0.2 12:0.0666667 13:-0.2 14:0.2 15:-0.0666667 16:-0.0666667 
0.0 0.0 0.0 0.0 0.0 0.0 0.0 0.0 0.0 1.0 0.0 1.0 0.0 0.0 0.0 0.0 0.0 0.0 0.0 0.0 0.0 0.0 0.0 0.0 0.0 1:-0.466667 2:-0.0666667 3:-0.333333 4:-0.333333 5:-0.733333 6:0.2 7:0.6 8:-0.733333 9:-0.6 10:-0.466667 11:0.466667 12:0.2 13:-0.6 14:0.6 15:-0.866667 16:-0.0666667 
0.0 0.0 0.0 0.0 0.0 0.0 0.0 0.0 0.0 0.0 0.0 0.0 0.0 0.0 0.0 0.0 0.0 0.0 0.0 0.0 0.0 1.0 0.0 0.0 0.0 1:-0.2 2:0.0666667 3:-0.2 4:-0.2 5:-0.466667 6:-0.6 7:0.6 8:-0.733333 9:-0.6 10:0.2 11:0.466667 12:0.0666667 13:-0.466667 14:0.6 15:-0.866667 16:-0.0666667 
0.0 0.0 0.0 0.0 0.0 0.0 0.0 -0.0 0.0 0.0 0.0 0.0 0.0 0.0 0.0 0.0 0.0 0.0 0.0 0.0 0.0 1.0 0.0 0.0 1.0 1:-0.2 2:0.0666667 3:0.0666667 4:-0.2 5:-0.333333 6:-0.2 7:0.6 8:-0.6 9:-0.733333 10:0.0666667 11:0.333333 12:0.0666667 13:-0.2 14:0.466667 15:-0.2 16:0.0666667 
0.0 0.0 0.0 0.0 0.0 0.0 0.0 0.0 0.0 1.0 0.0 0.0 0.0 0.0 0.0 0.0 0.0 0.0 0.0 0.0 0.0 0.0 0.0 0.0 0.0 1:-0.6 2:0.0666667 3:-0.333333 4:-0.2 5:-0.866667 6:-0.2 7:0.0666667 8:-0.466667 9:-0.6 10:0.0666667 11:0.866667 12:0.0666667 13:-0.6 14:0.333333 15:-1.0 16:0.0666667 
1.0 1.0 1.0 1.0 1.0 0.0 1.0 1.0 1.0 1.0 1.0 0.0 0.0 1.0 0.0 0.0 1.0 1.0 1.0 1.0 1.0 0.0 0.0 1.0 0.0 1:-0.6 2:-0.2 3:-0.466667 4:-0.466667 5:-0.733333 6:-0.0666667 7:0.466667 8:-0.6 9:-0.733333 10:-0.0666667 11:0.333333 12:0.2 13:-0.733333 14:0.333333 15:-0.6 16:0.0666667 
0.0 0.0 0.0 0.0 0.0 1.0 0.0 0.0 0.0 0.0 0.0 0.0 0.0 0.0 0.0 0.0 0.0 0.0 0.0 0.0 1.0 0.0 0.0 0.0 1.0 1:-0.0666667 2:0.733333 3:-0.333333 4:-0.0666667 5:-0.6 6:-0.0666667 7:0.333333 8:-0.2 9:-0.466667 10:0.2 11:0.2 12:-0.466667 13:-0.333333 14:0.6 15:-0.6 16:0.0666667 
0.0 0.0 0.0 0.0 0.0 0.0 0.0 0.0 0.0 1.0 0.0 0.0 0.0 0.0 0.0 0.0 0.0 0.0 0.0 0.0 0.0 0.0 0.0 0.0 0.0 1:-0.466667 2:0.466667 3:-0.2 4:0.0666667 5:-0.333333 6:0.0666667 7:0.466667 8:-0.733333 9:-0.6 10:-0.466667 11:0.333333 12:0.2 13:-0.466667 14:0.6 15:-0.733333 16:0.0666667 
1.0 1.0 1.0 1.0 1.0 1.0 1.0 1.0 1.0 1.0 1.0 1.0 1.0 1.0 1.0 1.0 1.0 1.0 1.0 1.0 1.0 1.0 1.0 1.0 1.0 1:-0.466667 2:-0.2 3:-0.333333 4:-0.2 5:-0.2 6:-0.0666667 7:0.0666667 8:-0.333333 9:-0.333333 10:-0.0666667 11:-0.2 12:0.0666667 13:-0.2 14:0.0666667 15:-0.2 16:-0.2 
0.0 0.0 0.0 0.0 0.0 0.0 0.0 1.0 0.0 0.0 0.0 0.0 0.0 0.44318952262372235 0.0 0.0 0.0 0.0 0.0 0.0 0.0 0.0 0.0 1.0 0.0 1:-0.2 2:0.466667 3:0.0666667 4:0.0666667 5:-0.333333 6:-0.2 7:0.466667 8:-0.6 9:-0.733333 10:-0.0666667 11:0.466667 12:0.0666667 13:-0.466667 14:0.333333 15:-0.333333 16:0.2 
0.0 0.0 0.0 0.0 0.0 0.0 0.0 0.0 0.0 0.0 0.0 0.0 0.0 0.0 0.0 0.0 0.0 0.0 0.0 0.0 0.0 0.0 1.0 0.0 1.0 1:-0.466667 2:-0.333333 3:-0.2 4:-0.466667 5:-0.733333 6:-0.466667 7:0.6 8:-0.6 9:-0.6 10:0.333333 11:0.466667 12:-0.0666667 13:-0.733333 14:0.333333 15:-0.866667 16:0.0666667 
0.0 0.0 0.0 0.0 0.0 0.0 1.0 1.0 0.0 1.0 0.12111520238109211 0.0 0.0 0.0 0.0 0.0 0.0 0.0 1.0 0.0 0.0 0.0 0.0 1.0 0.0 1:-0.466667 2:-0.2 3:-0.333333 4:-0.466667 5:-0.733333 6:-0.0666667 7:0.466667 8:-0.6 9:-0.6 10:0.0666667 11:0.466667 12:0.0666667 13:-0.6 14:0.333333 15:-0.6 16:0.0666667 
0.0 0.0 0.0 0.254055315491471 0.0 0.0 1.0 1.0 0.0 0.0 0.0 0.0 1.0 1.0 0.0 1.0 1.0 0.0 0.0 1.0 1.0 1.0 0.0 1.0 1.0 1:-0.466667 2:-0.0666667 3:-0.2 4:-0.333333 5:-0.2 6:0.0666667 7:0.0666667 8:-0.466667 9:-0.733333 10:0.0666667 11:-0.0666667 12:0.0666667 13:-0.0666667 14:0.466667 15:-0.333333 16:0.0666667 
0.0 1.0 0.0 1.0 0.7499212550130954 1.0 1.0 0.0 0.0 0.0 1.0 1.0 0.0 0.0 1.0 1.0 1.0 0.0 1.0 0.0 1.0 0.0 1.0 0.0 1.0 1:0.0666667 2:0.733333 3:-0.0666667 4:-0.0666667 5:-0.466667 6:-0.333333 7:0.333333 8:-0.466667 9:-0.333333 10:0.2 11:0.2 12:-0.333333 13:-0.466667 14:0.333333 15:-0.733333 16:0.0666667 
0.0 0.0 0.0 0.0 0.0 0.0 0.0 0.0 0.0 0.0 0.0 0.0 1.0 0.0 0.0 1.0 0.0 0.0 0.0 0.0 0.0 1.0 0.0 0.0 0.0 1:-0.466667 2:-0.333333 3:-0.333333 4:-0.6 5:-0.733333 6:-0.466667 7:0.6 8:-0.733333 9:-0.6 10:0.2 11:0.466667 12:-0.0666667 13:-0.466667 14:0.333333 15:-0.866667 16:-0.0666667 
0.0 0.0 0.0 0.0 0.0 0.0 0.0 0.0 0.0 1.0 0.0 1.0 0.0 0.0 0.0 0.0 0.0 0.0 0.0 0.0 0.0 1.0 0.0 0.0 0.0 1:-0.733333 2:-0.866667 3:-0.6 4:-0.733333 5:-0.866667 6:-0.0666667 7:0.6 8:-0.733333 9:-0.733333 10:-0.0666667 11:0.466667 12:0.0666667 13:-0.733333 14:0.466667 15:-1.0 16:0.0666667 
0.0 1.0 0.0 0.0 0.0 0.0 1.0 0.0 1.0 1.0 0.8232692400599063 0.0 0.0 1.0 1.0 0.0 0.0 0.0 0.0 0.0 0.0 0.0 0.0 0.0 0.0 1:-0.866667 2:-1.0 3:-0.733333 4:-0.866667 5:-1.0 6:0.0666667 7:0.2 8:-0.6 9:-0.733333 10:-0.0666667 11:0.6 12:0.0666667 13:-0.733333 14:0.333333 15:-1.0 16:0.0666667 
0.0 0.0 0.0 0.0 0.0 0.0 0.0 0.0 0.0 0.0 0.0 0.0 0.0 0.0 0.0 0.0 0.0 0.0 0.0 0.0 0.0 0.0 1.0 0.0 0.07612093347910694 1:-0.466667 2:-0.2 3:-0.466667 4:-0.466667 5:-0.733333 6:-0.6 7:0.6 8:-0.466667 9:-0.6 10:0.333333 11:0.466667 12:-0.0666667 13:-0.733333 14:0.333333 15:-0.866667 16:0.0666667 
0.0 0.0 0.0 0.0 0.0 0.0 0.0 0.0 0.0 1.0 0.0 0.0 0.0 0.0 0.0 0.0 0.0 0.0 0.0 0.0 0.0 1.0 0.0 0.0 0.0 1:-0.866667 2:-1.0 3:-0.733333 4:-1.0 5:-1.0 6:0.0666667 7:0.2 8:-0.6 9:-0.866667 10:-0.2 11:0.6 12:0.0666667 13:-0.733333 14:0.466667 15:-1.0 16:0.0666667 
0.0 0.0 0.0 0.0 0.0 0.0 0.0 0.0 0.0 1.0 0.0 0.0 0.0 0.0 0.0 0.0 0.0 0.0 0.0 0.0 0.0 0.0 0.0 0.0 0.0 1:-0.6 2:-0.6 3:-0.333333 4:-0.466667 5:-0.866667 6:0.0666667 7:0.0666667 8:-0.466667 9:-0.733333 10:-0.2 11:0.866667 12:0.0666667 13:-0.6 14:0.333333 15:-1.0 16:0.0666667 
0.0 1.0 0.0 0.0 0.0 0.0 3.207453735297682E-4 0.4120604489979288 0.0 1.0 0.0 0.0 0.0 1.0 1.0 0.4960200880440483 0.0 0.0 0.0 0.0 0.0 1.0 0.0 0.0 0.0 1:-0.866667 2:-1.0 3:-0.733333 4:-0.866667 5:-1.0 6:-0.0666667 7:0.2 8:-0.6 9:-0.733333 10:-0.0666667 11:0.6 12:0.0666667 13:-0.733333 14:0.333333 15:-1.0 16:0.0666667 
0.0 0.0 1.0 0.0 0.0 0.0 1.0 0.0 0.0 0.0 0.0 1.0 0.0 0.0 1.0 1.0 0.0 0.0 0.0 0.0 1.0 0.0 1.0 0.0 1.0 1:-0.466667 2:-0.0666667 3:-0.466667 4:-0.333333 5:-0.733333 6:-0.6 7:0.6 8:-0.333333 9:-0.466667 10:0.6 11:0.466667 12:-0.0666667 13:-0.6 14:0.333333 15:-0.866667 16:0.0666667 
1.0 1.0 0.0 0.0 0.0 0.0 0.0 0.0 0.0 1.0 0.0 1.0 0.0 0.0 0.0 0.0 0.0 0.0 0.0 0.0 0.0 0.0 0.0 0.0 0.0 1:-0.6 2:0.466667 3:-0.333333 4:0.0666667 5:-0.466667 6:-0.0666667 7:0.466667 8:-0.733333 9:-0.6 10:-0.2 11:0.466667 12:0.2 13:-0.733333 14:0.333333 15:-0.866667 16:0.0666667 
0.0 0.0 0.0 0.0 0.0 0.0 1.0 1.0 0.0 0.0 0.0 0.0 0.0 0.0 0.0 0.0 0.0 0.0 0.0 0.0 1.0 1.0 0.0 0.0 1.0 1:-0.2 2:0.2 3:-0.333333 4:-0.466667 5:-0.733333 6:-0.0666667 7:0.333333 8:-0.0666667 9:-0.6 10:0.2 11:0.2 12:-0.333333 13:-0.333333 14:0.6 15:-0.6 16:0.2 
0.0 0.0 0.0 0.0 0.0 0.0 0.0 0.0 0.0 1.0 0.0 0.0 0.0 0.0 0.0 0.0 0.0 0.0 0.0 0.0 0.0 1.0 0.0 0.0 0.0 1:-0.333333 2:-0.2 3:-0.333333 4:-0.466667 5:-0.6 6:-0.466667 7:0.6 8:-0.866667 9:-0.733333 10:0.0666667 11:0.333333 12:-0.0666667 13:-0.6 14:0.466667 15:-0.866667 16:-0.0666667 
0.0 0.0 0.0 0.0 0.0 0.0 0.0 0.0 0.0 0.0 0.0 1.0 0.0 0.0 0.0 0.0 0.0 0.0 0.0 0.0 0.0 0.0 1.0 0.0 0.0 1:-0.6 2:-0.333333 3:-0.466667 4:-0.6 5:-0.866667 6:-0.466667 7:0.6 8:-0.6 9:-0.6 10:0.333333 11:0.466667 12:-0.0666667 13:-0.733333 14:0.333333 15:-0.866667 16:0.0666667 
1.0 1.0 0.0 0.0 1.0 1.0 1.0 0.7569365606764593 1.0 1.0 1.0 1.0 0.0 0.0 1.0 1.0 1.0 1.0 1.0 1.0 1.0 0.0 1.0 0.0 1.0 1:-0.333333 2:0.2 3:-0.333333 4:-0.466667 5:-0.6 6:0.333333 7:-0.0666667 8:-0.466667 9:-0.333333 10:-0.0666667 11:0.2 12:-0.333333 13:-0.466667 14:0.466667 15:-0.733333 16:-0.0666667 
1.0 1.0 1.0 1.0 1.0 1.0 1.0 1.0 1.0 1.0 1.0 0.0 1.0 1.0 1.0 1.0 1.0 0.0 1.0 1.0 1.0 1.0 1.0 1.0 1.0 1:-0.333333 2:0.466667 3:-0.0666667 4:0.0666667 5:0.2 6:0.0666667 7:-0.333333 8:-0.333333 9:-0.733333 10:0.0666667 11:-0.0666667 12:0.0666667 13:-0.2 14:0.0666667 15:-0.333333 16:0.0666667 
0.0 0.0 0.0 0.0 0.0 0.0 0.0 0.0 0.0 1.0 0.0 0.0 0.0 0.0 0.0 0.0 0.0 0.0 0.0 0.0 0.0 0.0 0.0 0.0 0.0 1:-0.733333 2:-0.0666667 3:-0.466667 4:-0.333333 5:-0.733333 6:-0.0666667 7:0.2 8:-0.6 9:-0.866667 10:0.0666667 11:0.6 12:0.0666667 13:-0.733333 14:0.466667 15:-1.0 16:0.0666667 
0.0 0.0 0.0 0.0 0.0 0.0 0.0 0.0 0.0 1.0 0.0 1.0 0.0 0.0 0.0 0.0 0.0 0.0 0.0 0.0 0.0 0.0 0.0 0.0 0.0 1:-0.6 2:-0.0666667 3:-0.333333 4:-0.333333 5:-0.733333 6:-0.0666667 7:0.6 8:-0.6 9:-0.466667 10:-0.2 11:0.6 12:0.0666667 13:-0.733333 14:0.333333 15:-0.866667 16:0.0666667 
0.0 0.0 0.0 0.0 0.0 0.0 0.0 0.0 0.6196108709731698 1.0 0.0 0.0 1.0 1.0 1.0 0.0 0.0 0.0 0.0 0.0 0.0 0.0 0.0 0.0 0.0 1:-0.466667 2:-0.466667 3:-0.2 4:-0.2 5:-0.866667 6:0.333333 7:0.0666667 8:-0.333333 9:-0.6 10:-0.333333 11:0.866667 12:0.0666667 13:-0.6 14:0.2 15:-1.0 16:0.0666667 
0.0 0.0 1.0 0.8902299796964129 0.0 0.0 0.0 0.0 0.0 1.0 0.0 1.0 0.0 0.0 0.0 0.0 0.0 0.0 0.0 0.0 0.0 0.0 0.0 0.0 0.0 1:-0.466667 2:0.0666667 3:-0.2 4:-0.2 5:-0.6 6:-0.333333 7:0.466667 8:-0.6 9:-0.466667 10:0.0666667 11:0.6 12:0.2 13:-0.733333 14:0.333333 15:-0.866667 16:0.0666667 
0.0 0.0 0.0 0.0 0.0 0.0 0.0 0.0 0.0 1.0 0.0 1.0 0.0 0.0 0.0 0.0 0.0 0.0 0.0 0.0 0.0 0.0 1.0 0.0 0.0 1:-0.6 2:-0.333333 3:-0.466667 4:-0.6 5:-0.866667 6:-0.466667 7:0.6 8:-0.6 9:-0.6 10:0.333333 11:0.466667 12:-0.0666667 13:-0.733333 14:0.466667 15:-0.866667 16:0.0666667 
0.0 0.0 0.0 0.0 0.0 0.0 0.0 0.0 0.0 1.0 0.0 0.0 0.0 0.5956393939697365 0.0 0.0 0.0 0.0 0.0 1.0 0.0 0.0 0.0 0.0 0.41526804678787166 1:-0.333333 2:0.466667 3:-0.0666667 4:0.0666667 5:-0.333333 6:0.2 7:0.466667 8:-0.6 9:-0.733333 10:-0.333333 11:0.333333 12:0.0666667 13:-0.333333 14:0.333333 15:-0.333333 16:-0.0666667 
0.0 0.0 1.0 1.0 0.0 0.0 0.0 0.0 0.0 0.0 1.0 1.0 0.0 0.0 1.0 0.0 0.0 0.0 1.0 0.0 0.0 0.0 1.0 1.0 0.0 1:-0.466667 2:0.0666667 3:-0.466667 4:-0.2 5:-0.733333 6:-0.6 7:0.466667 8:-0.466667 9:-0.466667 10:0.466667 11:0.6 12:0.0666667 13:-0.733333 14:0.333333 15:-0.866667 16:0.0666667 
0.0 0.0 0.0 0.0 0.0 0.0 0.0 0.0 0.0 0.0 0.0 0.0 0.0 0.0 0.0 0.0 0.0 0.0 0.0 0.0 0.0 0.0 0.0 0.0 1.0 1:0.2 2:0.6 3:-0.0666667 4:-0.0666667 5:-0.6 6:-0.0666667 7:0.466667 8:-0.2 9:-0.466667 10:0.333333 11:0.333333 12:-0.466667 13:-0.333333 14:0.6 15:-0.6 16:0.2 
0.0 0.0 0.0 0.0 0.0 0.0 0.0 0.0 0.0 1.0 1.0 1.0 0.0 0.0 0.0 0.0 0.0 0.0 0.0 0.0 0.0 0.0 1.0 0.0 0.0 1:-0.2 2:0.466667 3:-0.2 4:0.0666667 5:-0.6 6:-0.466667 7:0.466667 8:-0.6 9:-0.466667 10:0.2 11:0.466667 12:-0.0666667 13:-0.733333 14:0.333333 15:-0.866667 16:0.0666667 
1.0 0.0 1.0 1.0 1.0 1.0 1.0 1.0 1.0 1.0 1.0 1.0 1.0 1.0 1.0 1.0 1.0 1.0 1.0 1.0 1.0 1.0 1.0 1.0 1.0 1:-0.0666667 2:0.2 3:0.333333 4:0.0666667 5:0.466667 6:-0.0666667 7:-0.2 8:-0.333333 9:-0.333333 10:-0.0666667 11:-0.2 12:0.0666667 13:-0.0666667 14:0.333333 15:0.0666667 16:0.0666667 
0.0 0.0 0.0 0.0 0.0 0.0 0.0 0.0 0.0 1.0 0.0 0.0 0.0 0.0 0.0 0.0 0.0 0.0 0.0 0.0 0.0 0.0 0.0 0.0 0.0 1:-0.6 2:0.0666667 3:-0.333333 4:-0.2 5:-0.866667 6:0.0666667 7:0.0666667 8:-0.466667 9:-0.6 10:-0.2 11:0.866667 12:0.0666667 13:-0.6 14:0.333333 15:-1.0 16:0.0666667 
0.0 0.0 1.0 0.0 0.0 0.0 0.0 0.0 0.0 1.0 0.8255918670037701 0.0 0.0 0.0 0.0 0.0 0.0 0.0 0.0 0.0 0.0 0.0 1.0 0.0 0.0 1:-0.333333 2:0.333333 3:-0.333333 4:-0.0666667 5:-0.6 6:-0.6 7:0.466667 8:-0.6 9:-0.466667 10:0.333333 11:0.6 12:0.0666667 13:-0.733333 14:0.333333 15:-0.866667 16:0.0666667 
0.0 0.0 0.0 0.0 0.0 0.0 0.0 0.0 0.0 1.0 0.0 0.0 0.0 0.0 0.0 0.0 0.0 0.0 0.0 0.0 0.0 0.0 0.0 0.0 1.0 1:0.2 2:0.866667 3:0.0666667 4:0.0666667 5:-0.333333 6:-0.2 7:0.2 8:-0.466667 9:-0.466667 10:0.0666667 11:0.0666667 12:-0.333333 13:-0.333333 14:0.733333 15:-0.6 16:-0.0666667 
0.0 1.0 0.0 0.0 1.0 1.0 1.0 0.0 0.0 0.0 0.0 0.0 0.0 0.0 0.0 1.0 1.0 1.0 1.0 0.8380142745860941 1.0 1.0 1.0 0.0 1.0 1:-0.2 2:0.2 3:-0.2 4:-0.466667 5:-0.733333 6:-0.333333 7:0.6 8:-0.333333 9:-0.733333 10:0.466667 11:-0.0666667 12:-0.466667 13:-0.6 14:0.466667 15:-0.733333 16:-0.0666667 
0.0 0.0 0.0 0.0 0.0 0.0 0.0 0.0 0.0 1.0 0.0 0.0 0.0 0.0 1.0 0.0 0.0 0.0 0.0 0.0 0.0 0.0 0.0 0.0 0.0 1:-0.866667 2:-0.866667 3:-0.733333 4:-0.866667 5:-1.0 6:-0.0666667 7:0.2 8:-0.466667 9:-0.733333 10:-0.0666667 11:0.733333 12:0.0666667 13:-0.733333 14:0.333333 15:-1.0 16:0.0666667 
0.0 0.0 0.0 0.0 0.0 0.0 0.0 0.0 0.0 1.0 0.0 0.0 0.0 0.0 0.0 0.0 0.0 0.0 0.0 0.0 0.0 0.0 0.0 0.0 0.0 1:-0.6 2:0.2 3:-0.333333 4:-0.0666667 5:-0.6 6:0.0666667 7:0.2 8:-0.466667 9:-0.866667 10:-0.2 11:0.6 12:0.0666667 13:-0.733333 14:0.333333 15:-1.0 16:0.0666667 
0.0 0.0 0.0 0.0 0.0 0.0 0.0 0.0 0.0 1.0 0.44762058638715835 0.0 0.0 0.0 0.0 0.0 0.0 0.0 0.0 0.0 0.0 0.0 0.0 0.0 0.0 1:0.0666667 2:0.466667 3:-0.0666667 4:0.0666667 5:-0.466667 6:-0.466667 7:0.466667 8:-0.6 9:-0.466667 10:0.2 11:0.466667 12:-0.0666667 13:-0.733333 14:0.333333 15:-0.866667 16:0.0666667 
0.0 0.0 0.0 0.0 0.0 0.0 0.0 0.0 0.0 1.0 0.0 1.0 0.0 1.0 0.0 0.0 0.0 0.0 0.0 0.0 0.0 0.0 0.0 0.0 0.0 1:-0.6 2:-0.733333 3:-0.333333 4:-0.466667 5:-0.733333 6:-0.0666667 7:0.6 8:-0.733333 9:-0.6 10:-0.0666667 11:0.466667 12:0.2 13:-0.733333 14:0.333333 15:-0.866667 16:0.0666667 
0.0 0.0 0.0 1.0 0.0 0.0 1.0 0.0 1.0 1.0 1.0 0.0 1.0 0.0 0.0 1.0 0.0 0.0 0.43228532027771893 0.0 0.0 1.0 0.0 0.0 1.0 1:0.333333 2:1.0 3:0.333333 4:0.0666667 5:-0.333333 6:-0.2 7:0.0666667 8:-0.466667 9:-0.466667 10:0.0666667 11:0.0666667 12:-0.333333 13:-0.2 14:0.6 15:-0.466667 16:-0.2 
0.0 0.0 0.0 0.0 0.0 0.0 0.0 0.0 0.0 1.0 1.0 1.0 0.0 0.0 0.0 0.0 0.0 0.0 0.0 0.0 0.0 0.0 0.0 0.0 0.0 1:-0.466667 2:0.466667 3:-0.2 4:0.0666667 5:-0.6 6:-0.0666667 7:0.466667 8:-0.6 9:-0.333333 10:0.0666667 11:0.6 12:0.0666667 13:-0.6 14:0.333333 15:-0.866667 16:0.0666667 
0.0 0.0 0.6272811983623938 0.0 0.0 0.0 0.0 0.0 0.0 0.0 0.0 0.0 0.0 0.0 0.0 0.0 0.0 0.0 0.0 0.0 0.0 0.0 0.0 0.0 0.0 1:-0.0666667 2:0.333333 3:-0.0666667 4:0.0666667 5:-0.6 6:-0.6 7:0.466667 8:-0.466667 9:-0.466667 10:0.333333 11:0.6 12:0.0666667 13:-0.733333 14:0.333333 15:-0.866667 16:0.0666667 
0.0 0.0 0.0 0.0 0.0 0.0 0.0 0.0 0.0 0.0 0.0 1.0 0.0 0.0 0.0 0.0 0.0 0.0 0.0 0.0 0.0 0.0 0.0 0.0 0.0 1:-0.6 2:-0.333333 3:-0.333333 4:-0.6 5:-0.733333 6:-0.0666667 7:0.6 8:-0.6 9:-0.6 10:-0.0666667 11:0.466667 12:0.2 13:-0.733333 14:0.333333 15:-0.866667 16:0.0666667 
0.0 0.0 1.0 1.0 0.0 0.0 0.12204029342704148 0.0 0.0 0.0 0.0 1.0 0.0 0.0 1.0 0.0 0.0 0.0 1.0 0.0 0.0 0.0 1.0 0.0 0.0 1:-0.333333 2:0.2 3:-0.333333 4:-0.2 5:-0.6 6:-0.733333 7:0.466667 8:-0.466667 9:-0.466667 10:0.466667 11:0.6 12:0.0666667 13:-0.733333 14:0.333333 15:-0.866667 16:-0.0666667 
0.0 0.0 0.0 0.0 0.0 0.0 0.0 0.0 0.0 1.0 0.0 1.0 0.0 0.0 0.0 0.0 0.0 0.0 0.0 0.0 0.0 0.0 1.0 0.0 1.0 1:-0.6 2:-0.333333 3:-0.466667 4:-0.466667 5:-0.866667 6:-0.466667 7:0.6 8:-0.6 9:-0.6 10:0.333333 11:0.466667 12:-0.0666667 13:-0.733333 14:0.333333 15:-0.866667 16:0.0666667 
0.0 0.0 0.0 0.0 0.0 0.0 0.0 0.0 0.0 1.0 0.0 1.0 0.0 0.0 0.0 0.0 0.0 0.0 0.0 0.0 0.0 0.0 0.0 0.0 0.0 1:0.0666667 2:0.6 3:-0.2 4:-0.0666667 5:-0.6 6:0.0666667 7:0.333333 8:-0.333333 9:-0.333333 10:0.0666667 11:0.333333 12:-0.333333 13:-0.333333 14:0.6 15:-0.6 16:-0.0666667 
0.0 0.0 0.0 0.0 0.0 0.0 0.0 0.0 0.0 1.0 0.0 1.0 0.0 0.0 0.0 0.0 0.0 0.0 1.0 0.0 0.0 0.0 1.0 0.17221613131035615 1.0 1:-0.6 2:-0.333333 3:-0.466667 4:-0.6 5:-0.866667 6:-0.466667 7:0.6 8:-0.466667 9:-0.466667 10:0.466667 11:0.466667 12:-0.0666667 13:-0.733333 14:0.466667 15:-0.866667 16:0.0666667 
0.0 1.0 0.0 0.0 0.0 0.0 1.0 0.0 1.0 1.0 0.8628524447367146 0.0 0.0 1.0 1.0 0.0 0.0 0.0 0.0 0.0 0.0 0.0 0.0 0.0 0.0 1:-0.866667 2:-1.0 3:-0.733333 4:-0.866667 5:-1.0 6:0.0666667 7:0.2 8:-0.6 9:-0.733333 10:-0.0666667 11:0.6 12:0.0666667 13:-0.733333 14:0.333333 15:-1.0 16:0.0666667 
