svm_type c_svc
kernel_type rbf
gamma 2.594706798131811E-4
nr_class 18
total_sv 800
rho 0.9230988702120992 0.9430600653286308 -0.9674337421711796 0.9888737866420794 0.8638224642979242 0.9458817901261248 0.9247591280557663 -0.9413335419623277 0.9939222667991536 0.9333699883273991 -0.9686991564312885 -0.9259218162847674 -1.007330201682724 -0.944586489576042 -0.9875562475417405 -0.9851446929159484 -0.993045039364391 -0.9475843890156381 -0.9698155625014411 -0.7916759071929833 -1.1014851796309761 -0.9213336443783608 -0.9490995036276468 -0.9249964278121934 -0.8237006394734494 -0.920301996365482 -0.9383230912456906 -0.9129645453520673 -1.0032648490398777 -0.9337303994389408 -0.9836288627351496 -0.981981943339913 -0.9940946481039742 -0.9646926128609055 1.0353442775204529 0.8824862285610491 -0.9439051456082027 0.9581000601036046 -0.9247074085675435 1.0275019234396623 0.9788765367282402 -0.9523631705874557 -0.9179067792198556 -1.002376788792837 -0.9265123756239106 -0.9797655434487046 -0.9790938303452753 -0.9905775769877843 0.972883300480628 0.9508741219152694 0.9616311100111501 0.9628877044865652 0.9704399117946892 0.9752794515242473 0.9599619721657392 0.9657467755620406 0.9709977500810555 0.9546361094467724 0.9717608200212557 0.9621709570015605 0.9565593912054473 -0.008843690156936646 0.6775836833938031 -1.0030924691584842 -1.1098488947860603 -0.967404741247427 -0.9225814300713631 -1.0218397226642202 -0.9966918854864008 -0.9770133453133362 -1.0200405488045945 -0.9665581316407001 -0.9965891744585202 -0.995544779209594 -1.0020349954982628 -0.8574071329424914 -0.8653780236326317 -0.8735964039590552 -0.7191061955675433 -0.8487588300554423 -0.8802674368363435 -0.8514525660775181 -0.9855496199702141 -0.894634776486548 -0.9717440720008453 -0.9695721333021716 -0.9834273278549731 0.9234482253668553 -0.9265322621686967 1.0005995829067778 0.9479378476744016 -0.9505018994361645 -0.9241957361909482 -0.9998601207924447 -0.9309806864952848 -0.9831341425745825 -0.9818737991066083 -0.9903102719824224 -0.9148426642720663 1.0890941127002896 -0.9237083175828791 -0.9351021666225765 -0.9017107226088267 -1.0033112605737509 -0.9293656884373432 -0.9833228708345884 -0.9825706533398095 -0.9911002073421908 0.9706439595426719 0.9090819629192186 0.9437816171302905 0.9691714591953267 -1.0162864926549677 -0.9643073855113197 -0.9936187685498059 -0.992198566930947 -0.9981383117504611 -0.9991098546346986 -0.9973173642716477 -0.9554633025876192 -1.0242640342878024 -0.9707933071970578 -0.9975483581617607 -0.995571285932207 -1.0028279524266777 -0.9349953636329446 -0.9079682462548246 -0.9956144521728925 -0.9210596224117096 -0.9813213653553738 -0.9811274066244543 -0.9884253148792723 0.9939151871224472 -1.0086534380070595 -0.9435486996857121 -0.9856954329077589 -0.9839578921155863 -0.9936346492245554 -1.0172139639639055 -0.9674579610180399 -0.9938544385288135 -0.993990892127905 -0.9974733274942487 1.017323570217385 -0.9701970754167644 -0.9676546914330076 -0.9811186300249453 -0.9941583294782911 -0.9934943929272281 -0.9976866370808372 0.9787923993278195 -0.9875678218463882 -0.9819653136544655
label 14 19 4 15 2 11 7 17 6 16 9 1 13 18 5 10 8 3
nr_sv 42 123 49 7 69 100 48 63 33 66 53 39 40 13 27 10 11 7
SV
1.0 1.0 0.19737745759639702 1.0 1.0 1.0 1.0 1.0 1.0 1.0 1.0 1.0 0.27611773312802973 0.9270280501479253 0.3825951109570219 0.22853337499871024 0.2748365166981182 1:1.0 2:1.0 3:1.0 4:1.0 5:1.0 6:1.0 7:1.0 8:1.0 9:1.0 10:1.0 11:1.0 12:1.0 13:1.0 14:1.0 15:1.0 16:1.0 
1.0 1.0 0.14424150423789212 1.0 1.0 1.0 1.0 0.8949380965539454 1.0 1.0 1.0 1.0 0.25197038140948763 0.5298600067412756 0.14788151432591903 0.1396387773473028 0.20447979138263425 1:2.0 182:1.0 183:1.0 28:2.0 184:1.0 14:1.0 185:1.0 186:2.0 187:1.0 188:1.0 189:1.0 10:1.0 190:1.0 191:1.0 
1.0 1.0 0.09914908775143699 1.0 1.0 1.0 1.0 0.39874846397025426 1.0 1.0 0.8060409679353728 1.0 0.1356275420574539 0.3067762730291732 0.08456737676562415 0.08992569257873156 0.06523393065078846 1:1.0 223:1.0 286:1.0 387:1.0 24:2.0 388:1.0 389:3.0 390:1.0 391:3.0 22:2.0 392:1.0 393:2.0 394:1.0 395:1.0 81:1.0 396:1.0 
1.0 1.0 0.22694463617087787 1.0 1.0 1.0 1.0 1.0 1.0 1.0 1.0 1.0 0.32485455619120174 0.6932237269708268 0.2617434100407779 0.21189011342257372 0.19655758918618677 1:1.0 503:1.0 81:1.0 188:1.0 504:1.0 505:1.0 19:1.0 506:1.0 26:1.0 507:1.0 508:1.0 509:1.0 510:1.0 22:1.0 511:1.0 512:1.0 513:1.0 514:1.0 
1.0 1.0 0.3310232800119174 1.0 1.0 1.0 1.0 1.0 1.0 1.0 1.0 1.0 0.6550173609006161 1.0 0.6259469556167522 1.0 0.2926977789848778 536:1.0 86:1.0 1361:1.0 506:1.0 1362:1.0 10:1.0 583:1.0 1363:1.0 1364:1.0 
1.0 1.0 0.10587176612737953 1.0 1.0 1.0 1.0 0.6281724379541991 1.0 1.0 1.0 1.0 0.15721895322593848 0.3565152689019919 0.09561347374370713 0.10236575030905057 0.11301213479114461 1:2.0 223:2.0 1382:1.0 1383:1.0 70:1.0 14:2.0 1384:1.0 679:2.0 98:1.0 81:1.0 1385:1.0 338:1.0 1386:1.0 7:1.0 1387:1.0 
1.0 1.0 0.08529820977401747 1.0 1.0 1.0 1.0 0.4130016920156924 1.0 1.0 0.5181264057728594 0.629261947160258 0.11902107963813414 0.28338770395875945 0.10782107072609622 0.16999790768749595 0.06848413460507917 330:1.0 1418:2.0 1419:1.0 674:1.0 1:5.0 504:1.0 19:1.0 1420:1.0 34:1.0 1421:1.0 790:1.0 14:1.0 1422:2.0 22:1.0 228:1.0 507:1.0 36:1.0 1423:1.0 1303:1.0 
1.0 1.0 0.25141810578514573 1.0 1.0 1.0 1.0 1.0 1.0 1.0 1.0 1.0 0.3267957837668826 0.8704530538921063 0.38567998708455764 0.3854025998352124 0.1237617308296842 713:1.0 1445:1.0 1446:1.0 34:1.0 1447:1.0 753:1.0 708:1.0 1448:1.0 14:2.0 56:1.0 1449:1.0 1450:1.0 679:1.0 
1.0 1.0 0.3401961591162549 1.0 1.0 1.0 1.0 1.0 1.0 1.0 1.0 1.0 0.7238822668719702 1.0 0.25524898608080554 0.3881547593088349 0.41877335312021546 1:2.0 1528:1.0 871:1.0 733:1.0 10:1.0 7:1.0 1529:1.0 
1.0 1.0 0.185065871426857 1.0 1.0 1.0 1.0 1.0 1.0 1.0 1.0 1.0 0.42265171512071914 1.0 0.4518368617015426 0.4203261569069836 0.16434054606989656 197:1.0 14:1.0 1656:1.0 61:2.0 1657:1.0 286:1.0 103:1.0 1:1.0 1658:1.0 1659:1.0 
1.0 1.0 0.22701977276468716 1.0 1.0 1.0 1.0 1.0 1.0 1.0 1.0 1.0 0.37475697836551436 1.0 0.3540400760359307 0.383678931963539 0.18470453201743692 34:2.0 1282:1.0 1029:1.0 1:1.0 1666:1.0 1424:1.0 1667:1.0 286:1.0 1249:1.0 1668:1.0 1669:1.0 
1.0 1.0 0.12472498704900888 1.0 1.0 1.0 1.0 0.6891187137097228 1.0 1.0 1.0 1.0 0.20034852149418061 0.2723081281908168 0.0 0.0 0.16688299917156163 1:4.0 1756:1.0 14:2.0 1321:1.0 120:1.0 973:1.0 409:1.0 958:1.0 188:1.0 134:1.0 1757:1.0 886:1.0 1758:1.0 1759:1.0 305:1.0 19:1.0 1760:1.0 98:1.0 1761:1.0 1734:1.0 1018:1.0 
1.0 1.0 0.15125332367192768 1.0 1.0 1.0 1.0 0.7479072151092945 1.0 1.0 1.0 1.0 0.22630641597555679 0.36842071519880365 0.06726612499514781 0.06362218795806297 0.15230499688648483 1:3.0 1792:1.0 14:2.0 1793:1.0 1457:1.0 92:1.0 1794:1.0 81:1.0 1795:1.0 1796:1.0 59:1.0 1797:1.0 1046:1.0 98:1.0 32:1.0 1798:1.0 373:1.0 188:1.0 1799:1.0 1800:1.0 
1.0 1.0 0.17166983352199316 1.0 1.0 1.0 1.0 1.0 1.0 1.0 1.0 1.0 0.2918150305873797 0.7715916794126183 0.2902770428801442 0.3535466401369893 0.09836349186061587 1899:1.0 22:1.0 826:1.0 1900:1.0 86:1.0 1319:1.0 750:2.0 166:1.0 452:1.0 59:2.0 1901:1.0 1902:1.0 
1.0 1.0 0.1711564442567252 1.0 1.0 1.0 1.0 0.9292147608287257 1.0 1.0 1.0 1.0 0.2724883562556652 0.4572616106259355 0.0 0.07708884130463649 0.24116279944017296 1:3.0 1922:1.0 1923:1.0 19:1.0 269:1.0 98:1.0 1924:1.0 112:2.0 1578:1.0 22:1.0 28:1.0 1925:1.0 1926:1.0 801:1.0 
1.0 1.0 0.17060908421712326 1.0 1.0 1.0 1.0 0.9491491015599661 1.0 1.0 1.0 1.0 0.3154694865561249 0.5427383893740645 0.15567775184233387 0.15817305986517347 0.16148494782325046 1:2.0 668:1.0 1382:1.0 485:1.0 1620:1.0 81:1.0 133:1.0 14:1.0 1972:1.0 244:1.0 3:2.0 1190:1.0 53:1.0 1598:1.0 
1.0 1.0 0.2867603000333478 1.0 1.0 1.0 1.0 1.0 1.0 1.0 1.0 1.0 0.6020578458799403 1.0 0.43228621769910724 0.4469435997567376 0.275487616331907 1:1.0 1113:1.0 36:1.0 422:1.0 171:1.0 2143:1.0 286:1.0 706:1.0 2144:1.0 
1.0 1.0 0.1922157782273006 1.0 1.0 1.0 1.0 1.0 1.0 1.0 1.0 1.0 0.38152467825964187 0.8518324674880067 0.27871276166391495 0.33413463651407843 0.1664299676482606 1:1.0 2148:2.0 2149:1.0 28:1.0 1907:1.0 411:2.0 22:1.0 11:1.0 822:1.0 
1.0 1.0 0.09667851475539033 1.0 1.0 1.0 1.0 0.6404879122618454 1.0 1.0 1.0 1.0 0.19131799500903954 0.4953453155301892 0.13702339814518452 0.16744585440581208 0.1298720508977069 1:1.0 2184:1.0 1517:1.0 2:1.0 803:1.0 14:1.0 197:1.0 2185:1.0 2186:2.0 389:2.0 1029:1.0 391:2.0 2187:2.0 22:1.0 648:1.0 
1.0 1.0 0.14504795426980732 1.0 1.0 1.0 1.0 0.6993437947785265 1.0 1.0 0.9435552876197281 1.0 0.22247509423159145 0.4942655078154556 0.24456939460898366 0.2895201475070563 0.0956987583969024 330:1.0 2226:1.0 1:3.0 2227:1.0 26:1.0 2228:1.0 648:1.0 2229:2.0 28:1.0 2230:1.0 14:1.0 2231:1.0 2232:1.0 2233:1.0 103:1.0 2234:1.0 
1.0 1.0 0.16567698454836816 1.0 1.0 1.0 1.0 1.0 1.0 1.0 1.0 1.0 0.40045672271387633 0.543815103478046 0.0 0.07122012396930341 0.2947202809743463 1:3.0 2315:1.0 2316:1.0 2317:1.0 32:1.0 28:1.0 2318:1.0 541:1.0 14:1.0 304:1.0 51:1.0 751:1.0 98:1.0 2319:1.0 353:1.0 
1.0 1.0 0.15763249118453598 1.0 1.0 1.0 1.0 0.712069269946011 1.0 1.0 1.0 1.0 0.25924900425657615 0.7652464321588484 0.2822744599389052 0.3602104680052169 0.14648250796669424 7:1.0 19:1.0 28:1.0 2325:1.0 2329:2.0 2330:1.0 14:1.0 575:1.0 2331:1.0 1047:1.0 917:1.0 918:1.0 2256:1.0 1:1.0 2332:1.0 10:1.0 127:1.0 194:1.0 530:1.0 907:1.0 
1.0 1.0 0.10924238834124661 1.0 1.0 1.0 1.0 0.7232408004492057 1.0 1.0 1.0 1.0 0.20074051127511974 0.46486716111929105 0.15961103929621526 0.1160708845457126 0.12191900487511986 1:2.0 2368:1.0 170:1.0 11:1.0 188:2.0 81:2.0 318:1.0 2369:1.0 2370:2.0 112:1.0 2371:1.0 22:1.0 2372:1.0 
1.0 1.0 0.04207359174367259 1.0 1.0 1.0 1.0 0.2809913113497376 1.0 1.0 0.3505124796660677 0.416569276717142 0.06161020263267566 0.23464974400562705 0.07201935644706528 0.07642682527981803 0.03565703479943015 10:1.0 2377:1.0 2378:1.0 1:4.0 2379:1.0 389:3.0 454:3.0 2380:1.0 391:3.0 1382:1.0 2381:1.0 83:1.0 2382:1.0 2383:1.0 2384:1.0 2385:1.0 315:2.0 2386:1.0 22:2.0 2387:1.0 2388:1.0 3:2.0 1190:1.0 702:1.0 2389:1.0 2390:1.0 
1.0 1.0 0.0986023507066973 1.0 1.0 1.0 1.0 0.3754223507994704 1.0 1.0 0.5621414128213349 0.6696468860261495 0.10232342542807224 0.32595161258724603 0.15012921196075005 0.12372031993807767 0.05560772046586502 153:1.0 197:1.0 1518:1.0 196:1.0 1:4.0 1925:1.0 2399:1.0 1953:1.0 305:1.0 822:2.0 98:1.0 28:1.0 2400:1.0 1796:1.0 188:1.0 914:1.0 14:1.0 1176:1.0 150:1.0 11:1.0 315:2.0 2401:1.0 
1.0 1.0 0.21634418600628275 1.0 1.0 1.0 1.0 1.0 1.0 1.0 1.0 1.0 0.3800313166880709 0.6658327127577639 0.16481317386646896 0.2471153168859361 0.2660764506607633 1:2.0 599:1.0 2434:1.0 1113:2.0 32:1.0 11:1.0 2435:1.0 252:1.0 22:1.0 2436:1.0 3:1.0 2437:1.0 
1.0 1.0 0.06035183024440699 1.0 1.0 1.0 1.0 0.376813728935486 1.0 1.0 0.6399013926610667 0.6407548969856552 0.1689140374767414 0.34720229195404617 0.12656289587082373 0.10989385053729074 0.0945465315416733 56:1.0 2450:1.0 2451:1.0 47:1.0 128:1.0 1823:1.0 14:1.0 1:1.0 2452:2.0 2453:2.0 389:1.0 2454:1.0 2455:3.0 2456:1.0 2457:1.0 2458:1.0 391:1.0 1509:2.0 2459:1.0 22:1.0 2460:1.0 
1.0 1.0 0.15998606339575475 1.0 1.0 1.0 1.0 0.7874692108617762 1.0 1.0 1.0 1.0 0.22049332354850995 0.6247202032708731 0.25173524022963345 0.28223539140421805 0.11878734214735766 1392:1.0 1:2.0 2468:1.0 2469:1.0 928:1.0 28:1.0 563:1.0 2470:1.0 2471:1.0 112:1.0 1357:1.0 422:1.0 27:1.0 157:1.0 947:1.0 682:1.0 2472:1.0 261:1.0 297:1.0 
1.0 1.0 0.2360292490794858 1.0 1.0 1.0 1.0 1.0 1.0 1.0 1.0 1.0 0.49708177755273053 1.0 0.2967843240744387 0.36641548557635734 0.2295748658285455 1:1.0 2479:1.0 854:1.0 1743:1.0 2480:1.0 22:1.0 1702:1.0 344:1.0 143:1.0 750:1.0 751:1.0 59:1.0 
1.0 1.0 0.2402944095844586 1.0 1.0 1.0 1.0 1.0 1.0 1.0 1.0 1.0 0.37323365472915204 0.9302257756740684 0.37023115172525595 0.34411328161766236 0.14472458785793135 2557:1.0 47:1.0 28:1.0 2558:1.0 483:1.0 2559:1.0 128:1.0 14:2.0 100:1.0 2560:1.0 454:1.0 2413:1.0 
1.0 1.0 0.1817448000941911 1.0 1.0 1.0 1.0 1.0 1.0 1.0 1.0 1.0 0.3596480211776423 0.6882736278742407 0.15272227830996676 0.18968237934337637 0.26077876022651725 1:2.0 1939:1.0 170:1.0 11:1.0 2091:1.0 22:1.0 1799:1.0 1547:1.0 59:1.0 377:1.0 480:1.0 34:1.0 2738:1.0 2487:1.0 
1.0 1.0 0.10502546387045877 1.0 1.0 1.0 1.0 0.6273341562025321 1.0 1.0 0.8226563152045586 1.0 0.1692913603782072 0.7809955861699994 0.3186855895897859 0.38574473752869953 0.1614979586626011 28:2.0 2798:1.0 505:2.0 86:1.0 2799:1.0 47:1.0 847:1.0 34:3.0 2800:1.0 1630:1.0 840:1.0 2571:1.0 1:1.0 750:1.0 2333:1.0 
1.0 1.0 0.10620151301410316 1.0 1.0 1.0 1.0 0.5438745200946212 1.0 1.0 1.0 1.0 0.21657282237670517 0.5129035244941624 0.20407981632417838 0.17810135032706628 0.10364265106013573 56:1.0 47:1.0 28:2.0 1046:1.0 2858:1.0 1335:1.0 1474:1.0 34:1.0 155:1.0 1799:1.0 2859:1.0 26:1.0 2271:1.0 1:1.0 2860:1.0 1800:1.0 414:1.0 2861:1.0 10:1.0 1213:1.0 
1.0 1.0 0.1327410919486875 1.0 1.0 1.0 1.0 1.0 1.0 1.0 1.0 1.0 0.44565109985666673 0.8703057808828499 0.34882203591472444 0.29404429723613473 0.16531907299303475 56:1.0 1457:1.0 6:1.0 197:2.0 2334:1.0 294:2.0 22:1.0 3101:1.0 
1.0 1.0 0.14450560314387767 1.0 1.0 1.0 1.0 1.0 1.0 1.0 1.0 1.0 0.46085828817092206 1.0 0.3759441083760937 0.3223926436657308 0.20710837951574182 56:1.0 2704:1.0 6:1.0 28:1.0 1985:1.0 3212:1.0 3213:1.0 98:1.0 234:1.0 3214:1.0 22:1.0 662:1.0 252:1.0 
1.0 1.0 0.42095653770565666 1.0 1.0 1.0 1.0 1.0 1.0 1.0 1.0 1.0 0.8505733086250391 1.0 0.7382565899592222 1.0 0.3023301447645715 298:1.0 2415:1.0 28:1.0 592:1.0 98:1.0 3283:1.0 103:1.0 
1.0 1.0 0.09796239526818093 1.0 1.0 1.0 1.0 0.5232908236224196 1.0 1.0 0.9436728093305209 0.9675721597665332 0.197739184453646 0.504160262210541 0.1756699745251691 0.15706202589806317 0.11314723774087437 56:1.0 47:1.0 772:1.0 34:1.0 28:1.0 1343:1.0 2838:1.0 59:1.0 2846:1.0 1:3.0 2844:1.0 464:1.0 621:1.0 22:1.0 337:1.0 3289:1.0 707:1.0 
1.0 1.0 0.12876860867495785 1.0 1.0 1.0 1.0 0.8062824902083514 1.0 1.0 1.0 1.0 0.2964142755379885 0.5499710246411221 0.17143568854682453 0.17493179662900837 0.21245703904764177 1:2.0 2391:1.0 226:2.0 11:1.0 539:1.0 2554:1.0 22:2.0 3319:1.0 3320:1.0 452:1.0 188:1.0 3321:1.0 3322:1.0 3323:1.0 
1.0 1.0 0.14247076205584241 1.0 1.0 1.0 1.0 0.7015720284348652 1.0 1.0 1.0 1.0 0.3283402589300342 0.6362311394819303 0.28773649068828133 0.2621008451221941 0.139309062899617 56:1.0 2292:1.0 1457:1.0 6:1.0 87:1.0 452:1.0 98:1.0 28:1.0 3347:1.0 312:1.0 3348:1.0 3349:1.0 1254:1.0 77:1.0 1:1.0 3350:1.0 188:1.0 826:1.0 2566:1.0 
1.0 1.0 0.07605212329572372 1.0 1.0 1.0 1.0 0.42431533554037115 1.0 1.0 0.6120897633801632 0.7052813958707815 0.12134879984488084 0.36804023918076245 0.15008662435532438 0.1757177824070792 0.04882140071357341 224:1.0 620:1.0 3572:1.0 1:3.0 733:2.0 2510:3.0 26:1.0 102:1.0 228:1.0 1657:1.0 188:1.0 676:1.0 81:1.0 22:2.0 656:1.0 1949:1.0 3573:1.0 439:1.0 197:1.0 1303:1.0 
1.0 1.0 0.1272533103047778 1.0 1.0 1.0 1.0 0.5776866632818927 1.0 1.0 0.869621111806155 0.9709134374734805 0.17245542169281733 0.4909801054627347 0.20841012767567982 0.19282874166697128 0.09185682071188168 257:1.0 47:3.0 557:1.0 3602:1.0 153:1.0 56:1.0 375:1.0 59:1.0 1:2.0 1018:1.0 547:1.0 43:2.0 3603:1.0 184:1.0 869:1.0 1983:1.0 
1.0 1.0 0.14636217502314547 1.0 1.0 1.0 1.0 0.5495551215310878 1.0 1.0 0.9316820538021725 1.0 0.24525540772885723 0.4746197753178978 0.23520230741164178 0.15958242060910155 0.09106547775315807 56:1.0 3833:1.0 6:1.0 3834:1.0 3835:1.0 2126:1.0 335:1.0 188:2.0 113:2.0 969:1.0 796:1.0 3836:1.0 269:1.0 3837:1.0 419:1.0 98:1.0 7:1.0 194:1.0 1826:1.0 
-0.42086187017135646 1.0 0.0 0.818815570174653 1.0 0.7038465715024183 0.7374631558109459 0.2842112091204136 0.936936961557139 0.8873871551538915 0.5326420221110411 0.6319518540159866 0.07559674549281598 0.24684473245555927 0.10865346791065598 0.14817969575143816 0.0949642234839333 1:2.0 18:1.0 19:1.0 20:1.0 21:1.0 22:1.0 23:1.0 24:1.0 25:1.0 26:1.0 27:1.0 14:1.0 28:1.0 29:1.0 
-0.6319964189579621 1.0 0.23794083347327427 0.7838077357999169 1.0 1.0 1.0 0.30232976627847985 1.0 1.0 0.3693776876409346 0.20070633954540096 0.16479892543358077 0.6518789544043 0.29200826994712686 0.3074991841228255 0.10206960160034337 28:1.0 40:1.0 41:1.0 42:1.0 43:1.0 1:1.0 44:1.0 
-0.6827647824225613 0.4069875306384925 0.0 0.34058210861637084 1.0 0.22804686163379717 0.5600409380816735 0.20996175666154204 0.3909463811228998 0.08216212632810933 0.3679143404552685 0.10423705693299935 0.09396025871832345 0.30350977736830376 0.13654908734428128 0.0 0.08690017596129844 56:1.0 47:2.0 1:1.0 57:1.0 58:1.0 59:1.0 60:1.0 61:1.0 62:1.0 63:1.0 14:1.0 64:1.0 
-0.6928179354730413 0.7134221137741793 0.08315107508746913 1.0 1.0 0.741833081750555 1.0 0.5898127222049958 1.0 0.751878423747935 0.5874677746249634 0.4204668879745065 0.24587933066948064 0.45659545569416216 0.21070889525131165 0.21478530355363692 0.09992711354840786 127:1.0 128:1.0 6:1.0 129:1.0 24:1.0 130:1.0 
-0.36382147397343045 0.374907160708647 0.09450083942127267 0.5019060599068484 1.0 0.49484792571738245 0.925879207900264 0.27462665751090193 0.7046065256176445 0.37829119566770353 0.3232096067823916 0.1803885697176799 0.16320410250139283 0.32720560999807835 0.09474379111397542 0.11717952171671893 0.0365201900749253 241:1.0 242:1.0 243:1.0 244:1.0 22:1.0 116:1.0 245:1.0 246:1.0 34:1.0 247:1.0 248:1.0 249:1.0 
-0.3185188809634561 0.18740335851193576 0.07056130790319608 0.22552462717879945 0.793316303736034 0.29319848268208154 0.42450999735718636 0.12854281370605686 0.35559698534208506 0.1332985217026932 0.198960457573686 0.1298800835523063 0.0971817990117711 0.2032879802376214 0.057365478450369475 0.05859369668278403 0.042043363511744654 56:1.0 267:1.0 268:1.0 47:2.0 269:1.0 98:1.0 28:1.0 270:1.0 14:1.0 271:1.0 22:2.0 272:1.0 1:2.0 273:1.0 171:1.0 274:1.0 275:1.0 276:1.0 
-0.5057370732079038 0.5989259503756988 0.05457895276623088 0.8779844540519813 1.0 0.5794735189484643 0.7409326463108377 0.3843427920680648 0.7553778565956553 0.6749392088902652 0.5259642197301013 0.5838073785244045 0.13959864167865177 0.2865618779373372 0.08829443023496399 0.10982747663254819 0.08713943682747262 1:1.0 381:1.0 382:1.0 81:1.0 10:1.0 383:1.0 384:1.0 24:1.0 385:1.0 386:1.0 
-0.3500568338424847 0.461862482958544 0.04418539831179678 0.7425859648160317 0.9407142357354774 0.3339012328860224 0.466866573811642 0.31062227847473456 0.2252331903705061 0.5865748909897016 0.3251305790051269 0.5612578436669565 0.1785311067798205 0.1510306938463574 0.0 0.0 0.04329975386754614 1:2.0 479:1.0 480:1.0 481:1.0 10:1.0 482:1.0 34:1.0 483:1.0 397:1.0 484:1.0 14:1.0 485:1.0 486:1.0 487:1.0 253:1.0 
-0.29008156390703677 0.3006669580966389 0.0817856251374876 0.4869687350711871 1.0 0.38287114425754704 0.4696672040369581 0.26279953832521386 0.697844003446918 0.3588229394393006 0.24678858537988702 0.1754636021925156 0.09028578816908346 0.22688887152441672 0.1432195076640591 0.09582117347127676 0.07621888623032243 488:1.0 489:1.0 1:1.0 207:1.0 14:1.0 28:1.0 490:1.0 491:1.0 492:1.0 493:1.0 494:1.0 495:1.0 286:1.0 496:1.0 
-0.17810831629147494 0.143444706432802 0.03478810138667426 0.33907917540130816 0.7478458743660021 0.2060916752406907 0.2709680391696975 0.15009403588816445 0.42338585915991905 0.2038233908796171 0.1587605734244148 0.10735257925830316 0.07569245882155322 0.1352073167241576 0.0603937669349473 0.043472730709954915 0.019730973193375766 554:1.0 555:1.0 28:1.0 64:1.0 556:1.0 422:1.0 330:2.0 19:1.0 557:1.0 558:1.0 98:1.0 22:1.0 540:1.0 364:1.0 7:2.0 559:1.0 143:1.0 560:1.0 561:1.0 562:1.0 563:1.0 564:1.0 
-0.300348144346848 0.3730643389309897 0.05178926759422213 0.49952922679232353 1.0 0.600234773526979 0.5631925626526575 0.2696874497639694 0.8218120494473053 0.39348865716489323 0.38942143419381975 0.24024339217479634 0.1595367781202214 0.2567269297410518 0.08560360849495284 0.2381451257348997 0.0 583:1.0 584:1.0 585:1.0 98:1.0 586:1.0 587:1.0 1:1.0 588:1.0 70:1.0 14:1.0 241:1.0 589:1.0 
-0.29404241945830345 0.34479395272725333 0.05891188934902351 0.646130612962925 1.0 0.3331670943151457 0.4368074373473425 0.3129497018684305 0.4576634524804668 0.4220060037465748 0.3816106866699828 0.3347208630005255 0.1006734154385082 0.16833717109449725 0.08277753593920599 0.08709069557667853 0.04917093355521666 1:1.0 623:1.0 624:1.0 625:1.0 626:1.0 6:1.0 87:1.0 351:1.0 10:2.0 28:1.0 627:1.0 628:1.0 629:1.0 630:1.0 
-0.07126385562443102 0.04940929591202714 0.016827104902163978 0.35108118800322474 0.15577949777548675 0.08047251453348536 0.07866435551327572 0.057501506412143445 0.2966253120503558 0.06169124400787504 0.06847586843781318 0.0685172184084818 0.01848467061124305 0.05012324478582049 0.02154648224687259 0.02082323547017857 0.007143936542347466 3:1.0 1:7.0 631:2.0 81:3.0 632:2.0 633:1.0 634:1.0 344:1.0 635:1.0 636:1.0 10:2.0 56:1.0 615:1.0 127:1.0 637:1.0 36:1.0 638:1.0 473:1.0 28:1.0 639:1.0 14:4.0 640:1.0 641:1.0 642:1.0 643:2.0 232:1.0 594:1.0 337:1.0 644:1.0 98:1.0 645:2.0 646:1.0 22:3.0 647:1.0 152:1.0 648:1.0 649:1.0 650:1.0 157:1.0 651:1.0 652:1.0 34:1.0 653:1.0 654:1.0 656:1.0 657:1.0 658:1.0 659:1.0 660:1.0 661:1.0 662:1.0 663:1.0 664:1.0 665:1.0 666:1.0 
-0.15703963354457282 0.15660163548290199 0.0702614046519884 0.3255198002942805 0.6817995946613039 0.20089906294195667 0.23171072349882543 0.14972808057294182 1.0 0.23243233864264884 0.16493902914947106 0.09112024186230697 0.07621836202747824 0.13029449129677245 0.07815897267358766 0.08604382978473864 0.02516956815354416 720:1.0 817:1.0 818:1.0 819:1.0 820:1.0 821:1.0 14:2.0 1:3.0 140:1.0 662:1.0 34:1.0 339:1.0 127:1.0 822:1.0 10:1.0 823:1.0 824:1.0 825:1.0 
-0.2417564745438593 0.42489951054259406 0.055528271244063024 0.664412203860252 0.6951674493798635 0.2983156206574107 0.3689960443389924 0.24459258827935232 0.3343758040572101 0.5337798132130953 0.3264398778211676 0.4920256469106652 0.10804823401486355 0.1321807542914922 0.0 0.0 0.04699559964662713 1:2.0 163:1.0 86:1.0 87:1.0 854:1.0 10:1.0 28:1.0 855:1.0 856:1.0 14:2.0 857:1.0 858:1.0 859:1.0 860:1.0 861:1.0 
-0.18828169317130486 0.15482210875244182 0.06340301302338253 0.29754574828838526 0.761782416663477 0.3021871775659576 0.23528981156817358 0.17553098868668926 0.3677133751661319 0.2083564062783569 0.1907790810512903 0.118961926803836 0.047878394087145504 0.13114701428581776 0.08513390860341796 0.04154472393509598 0.027649883022492654 171:1.0 286:1.0 949:1.0 43:1.0 1:2.0 950:1.0 22:1.0 951:1.0 952:1.0 34:2.0 953:1.0 261:1.0 669:1.0 28:1.0 954:1.0 955:1.0 26:1.0 11:1.0 956:1.0 14:1.0 957:1.0 
-0.30718206452695873 0.37148603843752803 0.09016193573354406 0.44537693472245193 1.0 0.6214031635599687 0.4724954402638207 0.28666908196566426 0.6647347113664533 0.4225713510486816 0.25408316702330946 0.2878802571312844 0.08513132494272867 0.23245159724159403 0.13614242454679237 0.1761083918837607 0.05410489596756032 583:1.0 1066:1.0 555:1.0 228:1.0 28:1.0 64:1.0 274:1.0 1067:1.0 1068:1.0 34:1.0 1:1.0 188:1.0 1069:1.0 
-0.06845781426737994 0.06713625164745635 0.0255394417148984 0.13813077693219128 0.12686807614436751 0.0807515067884435 0.10472528052145239 0.059111584349790414 0.15441973157239952 0.07649578967821669 0.07131819670968799 0.06509642748176009 0.010023663457487831 0.05154987997730835 0.014919218587414306 0.01978865077110208 0.010042444214226051 437:1.0 1076:1.0 1046:1.0 32:1.0 464:1.0 28:2.0 1077:1.0 14:5.0 1078:1.0 22:2.0 671:1.0 1:4.0 1079:1.0 1080:1.0 43:2.0 241:3.0 1081:1.0 1082:1.0 970:1.0 389:1.0 1083:1.0 1084:1.0 1064:1.0 1085:1.0 391:1.0 34:2.0 1086:1.0 1087:1.0 1088:1.0 1089:1.0 1090:1.0 700:1.0 1091:1.0 1092:1.0 826:1.0 81:2.0 1093:1.0 1094:1.0 1095:1.0 1096:1.0 352:1.0 18:1.0 
-0.29577641692208767 0.32297812573284884 0.08569094851864849 0.5737700315478738 1.0 0.41950739122382985 0.6049108420642921 0.28031101726690766 0.8358792112718436 0.3363113726965327 0.3248978122404793 0.20754134631849297 0.14669763127427893 0.22863104913960328 0.11507739712582842 0.17378461192775105 0.0 59:1.0 1107:1.0 19:1.0 237:1.0 1:1.0 1108:1.0 14:1.0 11:1.0 1109:1.0 1110:1.0 1111:1.0 
-0.3402242337753752 0.43845960725496874 0.05758399709459599 0.7350413321903793 1.0 0.4452276150870309 0.5868425598505478 0.2835323438143375 0.5696694793431518 0.6918291467834454 0.3943834460459593 0.4408744066919291 0.1186039712971102 0.2396557888393683 0.0916169820502228 0.07232173011251573 0.06416065265094663 1:1.0 870:1.0 503:1.0 43:1.0 1210:2.0 34:1.0 47:1.0 1211:1.0 1212:1.0 1213:1.0 
-0.15813045226332212 0.4175683224870524 0.0 0.24728304577253316 0.7529774419374853 0.3159987854886319 0.28149060992312674 0.13223222505196286 0.5273390799442125 0.2505670836736255 0.11009918158487612 0.10458607771528165 0.04455395718657102 0.17389878970674408 0.05174531230181158 0.10512922122088256 0.04874737323701917 28:1.0 1219:1.0 14:3.0 1220:1.0 1221:1.0 22:1.0 969:1.0 849:1.0 1222:1.0 1223:1.0 1224:1.0 10:1.0 1225:1.0 34:1.0 1226:1.0 143:1.0 1:1.0 1227:1.0 1228:1.0 
-0.3143604779163928 0.3335944396986661 0.055312366185959395 0.5402143770563674 1.0 0.4201977338838203 0.5755363872724524 0.3761526047972599 0.7666028583016443 0.312808266204968 0.3036500931584071 0.16400405587505554 0.12022319629823888 0.25958969665306886 0.092612069495601 0.08835766573640685 0.04007780184693705 953:1.0 1233:1.0 47:1.0 1234:1.0 22:1.0 98:1.0 7:1.0 820:1.0 1:1.0 1235:1.0 14:1.0 1236:1.0 
-0.18823035474594685 0.29200044603772884 0.043622474142358585 0.49809617195940975 0.4937242439342585 0.2254993286123856 0.2899618464110304 0.19300385041174734 0.2366366904756991 0.3632929022681618 0.2169533781679666 0.35112148857187286 0.0751594653027009 0.12790254137361623 0.023633742023964406 0.023787170733600427 0.04760202295615396 1:2.0 912:1.0 14:2.0 1237:1.0 1238:1.0 47:1.0 46:1.0 98:1.0 1239:1.0 1240:1.0 81:1.0 1241:1.0 932:1.0 120:1.0 1242:1.0 1243:1.0 1244:1.0 389:1.0 344:1.0 237:1.0 1245:1.0 1246:1.0 1247:1.0 1248:1.0 391:1.0 
-0.09328849088171579 0.07757611697332317 0.023797971411538776 0.19558237166674008 0.19430195572491032 0.09894854774547693 0.07961803199286166 0.07415512811391696 0.1902592690562369 0.07675135645357037 0.06876834603800143 0.062394842226800945 0.0179333505021747 0.07647007109502482 0.028891898703270517 0.03385074364282398 0.015225751948956635 713:2.0 215:2.0 19:2.0 913:1.0 243:1.0 371:1.0 1:5.0 692:1.0 98:1.0 1249:1.0 1250:1.0 14:2.0 261:1.0 523:1.0 188:2.0 1251:1.0 1252:1.0 1253:1.0 1254:1.0 1255:1.0 1256:1.0 1257:1.0 1002:1.0 522:1.0 22:1.0 676:1.0 616:1.0 1258:1.0 1259:1.0 155:1.0 241:1.0 8:1.0 1260:1.0 
-0.21546875628360682 0.1689657798976683 0.05308090587638328 0.5272119820329518 1.0 0.2736970996806709 0.30834793440975644 0.1560707152033165 0.6093573995652835 0.26745692370307483 0.17731395930301724 0.2725520597438275 0.050033929785218485 0.13753751950094073 0.07884424306452394 0.09128482725349651 0.030601752972191913 298:1.0 1304:1.0 1225:1.0 34:1.0 1305:1.0 1:1.0 1306:1.0 1307:2.0 112:1.0 968:1.0 878:1.0 98:1.0 1177:1.0 1130:1.0 22:1.0 1308:1.0 700:1.0 
-0.37347559317804035 0.5102824150368882 0.07855933203680607 0.8732621114358974 1.0 0.412229000130579 0.5709238056524484 0.33231684775603965 0.3504260142963801 0.649202310099598 0.43247696860944707 0.6573204704795395 0.14228801517538595 0.19587486934980586 0.040215700162145394 0.06332485340348694 0.07053062669412413 1:2.0 1459:1.0 803:1.0 14:1.0 1460:2.0 1461:1.0 98:1.0 28:1.0 620:1.0 81:1.0 1462:1.0 
-0.718881358189576 0.5455147031115317 0.0 1.0 1.0 0.714096245154147 1.0 0.43081945485543804 1.0 0.47910923669907 0.5368039960840545 0.6192330435505111 0.21072985821954393 0.3257346742765993 0.11766207801201777 0.16933414421898546 0.07554450529374991 298:1.0 86:1.0 102:1.0 1:1.0 1483:1.0 24:1.0 1484:1.0 
-0.6361785260265695 0.6250292132837001 0.08239806795913589 0.8610325379727565 1.0 0.6741917463988621 1.0 0.6156572079319351 1.0 0.6217088043322965 0.6767903932176085 0.33413529254680874 0.20183721564581936 0.39826064702342723 0.19972573850269545 0.11437107108716421 0.08278392215038011 1485:1.0 1486:1.0 1487:1.0 857:1.0 1488:1.0 24:1.0 1489:1.0 
-0.22862379972124397 0.26832252394271905 0.08733916114077991 0.41744583563324145 1.0 0.2960911225736181 0.37335052756423603 0.22147779782682697 0.5757499423824445 0.22909383808593736 0.2283913570160272 0.17747788455077632 0.08485971535385209 0.1797004225961202 0.08575479636611805 0.09457421298504697 0.03856768956867204 1507:1.0 10:1.0 1508:1.0 1078:1.0 28:3.0 1509:1.0 1147:1.0 1510:1.0 34:1.0 1511:1.0 
-0.1828741481875473 0.10152346970568553 0.037207543565139736 0.2785961325913526 0.5776981051633999 0.16859783772638023 0.17310020009417743 0.13678976361296943 0.3075097300380955 0.1705691267452828 0.13520118657175287 0.10862952302718568 0.05585870811450459 0.12399172194172431 0.03739507408464856 0.04614349657053872 0.016859940011223228 740:1.0 594:1.0 1512:1.0 26:1.0 1311:1.0 1513:1.0 1514:1.0 1:4.0 1515:1.0 1516:1.0 541:1.0 1517:1.0 692:1.0 14:1.0 1518:1.0 
-0.32564010526907217 0.21453255805117616 0.06393959061898716 0.29527563724926464 0.7084761406892506 0.2326417031128522 0.26814175568373977 0.16309390138860236 0.41670542159320345 0.2777316878425793 0.15551493601910993 0.14139810533569314 0.04877932133295397 0.1722639633639873 0.07809188918108759 0.06611993214800882 0.03324587811542347 197:1.0 1381:1.0 919:1.0 1613:1.0 86:1.0 1614:1.0 28:1.0 855:1.0 1615:1.0 34:2.0 1:1.0 1616:1.0 1617:1.0 1618:1.0 1619:1.0 780:1.0 406:1.0 1620:1.0 81:1.0 361:1.0 127:1.0 1621:1.0 1578:1.0 1622:1.0 753:1.0 1058:1.0 
-0.276704620500424 0.31647707028141764 0.05598857983034487 0.5056605263681331 1.0 0.4340119423559191 0.4770042707700805 0.30693548592339637 0.7257222464697365 0.36258125788914336 0.2815932104386386 0.19438580696965277 0.12971247738175806 0.22946596343433856 0.10951162635561387 0.11057471360038895 0.055754168709224124 1651:1.0 831:1.0 22:1.0 1652:1.0 773:1.0 286:1.0 590:1.0 1653:1.0 98:1.0 146:1.0 657:1.0 1654:1.0 1655:1.0 
-0.16259334400969727 0.1745452324126759 0.06537863424174005 0.3174952297064312 0.942005640473191 0.20828356459130648 0.308280875573787 0.3407724813148364 0.42223540082157446 0.27627234606852114 0.172432097965325 0.11401840537926408 0.05008768768270861 0.20192205127181823 0.030446422015774483 0.14805892188286635 0.06204353701973021 112:2.0 1709:1.0 1710:1.0 1711:1.0 1712:1.0 28:2.0 1713:1.0 1714:1.0 22:1.0 1715:1.0 61:1.0 692:1.0 330:1.0 555:1.0 494:1.0 274:1.0 
-0.37421537032933927 0.4954882169889513 0.0789029598860222 0.8091145393784931 1.0 0.4411519145975582 0.5791607393289476 0.3313090214526427 0.5806597751786294 0.573459383311334 0.4012407957527589 0.5257521093205055 0.0845530522472228 0.21951818429048148 0.06850619309822285 0.05095289030814132 0.044095985572050994 1:1.0 1731:1.0 19:1.0 1188:1.0 10:1.0 28:1.0 1732:1.0 1733:1.0 1734:1.0 1735:1.0 1736:1.0 
-0.07067409770733665 0.10256923359226854 0.029543949856220372 0.23619836225499294 0.0 0.09447771707834024 0.08118214027441985 0.06810573636690069 0.0755372189018513 0.15741601066988306 0.0820155968738726 0.16924488247396022 0.01144915715400966 0.04485864379400255 0.0 0.015620598169055868 0.01649485534963933 1:4.0 1032:1.0 676:1.0 298:1.0 1010:1.0 47:1.0 338:1.0 3:3.0 1737:1.0 235:1.0 522:1.0 34:3.0 1738:1.0 1739:1.0 22:5.0 1740:1.0 98:1.0 1741:1.0 1742:1.0 14:4.0 1743:2.0 1744:1.0 1745:1.0 299:1.0 739:1.0 7:1.0 43:1.0 1746:1.0 1736:1.0 1747:2.0 844:1.0 1748:1.0 422:1.0 286:1.0 1749:1.0 1750:1.0 1751:1.0 10:1.0 544:1.0 294:1.0 51:1.0 1752:1.0 431:1.0 2:1.0 1753:1.0 812:1.0 1754:1.0 112:1.0 1755:1.0 1351:1.0 
-0.7318006800625059 0.33901556701680086 0.0 0.3672814888593196 1.0 0.4661566610836617 1.0 0.22830378578530564 0.6363855151945264 0.3161266696973384 0.42108503160056854 0.15870308953430634 0.26591354599751177 0.3276125033742155 0.15048498690629947 0.08058191501928147 0.11810586826634377 56:1.0 1736:1.0 1716:1.0 188:1.0 28:1.0 1519:1.0 1820:1.0 34:1.0 1:1.0 597:1.0 346:1.0 
-0.3155288540541339 0.49024991919503125 0.08623063433183217 0.8921457468113086 0.9552125503598364 0.39820713717060685 0.6165670241379478 0.3054112337491132 0.4314742060224276 0.6202134180002759 0.43871222406133165 0.6488785114281271 0.13491878538892266 0.1655327957236408 0.03663275292914718 0.0747697329423872 0.06328306584800436 1:2.0 1835:1.0 34:1.0 676:1.0 183:1.0 28:1.0 1836:1.0 14:1.0 1233:1.0 1837:1.0 10:1.0 1838:1.0 1839:1.0 1386:1.0 1840:1.0 
-0.5197807425486045 0.5928767727908691 0.06237524401191427 0.8902570262365406 1.0 0.6017928628293931 0.7084220028763037 0.37029437541840676 0.7115907903073038 0.6636886273034672 0.46319600391594545 0.5524415781656258 0.15492984260232068 0.2454733756172903 0.11024290613247449 0.09440842316230014 0.06937039558968319 1:1.0 1845:1.0 694:1.0 1643:1.0 24:1.0 1448:1.0 1116:1.0 81:1.0 1367:1.0 1023:1.0 
-0.24909204106420405 0.3435858998447255 0.053326879135593946 0.6400357789671629 0.4317118418171024 0.24893637525826207 0.3944327415669683 0.21987436872339416 0.14391645291261218 0.4916364879524996 0.2931016215444723 0.47675298060816584 0.08702641849054428 0.11698030997609682 0.015641553377309804 0.04937382933298835 0.060298147445041556 1:3.0 1463:1.0 70:1.0 14:2.0 754:1.0 47:1.0 662:1.0 26:2.0 1098:1.0 1852:1.0 1853:1.0 536:1.0 10:2.0 1854:1.0 1855:1.0 228:1.0 352:1.0 
-0.7143142676663987 1.0 0.07214499475408812 1.0 1.0 0.7196132224617278 1.0 0.5484622645940012 0.5226676404102684 1.0 0.7738508576687613 1.0 0.21499374129578103 0.3802522282547637 0.0 0.0739056924781946 0.09143941411488223 1:2.0 1864:1.0 517:1.0 43:1.0 835:1.0 14:1.0 830:1.0 361:1.0 
-0.2457070664723685 0.17746072702518492 0.062921948417531 0.2103267718665311 0.7068360478388998 0.21324785130692647 0.40469069834251414 0.107722451168204 0.28943389804366293 0.12278058969298165 0.19754545053584605 0.3610844714225248 0.09992805600107221 0.2891930125773043 0.07758537444683584 0.04794606064190021 0.05191532099792756 56:1.0 315:2.0 261:2.0 549:1.0 1930:1.0 986:1.0 1931:1.0 47:1.0 5:1.0 28:1.0 1932:1.0 86:1.0 1933:1.0 1:2.0 88:1.0 34:1.0 1735:1.0 1810:1.0 14:1.0 1934:1.0 
-0.2542132226507201 0.2853154826546158 0.123846986079055 0.5408309645560103 0.5690157778235873 0.26500109720267884 0.32662603609363794 0.22520304119897683 0.3046572026419844 0.40617433730500707 0.27386834708540003 0.3947459269452804 0.06968686393634205 0.13044800970544376 0.03800546957386235 0.07393994921426031 0.03696023902159769 1:2.0 51:1.0 6:1.0 38:1.0 28:1.0 1935:1.0 1936:1.0 1937:1.0 1938:1.0 1939:1.0 34:1.0 1940:1.0 373:1.0 422:1.0 651:1.0 27:1.0 3:2.0 763:1.0 1941:1.0 1942:1.0 
-0.3413722115787789 0.3887881752274435 0.05098718247708604 0.6738874435870794 0.46651547802824955 0.2684760743002499 0.38087011665817505 0.19590863654418722 0.1459237839284396 0.4662201867869047 0.27614172410530013 0.49938061909042597 0.07013713542731148 0.13080413185581596 0.0 0.03975726189614499 0.0350573752185986 1:3.0 101:1.0 1382:1.0 1981:1.0 14:2.0 28:1.0 1982:1.0 1983:1.0 643:1.0 1601:1.0 1984:1.0 2:1.0 98:1.0 1985:1.0 1986:1.0 188:1.0 1987:1.0 1988:1.0 595:1.0 671:1.0 1274:1.0 882:1.0 
-0.1715335455107373 0.1593830925278617 0.031815808647995304 0.28097321699559963 0.6905835160063635 0.24819633827096402 0.2456304392587211 0.1770530705567017 0.40139711748413553 0.16302661440548644 0.14784812076653248 0.112828555845496 0.037358077744576015 0.13758191526579172 0.06961770826705005 0.07382132612697649 0.02692316603803497 98:1.0 11:1.0 1997:1.0 1998:1.0 34:2.0 1999:1.0 22:2.0 1358:1.0 2000:1.0 6:1.0 1257:1.0 2001:1.0 102:1.0 28:1.0 2002:1.0 818:1.0 10:1.0 2003:1.0 2004:1.0 14:1.0 2005:1.0 2006:1.0 2007:1.0 
-0.11123774084651414 0.30267763083195576 0.0 0.22106900557357526 0.5489766743614726 0.2597647743095347 0.24242313048201852 0.08233927352593579 0.39130190318791314 0.211141658380007 0.09476604959858469 0.08357486363846191 0.029843638030582233 0.11929964899811937 0.07432294436350756 0.09357181025598724 0.02791519628071012 28:1.0 855:1.0 306:1.0 14:2.0 1:3.0 2017:2.0 2018:1.0 494:1.0 19:2.0 871:1.0 188:1.0 2019:1.0 2020:1.0 1758:1.0 22:1.0 1185:1.0 2021:1.0 26:1.0 
-0.28568573233360123 0.34452332818004977 0.06268612179253004 0.6264778080426416 0.6520573343719012 0.3189143893401717 0.5294021228141372 0.22975548576161883 0.26910883671860586 0.4595544751076863 0.28656490563357195 0.4431657766109804 0.10182876563686274 0.15264335497523104 0.05019041534759716 0.05171155566530832 0.05269011037420224 1:2.0 2023:1.0 14:1.0 56:1.0 1085:1.0 299:1.0 19:1.0 34:1.0 2024:1.0 2025:1.0 2026:1.0 2027:1.0 43:1.0 2028:1.0 953:1.0 2029:1.0 10:1.0 28:1.0 1379:1.0 2030:1.0 50:1.0 
-0.2985093305646358 0.5022274985883318 0.08649778521419373 0.8204869973017884 0.5704537168161096 0.29695262081084894 0.41740105718302595 0.24829060735063327 0.16351187914942186 0.6172034380918286 0.3760484243343624 0.6420263850857425 0.07864984422652435 0.16460656671899662 0.0 0.01946541354151407 0.05337019502933657 1:3.0 969:1.0 2039:1.0 2040:1.0 34:1.0 2041:1.0 612:1.0 3:1.0 2042:1.0 2043:1.0 43:1.0 11:1.0 2044:1.0 26:1.0 153:1.0 2045:1.0 2046:1.0 10:1.0 113:1.0 1871:1.0 
-0.1777817932787445 0.13556020659373277 0.019906025707527246 0.834157361108479 0.7249707735184117 0.30113494090832105 0.43517901298441086 0.24946654333956592 0.8503057873081323 0.523590809917815 0.15129978922827864 0.134029931110044 0.057167279670662124 0.16525056882944747 0.05082519951470235 0.04978973309964775 0.06020021075175652 10:1.0 1:3.0 2065:1.0 2066:1.0 2067:1.0 2068:1.0 2069:1.0 1706:1.0 98:1.0 481:1.0 1351:1.0 3:1.0 188:1.0 36:1.0 2070:1.0 2071:1.0 2072:1.0 
-0.19932705945719187 0.337702350873628 0.04585610530786615 0.6456115674147774 0.08822754477260908 0.21988860451664521 0.2739430941536445 0.1836992252387312 0.03359725105809162 0.5023125533560215 0.28164681028220184 0.5573761774910239 0.05852518539501075 0.11948145453596803 0.021943389584161595 0.02077608280845314 0.05286638794242066 1:5.0 2095:1.0 14:3.0 486:2.0 36:1.0 1303:1.0 2096:1.0 2097:1.0 840:1.0 1674:1.0 28:2.0 1037:1.0 2098:2.0 2099:1.0 454:1.0 1813:1.0 389:1.0 337:1.0 2100:1.0 391:1.0 
-0.3271994431168586 0.38443027063279733 0.04714272399575799 0.6596156314047298 0.7852187539210196 0.32675388726022375 0.43369310779118786 0.27747280048980855 0.2868350531872215 0.5067300880292915 0.35372268178308136 0.5232470193918342 0.12068806825964196 0.15095560397076016 0.037960795351660054 0.05207868879208821 0.04373257245551088 1:2.0 1692:1.0 19:2.0 351:1.0 10:1.0 28:1.0 100:1.0 14:1.0 1939:1.0 59:1.0 2101:1.0 318:1.0 1584:1.0 7:1.0 2102:1.0 
-0.13945342429869412 0.28052679817071496 0.04715831490905342 0.28691185937207125 0.9679338321158126 0.181174019865353 0.25494123483105274 0.14522599104630352 0.5235190655607266 0.1478153202641067 0.12911247185856217 0.1169154347344277 0.0432510898591618 0.10963184653046382 0.023645825522465982 0.11440369304459998 0.0 330:1.0 237:1.0 690:1.0 821:1.0 59:1.0 188:1.0 1:3.0 2118:1.0 2119:2.0 1138:1.0 2120:1.0 98:1.0 700:1.0 
-0.281118641810424 1.0 0.0 0.7554548010989296 1.0 1.0 0.930398226825494 0.2976374245246241 1.0 0.7571182618385525 0.0 0.09295288778708459 0.0 0.5185259031649525 0.18123271825326975 0.30879995962553386 0.1761595959836153 10:1.0 28:2.0 2248:1.0 53:1.0 2249:1.0 2010:1.0 2250:1.0 2251:1.0 2189:1.0 1:1.0 2252:1.0 
-0.4598273070973383 0.5684705325142709 0.05526514989172468 1.0 0.7143460973089076 0.3973902199177007 0.509090963999802 0.3121391356247325 0.22014444729054455 0.7266926481397613 0.43871890854077134 0.7906869718064664 0.12744615984148644 0.17537429907305177 0.0 0.028959461388382332 0.07065367540900822 1:3.0 67:1.0 2290:1.0 2291:1.0 81:1.0 2292:1.0 2293:1.0 2294:1.0 47:1.0 79:1.0 14:1.0 2295:1.0 983:1.0 2296:1.0 2297:1.0 1820:1.0 
-0.6578189930204903 1.0 0.10018395797489006 1.0 1.0 0.6668329056848543 0.8921584435835159 0.4825207924500867 0.1881662670761345 1.0 0.7171208737570316 1.0 0.22210629858195283 0.26391784515718764 0.0 0.0 0.11897124091027828 1:3.0 458:1.0 14:1.0 2298:1.0 19:1.0 34:1.0 253:1.0 188:1.0 397:1.0 484:1.0 
-0.29507744264565305 0.2946247933465949 0.07569739985750497 0.47282521528661214 1.0 0.4402734415976701 0.5474980305582571 0.2716701994166173 0.7798555527094555 0.2997117365804071 0.28287912624296846 0.20271756423641732 0.08022168735820896 0.3274979217983926 0.06941343687507982 0.09395495031104625 0.08062111128293686 1831:1.0 583:1.0 2087:1.0 1875:1.0 10:1.0 744:1.0 2333:1.0 22:1.0 1953:1.0 228:1.0 1271:1.0 261:1.0 1:1.0 1303:1.0 
-0.15125596950563483 0.16020666823458238 0.03340270486391968 0.24308442226561316 0.5969487242720709 0.1692436593450401 0.2354848561824113 0.12903392152556398 0.35103799451680173 0.18939125187676892 0.13647785611012755 0.10472695047825188 0.06139203991447705 0.10657935650829779 0.041749685436226286 0.06480026967172581 0.04320011697979746 443:1.0 662:1.0 1:4.0 2362:2.0 464:1.0 2254:1.0 2363:1.0 476:1.0 377:1.0 26:1.0 1020:1.0 2364:1.0 1212:1.0 47:1.0 1547:1.0 
-0.1877266747502041 0.09859929702044438 0.025517928782970864 0.46116068730148246 0.7043381555081916 0.3244189302706094 0.3291589689978204 0.2101369283637557 0.5502468357594377 0.1272994732489424 0.12747160456646145 0.17366083190995998 0.04386769325566567 0.16053285108012857 0.028846633594129485 0.03613203574380722 0.05344018507455547 10:1.0 241:1.0 2488:1.0 2489:1.0 26:1.0 1:2.0 2490:1.0 1584:1.0 615:1.0 81:1.0 1693:1.0 2491:1.0 2492:1.0 2493:1.0 34:1.0 315:2.0 2494:1.0 2495:1.0 2496:1.0 
-0.6616184384736711 0.5798106386470074 0.09129713353354577 0.8717663147802357 1.0 0.6893119724270261 0.9285321852751371 0.5164782080164223 1.0 0.6216446040154298 0.5607424286383196 0.3289544745144557 0.2305037890249661 0.40575182731327614 0.2002290672254155 0.18740953517080064 0.10637862269194183 2511:1.0 47:1.0 28:1.0 745:1.0 2512:1.0 112:1.0 2513:1.0 
-0.6499431661575152 0.80462879073287 0.07179325723873521 1.0 1.0 0.6418485375036065 0.9225937176718872 0.49121781194608616 0.46832217464149306 1.0 0.6526948754215688 1.0 0.2070573341118398 0.28793683730143815 0.3465522601884529 0.0674630661679735 0.09080979468783514 1:2.0 2240:1.0 941:1.0 3:1.0 28:1.0 604:1.0 336:1.0 14:1.0 1525:1.0 
-0.4149403480981306 0.5207020823605361 0.0 0.9363485560004424 1.0 0.4211535155742788 0.6655224156032694 0.30664831565219997 0.24680843323355067 0.7514669597028708 0.4225313729183179 0.7563953295628009 0.08251388169049602 0.19520175265955525 0.18574165421556182 0.0 0.07662091084974633 1:2.0 1372:1.0 6:1.0 2566:1.0 24:1.0 28:1.0 397:1.0 1228:1.0 1047:1.0 988:1.0 1417:1.0 753:1.0 
-0.5769714612475376 1.0 0.0 0.5081924024400051 1.0 1.0 1.0 0.3045017824318311 1.0 1.0 0.13035971266976656 0.15451634123521713 0.05799114206933749 0.6850433965302463 0.28523629684257373 0.35636541632127533 0.13738797157601607 28:2.0 182:1.0 808:1.0 228:1.0 1965:1.0 188:1.0 2569:1.0 2570:1.0 
-0.405782940728721 0.3957686164357671 0.08165487171527912 0.5766283429780499 1.0 0.5204253409284454 0.6590042688817782 0.35304848083559714 1.0 0.41158141810594734 0.41466345972261986 0.20008919281207252 0.1133087609827177 0.34545024205778035 0.10833765060535212 0.1011608276475866 0.059243470185174334 2576:1.0 2577:1.0 34:1.0 2578:1.0 22:1.0 2579:1.0 1:1.0 565:1.0 61:1.0 2580:1.0 
-0.13517727926065662 0.23777553441959248 0.03131838267267225 0.39417812948022873 0.415675114153407 0.20151706222459884 0.2514738008862557 0.18784125258754547 0.20525618911013224 0.2828547061779716 0.19325494554778413 0.2891744143353586 0.034251818043607656 0.11114951613657592 0.026808424657033286 0.03077798931355403 0.028054975264556407 1:2.0 1548:1.0 26:2.0 2614:1.0 2615:1.0 22:1.0 2616:1.0 2617:1.0 2618:1.0 2508:1.0 188:1.0 2619:1.0 14:1.0 28:2.0 2620:1.0 2621:1.0 389:2.0 2622:1.0 2623:1.0 391:2.0 2624:1.0 2625:1.0 1602:1.0 2626:1.0 
-0.2150070902859632 0.15152358856221915 0.06625195491234327 0.2770827712887885 0.7015161511194744 0.1943083210001404 0.26625475940650034 0.18356547087900998 0.4177700007571059 0.15782398705725595 0.1362691516142904 0.11832285047789393 0.056452375478103826 0.17015060700273066 0.053912006588498845 0.05963537938586257 0.0 713:1.0 755:1.0 47:1.0 34:2.0 2479:1.0 1868:1.0 10:1.0 1:1.0 2638:1.0 2639:1.0 22:2.0 2640:1.0 14:1.0 2641:1.0 2513:1.0 1474:1.0 157:1.0 2571:1.0 1167:1.0 2642:1.0 
-0.40646735825391245 0.5573991386891888 0.0642178083858909 0.9514185268939842 1.0 0.4441729344118206 0.6078427950366945 0.3443744199353927 0.366600202497872 0.7402419245044771 0.5550599183356517 0.7135800365975836 0.1697192938391081 0.21026934282542106 0.050174715281658636 0.059000108021740896 0.07163753505367201 1:2.0 2277:1.0 1256:1.0 98:1.0 1324:1.0 22:1.0 19:1.0 10:1.0 408:1.0 112:1.0 549:1.0 11:1.0 195:1.0 
-1.0 0.505097163388932 0.0 0.6130499537494436 1.0 0.626934006208262 1.0 0.3352840387092209 1.0 0.4605528254991866 0.6031583109543532 0.30413615941704975 0.32580397003718203 0.41841979574730026 0.2566689230704666 0.10184422880887493 0.18904307774462803 56:1.0 1274:1.0 6:1.0 87:1.0 587:1.0 2653:1.0 38:1.0 1782:1.0 
-0.4372902096655429 0.4603492094827978 0.07849521090911075 0.6501160293816565 1.0 0.5877709998694209 0.7096907344086356 0.3689364285096144 1.0 0.43935532114226683 0.40389177670900067 0.373222955909992 0.1488726857937238 0.31847574372187615 0.17833812996594098 0.11964031076500846 0.055177314277477955 2657:1.0 1968:1.0 2658:1.0 2659:1.0 112:1.0 2660:1.0 188:1.0 908:1.0 221:1.0 
-0.2424259695944662 0.16507317811046623 0.1465195779207647 0.3153123688896994 1.0 0.23371366519029949 1.0 0.1558836261866062 0.6766392957376176 0.43014339952985065 0.18754386196082748 0.08926452913961486 0.059670216174135336 0.18790002080100043 0.04250136365493133 0.06298152580287829 0.0 7:1.0 47:1.0 1:1.0 120:1.0 2681:1.0 22:2.0 2682:1.0 1625:1.0 14:1.0 2683:1.0 10:1.0 28:1.0 1022:1.0 538:1.0 2684:1.0 
-0.12858083709571266 0.14817246865584213 0.0637106871232254 0.2534824481097391 0.6024523627885053 0.1928333601981054 0.24803067552678482 0.15712810138982367 0.365823611029051 0.15299953314910156 0.16002305315013943 0.10905349950891474 0.05615176724874316 0.11317163787603851 0.04833499592526794 0.03890310757314262 0.03351102558685356 2725:1.0 563:2.0 1557:2.0 2726:2.0 326:1.0 604:1.0 2201:1.0 1697:1.0 22:1.0 28:2.0 826:1.0 2727:1.0 14:1.0 2728:1.0 2566:1.0 10:1.0 47:1.0 337:1.0 112:1.0 2729:1.0 
-0.1862259021780666 0.09626712263184195 0.05595879939181136 0.3573224976795633 0.48099100913170684 0.2240046906705781 0.2199740856097803 0.19581433303213125 0.4538007029636528 0.1355988763151899 0.10657117566940182 0.1115983427086791 0.030400158791490117 0.14129151411556928 0.057979335764689756 0.05234146447919667 0.062444624293440096 10:1.0 2730:1.0 14:3.0 1:3.0 400:2.0 2731:1.0 2:1.0 2136:1.0 2732:1.0 98:1.0 464:1.0 188:1.0 454:1.0 750:1.0 479:1.0 2336:1.0 1736:1.0 
-0.33208722187354733 0.43197894576412366 0.05160799147674482 0.7414249508927513 1.0 0.37306599379173805 0.5360827219158871 0.29200469459660444 0.5489985742526146 0.5958287645880561 0.4136805825414448 0.44794889376676533 0.11368308780906838 0.19699160104842345 0.0680379298412697 0.07783898793698575 0.047191084114427115 1:1.0 671:1.0 47:1.0 2748:1.0 11:1.0 2749:1.0 2750:1.0 14:1.0 2224:1.0 1679:1.0 648:1.0 552:1.0 1562:1.0 2751:1.0 
-0.18946967870975923 0.2454127014067211 0.03756545884971031 0.4489911440044609 0.6735443041071876 0.23817284323599114 0.30946853320405127 0.17463957894678617 0.3298545492278478 0.32481366473805673 0.2235178998105122 0.262714407123032 0.056601010068548584 0.1472817916558291 0.051194653359677926 0.038216126091607794 0.038733832803210674 1:1.0 475:1.0 2754:1.0 188:1.0 28:3.0 186:1.0 36:1.0 146:1.0 2157:1.0 59:1.0 19:1.0 306:1.0 102:1.0 112:1.0 575:1.0 45:1.0 
-0.3023744802397561 0.19935382553434106 0.02653828394673364 0.37802816487550256 0.804009234316649 0.21565373853236858 0.29653091848787805 0.19317322911190882 0.48993651903150687 0.16940740940091512 0.16483846827830778 0.12557625483257095 0.08293186078083915 0.1370857729446717 0.05765635278434811 0.06804372326868363 0.029289584554263393 1490:1.0 1760:1.0 98:2.0 2634:1.0 443:1.0 1:2.0 2211:1.0 2771:1.0 536:1.0 2772:1.0 36:1.0 2773:1.0 1432:1.0 22:1.0 2561:1.0 1291:1.0 2774:1.0 43:1.0 1398:1.0 
-0.26188673206733337 0.2332768433730321 0.047141850036810345 0.42622996845212624 1.0 0.33559246001705534 0.41033837035571685 0.256466585084509 0.633055222993397 0.2546778529762339 0.2555911831664406 0.14296964208246918 0.09660814671803453 0.18481556888581566 0.1225119375896867 0.10824129094279332 0.032166811472943736 2802:1.0 1:2.0 1306:1.0 2689:1.0 47:1.0 2509:1.0 188:1.0 1190:1.0 905:1.0 43:1.0 120:1.0 2803:1.0 102:1.0 
-0.750907958935796 1.0 0.10740387055079649 1.0 1.0 0.8647502392715742 1.0 0.6094772473701374 0.2414197911815177 1.0 1.0 1.0 0.23029218648940056 0.32542596225243076 0.0 0.0 0.16055167500990436 1:3.0 2862:1.0 2863:1.0 1791:1.0 98:1.0 2277:1.0 188:1.0 2220:1.0 
-0.16625646926522014 0.11857647747832896 0.05659534642165291 0.3034003807759382 1.0 0.15116085245334604 0.2112126345883535 0.15064826093096495 0.5090425905230869 0.1419150014741611 0.13049073710693568 0.1274894059905911 0.042938507731225886 0.0999807375958396 0.0474525030532934 0.11287605551788578 0.0 330:1.0 619:1.0 1:2.0 573:2.0 443:1.0 155:1.0 28:2.0 14:1.0 2495:1.0 98:1.0 900:1.0 2400:1.0 2886:1.0 
-0.46642512961370036 0.6765774572413069 0.08801997738654495 1.0 0.5682881581828976 0.47932979387065533 0.5728749827227377 0.4206869558714066 0.06199872550234595 0.9463823616953093 0.5243118177098771 1.0 0.12040067550889191 0.22673620218451482 0.011202950746994088 0.06460465049741666 0.0809692727700437 1:4.0 1797:1.0 2486:1.0 2889:1.0 10:2.0 2890:1.0 853:1.0 22:1.0 676:1.0 997:1.0 2577:1.0 2891:1.0 2892:1.0 
-0.15051563740369248 0.25519370786494544 0.04601481331468722 0.5935206385426122 0.31269828888621176 0.18919839753576645 0.2271921560562806 0.17355050362829794 0.191174483210201 0.401874157586681 0.3499669635127482 0.353394106467931 0.04342408523353738 0.1114937535057291 0.029233315838642075 0.04316784409970782 0.11538908873555413 1:3.0 140:2.0 480:2.0 1645:2.0 47:1.0 28:1.0 908:1.0 2926:1.0 26:1.0 393:1.0 1520:1.0 22:2.0 2927:1.0 10:1.0 2928:1.0 2929:1.0 2930:1.0 2931:1.0 14:1.0 2932:1.0 872:1.0 
-0.22861289764795134 0.3461346913909956 0.05345396206330459 0.3724804940471061 1.0 0.2569481372198163 0.37158821166772116 0.20290496719964557 0.5166241434007941 0.2694575364184764 0.24560488910542244 0.11950534697587861 0.08744893165265942 0.14799868134594105 0.09782761533938267 0.09196490882347871 0.033339599726958456 565:1.0 1361:1.0 2939:1.0 10:1.0 2940:1.0 821:1.0 28:2.0 2941:1.0 1855:1.0 43:1.0 1:1.0 2942:1.0 14:1.0 1869:1.0 81:1.0 507:1.0 733:1.0 
-0.14296555096351024 0.2890976188312893 0.035153145621751106 0.23495266594626407 0.48308949352271474 0.17617141177108359 0.20491708768859965 0.1098288257657837 0.3520685528058072 0.1209520279432283 0.12766398258304898 0.0929954574916896 0.04724281698710645 0.0878716024828686 0.06203235849666152 0.03939560843126184 0.030525972710603512 1767:1.0 763:1.0 2138:2.0 1262:1.0 127:1.0 1460:3.0 1:1.0 221:1.0 98:1.0 28:2.0 1878:1.0 3016:1.0 485:1.0 826:1.0 81:1.0 3017:1.0 904:1.0 34:1.0 32:1.0 2629:1.0 3018:1.0 454:1.0 3019:1.0 
-0.25763397854527076 0.25815051342361034 0.09064905285714994 0.42628274153199663 1.0 0.327100417965553 0.4103891758391241 0.2515413753994421 0.5893454980605636 0.2825211916811593 0.2568886270818926 0.17755119859970375 0.08673762982312508 0.20140032168885935 0.12174746573498993 0.07082598635170534 0.053079869402167495 2031:1.0 594:1.0 840:1.0 3020:1.0 26:2.0 105:1.0 3021:1.0 188:1.0 1:1.0 441:1.0 650:1.0 908:1.0 645:1.0 
-0.24121460277505796 0.3120994829675729 0.06877729313104525 0.5405579381933256 0.878831975278515 0.2644554685253439 0.38343297586205216 0.2348849664780877 0.40207632337024574 0.3746289932637634 0.26356405092353086 0.3336370422769715 0.06724684882749592 0.15731313941871483 0.07814099770265988 0.07418735344194825 0.044718295537504005 1:1.0 1729:1.0 3035:1.0 47:2.0 1382:1.0 14:2.0 28:1.0 1456:1.0 422:1.0 3036:1.0 24:1.0 702:1.0 1730:1.0 3037:1.0 
-0.24354083699097434 0.1969047957125608 0.04555283754892438 0.3319246323018751 0.8289888780094222 0.23154439518460032 0.3379923191155465 0.17850048546421682 0.44729128659690703 0.19114522553212931 0.17776610342258153 0.11003287210977565 0.06903534813268448 0.16715327236704264 0.08873770393121834 0.03799627007345757 0.022287485392665576 2213:1.0 2145:1.0 2860:1.0 594:1.0 656:1.0 376:1.0 34:1.0 1278:1.0 330:1.0 1608:1.0 81:1.0 877:1.0 1:1.0 599:1.0 972:1.0 32:1.0 28:1.0 311:1.0 269:1.0 43:1.0 11:1.0 38:1.0 14:1.0 3073:1.0 
-0.16717529150208404 0.2404903970125168 0.04061953431702005 0.30346127179288784 0.7421474764955834 0.22045122253945393 0.3021181857312474 0.17217655186243222 0.4399049007372227 0.22597099231889398 0.16093154672737947 0.11897420656560527 0.05088233469752794 0.1514950086487557 0.07756401229789245 0.057257764790359614 0.028569695873902907 3065:1.0 34:2.0 2566:3.0 3074:1.0 10:1.0 2319:1.0 453:1.0 77:1.0 398:1.0 188:1.0 1:1.0 2427:1.0 3075:1.0 1029:1.0 3076:1.0 
-0.7227685734856143 1.0 0.09529107938753033 1.0 1.0 0.7904309186027552 1.0 0.6686909785473574 0.2301917149362978 1.0 1.0 1.0 0.2857902063979424 0.4020244764588866 0.0 0.0 0.1388743073285324 1:3.0 3124:1.0 3125:1.0 1301:1.0 24:1.0 30:1.0 61:1.0 2001:1.0 
-0.260683462159682 0.2756878171093966 0.03966199206008229 0.42633552114589085 1.0 0.29989491998945794 0.5312448187807488 0.22871516757625002 0.6479314471941928 0.2636956701878968 0.2550869369961744 0.16270057863288118 0.18483612049414266 0.23225337773825888 0.12382540167056973 0.09299289838637859 0.02659011439316568 544:1.0 3130:1.0 3131:1.0 1445:1.0 2034:1.0 1:2.0 3132:1.0 34:1.0 766:1.0 3133:1.0 14:1.0 865:1.0 2719:1.0 
-0.19365333495937195 0.18966982222485773 0.05978531681473463 0.3259188022097 0.7992592777970906 0.2720052922589044 0.2799836179144101 0.18442683023115738 0.4368858208431555 0.1916597376949498 0.16913011184707283 0.13248799479640525 0.056641464236438475 0.1375367272332538 0.07078265851251543 0.06014347799139659 0.05677725552291839 1453:1.0 388:1.0 28:1.0 595:1.0 344:1.0 3153:1.0 1819:1.0 928:1.0 10:1.0 1:3.0 3154:1.0 977:1.0 422:1.0 47:1.0 1388:1.0 14:1.0 1808:1.0 
-0.31511709882496597 0.40735088613823767 0.21232053941555015 0.41415307102209253 1.0 0.4138879953496801 0.575153423674984 0.28428616530730644 0.9063610681219179 0.24812157625206496 0.3174446655822616 0.08012748414338802 0.1283442038858026 0.29325611005379537 0.056647535580979305 0.11374464440470387 0.0 53:1.0 889:1.0 319:1.0 311:1.0 286:1.0 2566:1.0 24:1.0 1113:1.0 3155:1.0 133:1.0 
-0.12015357584083036 0.1603041090186041 0.04059255083963664 0.25887376496669423 0.5233598143878438 0.14370002543914326 0.17116344823577584 0.11518502775565709 0.3496785561950174 0.13536426784767341 0.11560923294854228 0.09318773040516082 0.060280426971406786 0.09205590458397582 0.1698325821711208 0.0669084643070549 0.028671979621363457 1767:1.0 2477:2.0 2584:2.0 188:1.0 1:3.0 3158:1.0 47:1.0 3135:1.0 353:1.0 1722:1.0 7:1.0 290:1.0 1335:2.0 750:1.0 252:1.0 1047:1.0 1736:1.0 947:1.0 237:1.0 10:1.0 28:1.0 3159:1.0 
-0.28017773373523075 0.2537905356981828 0.044486716635298254 0.4315874664290898 1.0 0.33750196959699164 0.39018091612480427 0.2505274523468018 0.5907689633530203 0.2736195863449427 0.26293526254018473 0.14251378187136066 0.09883969083486381 0.1827428004392731 0.0567767478867018 0.12246949872792803 0.06233177639541054 3169:1.0 19:1.0 3170:1.0 188:1.0 3171:2.0 2130:1.0 3172:1.0 14:1.0 2105:1.0 443:1.0 22:1.0 3173:1.0 1134:1.0 3174:1.0 
-0.1491447479464855 0.17413262245136418 0.05264117891876527 0.2934005104352635 0.622874038782529 0.20252046491588593 0.2580343777510645 0.14046731435674284 0.366944777006603 0.16614301477840546 0.18377122502927784 0.08778619541535213 0.05648538038070722 0.11449356916592959 0.043566129478118665 0.03782901895382776 0.038623599948805064 3175:1.0 1:2.0 661:1.0 3176:1.0 19:1.0 3177:1.0 188:1.0 28:2.0 3178:1.0 14:3.0 3179:1.0 22:1.0 747:1.0 3180:1.0 3133:1.0 523:1.0 
-0.4637187436677802 0.5193090198760146 0.0 0.5271747847133879 1.0 0.5162937652491989 0.8298705126281064 0.31214699701314613 1.0 0.334286616562441 0.4126478332587018 0.09839794682714437 0.09941961801791671 0.29573172124481967 0.1683336800649021 0.1488599900594441 0.0 485:1.0 856:1.0 86:1.0 87:1.0 1512:1.0 98:1.0 11:1.0 3221:1.0 
-0.493634262431009 0.758799441390524 0.10852156520583256 1.0 1.0 0.5469447285406238 0.6861140565676722 0.40417075108120204 0.2223535668306373 1.0 0.6605875247152317 1.0 0.137033229729022 0.2448950909639928 0.0 0.0 0.07884064268711756 1:3.0 3229:1.0 14:1.0 28:1.0 2112:1.0 19:1.0 3230:1.0 43:1.0 3231:1.0 759:1.0 10:1.0 1666:1.0 
-1.0 0.7664478708051683 0.0 1.0 1.0 0.6030642412802082 0.8403795464181547 0.6390999334728594 1.0 0.5533650424339338 0.5369721961135161 0.4294002097495314 0.1429914624896838 0.41678333962124725 0.15638359854875206 0.5490253766047336 0.0 330:1.0 789:1.0 1078:1.0 24:1.0 470:1.0 
-0.4727643058009453 0.7037188762625296 0.06290594240621988 1.0 0.961450847064064 0.4703305584520958 0.6653876827245067 0.38950455820140856 0.20932405665613577 0.9046904648622036 0.5657119910325901 1.0 0.13136081640660272 0.21858740186756337 0.0 0.08522203266738551 0.08810930566906444 1:3.0 3272:1.0 3273:1.0 2200:1.0 46:1.0 98:1.0 3274:1.0 22:1.0 1304:1.0 245:1.0 3275:1.0 34:1.0 2446:1.0 
-0.36445470203396596 0.3763320220114427 0.0787814819957807 0.5737172584680034 1.0 0.4398254978492202 0.5896616296442831 0.3172167686570494 0.9131756336328486 0.3699529401887297 0.3090432272357829 0.1863676335482101 0.18329958494432716 0.2846911194721907 0.15019007291547873 0.26394391711737686 0.06030492593082212 3284:1.0 3285:1.0 3286:1.0 2716:1.0 1514:1.0 98:1.0 28:1.0 2083:1.0 14:1.0 3287:1.0 3288:1.0 
-0.4984451759246864 0.6827318249126779 0.03612919005083979 0.2241537258412274 1.0 0.2936266616693878 0.6071007568455381 0.09264207445965827 0.416556460029199 0.30817085321655463 0.3225454808326169 0.20988730692871038 0.16644781267837086 0.134515206226184 0.07152746033172436 0.09770943153942835 0.05622917954741382 56:1.0 47:1.0 1:2.0 886:1.0 468:1.0 103:1.0 3361:1.0 680:1.0 2500:1.0 982:1.0 952:1.0 
-0.07182672389463397 0.07615595042145468 0.017113580985467742 0.14539450724227965 0.13144116046980114 0.07815034144145523 0.07972207255149041 0.062217694221203594 0.15871694794732033 0.08289493113425944 0.06639041329955227 0.05808028462539016 0.010710589664400652 0.05261082894186422 0.016947186157577343 0.02471283700489396 0.02027289045012544 1507:1.0 298:2.0 86:1.0 669:1.0 81:7.0 1029:1.0 1134:1.0 188:1.0 28:1.0 3216:1.0 1064:1.0 3363:1.0 197:1.0 1755:1.0 14:1.0 1775:1.0 2124:1.0 3364:1.0 2141:1.0 492:1.0 3365:1.0 3366:1.0 22:4.0 3367:1.0 3368:1.0 3369:1.0 3370:1.0 3371:1.0 3372:1.0 3373:1.0 3374:1.0 143:1.0 3375:1.0 3376:1.0 3377:1.0 389:1.0 454:1.0 2956:1.0 3378:1.0 7:1.0 3379:1.0 1909:1.0 3380:1.0 3381:1.0 3382:1.0 391:1.0 
-0.19244391132208452 0.3445154149062236 0.08204129323699065 0.5806111361823836 0.5874693972151608 0.3385820014433959 0.3911515007609727 0.23468188055419512 0.2532057800422138 0.4784278257280835 0.26955781802021844 0.42303318314108185 0.09527015418351759 0.1696861629259535 0.0416072981231884 0.046230868142388325 0.023166857632373167 1:2.0 120:1.0 553:1.0 47:1.0 28:2.0 1190:1.0 81:1.0 1786:1.0 1311:1.0 22:1.0 575:1.0 3398:1.0 112:1.0 422:1.0 30:1.0 6:1.0 2581:1.0 3399:1.0 1081:1.0 
-0.5519145898058937 0.5061063769084957 0.08285291411993716 0.6965795533253976 1.0 0.5925100835646335 0.8373529123897774 0.3830392381283746 1.0 0.5592361175354008 0.46362509246948824 0.2719917238625552 0.19427226938000922 0.3388081732071174 0.17547550844327978 0.14067444064422088 0.07277272565086293 3411:1.0 2375:1.0 1:1.0 3063:1.0 24:1.0 3412:1.0 252:1.0 3413:1.0 
-0.21330313878696447 0.37075903638507 0.05747320133854533 0.6680753676981249 0.4407736581053343 0.2958248184927311 0.36513279004026133 0.22062784523318002 0.15430842888396362 0.4736776988660037 0.3315432256137044 0.5364828741707222 0.06715905114451007 0.13028789570981486 0.0 0.06439943627878532 0.06778479096473888 1:3.0 3420:1.0 1785:1.0 3421:1.0 3422:1.0 61:2.0 836:1.0 371:2.0 753:1.0 3423:1.0 34:1.0 1624:1.0 22:1.0 3424:1.0 2770:1.0 14:1.0 3425:1.0 1439:1.0 2142:1.0 
-0.4712727197455987 0.481196299958559 0.06565526006388323 0.8028185234341905 1.0 0.45639262786581647 0.7686276523622315 0.3986057987628312 0.6343071219103981 0.6575001750020477 0.4975951382851655 0.5500127694518226 0.1324262239294238 0.24540228067110775 0.05084201107891715 0.05034637467541976 0.0 1:1.0 2251:1.0 47:1.0 221:1.0 24:1.0 3470:1.0 1722:1.0 14:1.0 3471:1.0 484:1.0 
-0.7198222662647693 0.43578403410508804 0.0 0.7140188360991582 1.0 0.5677205438936382 0.9104168450351682 0.39673517309403733 1.0 0.4548911015428321 0.45464246108205186 0.1817521004749451 0.22004423441405022 0.3278384826178744 0.20232163994893662 0.13953063884646172 0.07533112214151942 713:1.0 1743:1.0 3472:1.0 47:1.0 1875:1.0 24:1.0 130:1.0 
-0.2772314265143857 0.3770523211583793 0.061887988954728995 0.6015218089028387 0.6813764282551991 0.2873047677705335 0.39346847945832214 0.2152775488322024 0.2617138969309936 0.4979642980461982 0.2823694124364628 0.43894607506240935 0.10553833375652201 0.1469776727665066 0.0389561012712251 0.0667966726294562 0.07911825505661843 1:2.0 2123:1.0 226:1.0 1204:1.0 3475:1.0 24:1.0 28:1.0 3476:1.0 491:1.0 22:2.0 3477:1.0 36:1.0 3478:1.0 3479:1.0 594:1.0 351:1.0 26:1.0 1253:1.0 
-0.24198599406143773 0.2865778862258207 0.04970838038452685 0.44847954790513744 1.0 0.3086558263036043 0.43088319173833345 0.34549078260796007 0.6385687143137856 0.5391534615347745 0.22541017754962356 0.13657215561427988 0.1784701308975624 0.32495243411241137 0.19805031170104137 0.06513339912437134 0.0 112:1.0 753:1.0 559:1.0 583:1.0 3500:1.0 6:1.0 1032:1.0 1029:1.0 98:1.0 3507:1.0 3508:1.0 43:1.0 28:1.0 182:1.0 
-0.7926097268983919 0.8644012875550272 0.054723440073459084 1.0 1.0 0.8966479144251951 1.0 0.5659728107829929 1.0 1.0 0.7127139360265616 0.8345686370429285 0.20217168510221875 0.4117996313488026 0.08474320809519865 0.08520545031877474 0.061841465462137576 1:1.0 3515:1.0 1911:1.0 3516:1.0 993:1.0 24:1.0 2099:1.0 
-1.0 0.885736311619879 0.056562878123175724 1.0 1.0 0.8497652732131026 1.0 0.5483016631600096 1.0 1.0 0.8261992510366852 0.8141941399714491 0.18186993244053656 0.43707865353893105 0.08241655448379419 0.13025728858918934 0.06914078844524127 1:1.0 1925:1.0 47:1.0 1875:1.0 24:1.0 28:1.0 3526:1.0 
-0.08954603201968966 0.08102826271078109 0.022083009137618848 0.1842916111690953 0.2344883426509718 0.10435122604693575 0.11273446890637234 0.08851783870200723 0.20516491278677867 0.10727683555587611 0.07988765701722193 0.07023500969274253 0.03582588370242963 0.08088797971010647 0.02047116923076059 0.02342255243313726 0.02139448291517098 2725:1.0 28:2.0 144:1.0 3553:3.0 2152:1.0 26:1.0 3554:1.0 3555:1.0 34:1.0 3556:1.0 1780:1.0 32:1.0 327:2.0 320:3.0 1:4.0 10:2.0 3557:1.0 14:1.0 2062:1.0 226:1.0 197:1.0 3558:1.0 344:1.0 157:1.0 1490:1.0 1505:1.0 378:1.0 1423:1.0 907:1.0 3:1.0 
-0.3760872153590889 0.26758886218166317 0.1168383019623188 0.5190906554572875 1.0 0.33754133972177536 1.0 0.22757117770873872 0.8709716799504292 0.581009546177113 0.2509290153875834 0.16589851790904853 0.09974562893739816 0.2943644154334255 0.06649747361828585 0.10084821866669565 0.08634374074017992 7:1.0 47:1.0 2256:1.0 26:1.0 28:1.0 3580:1.0 1517:1.0 1:2.0 1678:1.0 14:1.0 415:1.0 
-0.3680035810420379 1.0 0.18024037893584388 0.44182858050528206 1.0 0.6644075399829447 0.6098190838751958 0.21086914239738275 1.0 0.5774286489513184 0.18482003806118316 0.15787648550383265 0.08648558548761881 0.3486355898582932 0.14796516555957828 0.1454168876085186 0.08953371805379401 28:1.0 123:1.0 3600:1.0 241:2.0 3601:1.0 1059:1.0 1551:1.0 3:1.0 194:1.0 
-0.17717290694738502 0.40849219715200613 0.0515041829123858 0.3984059581799281 0.653773622351292 0.20999527846512236 0.29621258301200326 0.17251752230948164 0.31289480968435135 0.2874286419274602 0.2031880330772273 0.21139288941995152 0.058110216365449184 0.15420365184762927 0.03199060897394351 0.06615997345924109 0.03223586830092571 1:1.0 780:1.0 6:2.0 20:1.0 1933:1.0 11:1.0 2600:1.0 1867:1.0 3604:1.0 7:1.0 237:1.0 2213:1.0 351:1.0 59:1.0 3605:1.0 3606:1.0 1179:1.0 86:1.0 34:1.0 840:1.0 269:1.0 
-0.2763010848040033 0.4932664503903299 0.05797738701454398 0.6114457501505356 1.0 0.35907176800506035 0.47304681416648264 0.2524194000155342 0.470060269070152 0.4189904538228871 0.40633053173705547 0.3598949603196968 0.09245326811595055 0.19662733478698982 0.09108090732478431 0.07374113265689089 0.04728394416289593 1:1.0 780:1.0 1074:1.0 28:1.0 604:1.0 3622:1.0 10:1.0 1887:1.0 674:1.0 157:1.0 2673:1.0 3623:1.0 3624:1.0 876:1.0 1269:1.0 
-0.1868183688017582 0.2373885450427873 0.04028603002526958 0.5234704723677436 1.0 0.2988760796029844 0.45357097884775477 0.2159715366084322 0.6141345540199408 0.23283022974625006 0.21166534359792324 0.15997524614988867 0.08881370043923328 0.26752247655661154 0.08152806203178273 0.08924220185163434 0.06677794996237585 344:1.0 1047:1.0 1303:1.0 3636:1.0 45:1.0 86:1.0 87:1.0 88:1.0 24:1.0 750:1.0 2191:1.0 22:1.0 1902:1.0 81:1.0 1273:1.0 3637:1.0 542:1.0 3638:1.0 
-0.29693087130978935 0.7563362949365098 0.0 0.33029946274073263 1.0 0.521413018699777 0.5101955739780052 0.153460447183275 0.8239306683010099 0.45770327066003297 0.1738007489633148 0.09522042666402811 0.06037192668156413 0.2771911539892127 0.1299355350738069 0.13467579881175362 0.037445586416015454 28:1.0 1518:1.0 14:1.0 3653:1.0 3654:1.0 10:1.0 3655:1.0 226:1.0 11:1.0 3656:1.0 469:1.0 188:1.0 3657:1.0 61:1.0 3658:1.0 
-0.2028490516108414 0.23254756947504307 0.02686789497166002 0.3204900498446049 0.8059783635824902 0.24947148840194686 0.28451486163250395 0.17408813397411876 0.4446448638268952 0.2094246325719089 0.18804120640447286 0.12619265750075112 0.06423550692463964 0.13772942116701736 0.05006351535590886 0.050844778583960484 0.028474814744297347 36:1.0 3684:1.0 28:2.0 658:1.0 3685:1.0 14:1.0 3686:1.0 3687:1.0 19:1.0 1208:1.0 1514:1.0 98:1.0 3688:1.0 2411:1.0 1:1.0 522:1.0 3689:1.0 676:1.0 526:1.0 22:1.0 3690:1.0 
-0.3421318618825317 0.37916282982140664 0.09876796167334169 0.5736644788541092 1.0 0.4560470627452403 0.589610824160876 0.35158013134358884 1.0 0.3328765370551988 0.401499379397372 0.20942505395031363 0.1278424382919598 0.2865335410273247 0.10604940046319397 0.11159686804887763 0.053037988570310286 234:1.0 1917:1.0 1103:1.0 10:1.0 3706:1.0 195:1.0 1906:1.0 3144:1.0 85:1.0 24:1.0 3707:1.0 
-0.13001926420260973 0.12913621669796513 0.03005823827424679 0.4438802642437001 0.8728051970528422 0.20541685476746538 0.26253684418905404 0.15627574100983838 0.5461992970363472 0.1646163757807524 0.15616402505139124 0.22199607381485406 0.04808516285540207 0.1339335121846282 0.06089546232261533 0.041413084379708996 0.0 298:1.0 3018:1.0 28:1.0 2731:1.0 14:1.0 3180:1.0 98:1.0 2003:1.0 1394:1.0 22:1.0 2429:1.0 188:1.0 3361:1.0 232:1.0 3708:1.0 112:1.0 127:1.0 716:1.0 81:1.0 2581:1.0 522:1.0 
-0.2083622973237192 0.25797782477796116 0.06410993901175686 0.5297023089366678 1.0 0.3288552089518739 0.4737881701801596 0.24499615528414703 0.6045271439060068 0.33328047512177517 0.2609122889201305 0.14502250874180536 0.08769906040667722 0.21099535958905358 0.07931623573861138 0.0847063465184406 0.040280971442795487 475:1.0 1085:1.0 485:1.0 14:1.0 152:1.0 244:1.0 990:1.0 86:1.0 269:1.0 28:1.0 1083:1.0 2205:1.0 34:1.0 3779:1.0 2642:1.0 
-1.0 0.5093449380448166 0.0 1.0 1.0 1.0 1.0 0.6384193246895352 1.0 0.5545549255848021 0.5344821147331151 0.40329789631235025 0.2889947545256928 0.40770326754190495 0.16001423192595543 0.4803479362451906 0.1356596579448735 330:1.0 1032:1.0 3793:1.0 24:1.0 32:1.0 
-0.14835276324698699 0.05924077248637955 0.030745698130297067 0.40740090856912603 0.2956618444918084 0.22180176825486533 0.19565955374236865 0.19075252437382526 0.4839294874860933 0.12019686628187276 0.08164529090626925 0.10350737074285182 0.03734755102398587 0.13624330585777125 0.022313371456873704 0.02543533347036109 0.03848384632646282 10:2.0 3809:1.0 1:5.0 3573:1.0 253:1.0 518:1.0 22:2.0 3810:1.0 188:1.0 1870:1.0 1557:1.0 3811:1.0 3812:1.0 112:1.0 1368:1.0 1118:1.0 1743:1.0 2467:1.0 
-0.3294212286154164 0.3749707867162999 0.083111965124558 0.5825541643667586 1.0 0.4074899164353664 0.49664617281575796 0.3246933921458908 0.8001234610916393 0.37835539598457024 0.3125172928901782 0.21130395706209135 0.09611744794033228 0.24160124935268915 0.11412162470673679 0.11915535425712596 0.06784643157110216 3813:1.0 47:1.0 32:1.0 34:1.0 1517:1.0 1:1.0 1078:1.0 14:1.0 448:1.0 3814:1.0 454:1.0 1661:1.0 
-0.36451913019876603 0.6155697293672027 0.06851026510325442 1.0 0.43999263051944865 0.40343979038765276 0.5322790356273892 0.3193109022233162 0.08172465206964213 0.8450441831654512 0.4859283308005612 0.9100247211474922 0.10461223123450952 0.1815239808696274 0.021614174497293248 0.0570110564083421 0.4302371035356949 1:4.0 2992:1.0 14:2.0 3827:1.0 47:1.0 2665:1.0 98:1.0 28:1.0 3828:1.0 598:1.0 188:1.0 82:1.0 522:1.0 920:1.0 2656:1.0 
-0.14102108202100178 0.15408808324840723 0.04822631516728107 0.27565287382468384 0.7112591360567956 0.23988992614124194 0.3012238373068556 0.1658479862027456 0.4242500576175555 0.1997397109549886 0.1620863677295483 0.1105039615774358 0.05142142409676054 0.14076459495703572 0.07847095059002664 0.04626470429998837 0.0544592876373346 157:1.0 3839:1.0 3840:1.0 541:1.0 14:1.0 3841:1.0 38:1.0 22:1.0 3842:1.0 730:1.0 1644:1.0 112:1.0 28:3.0 460:1.0 3843:1.0 10:1.0 3844:1.0 98:1.0 2737:1.0 771:1.0 2751:1.0 
-1.0 -1.0 0.11576880224069924 1.0 1.0 1.0 1.0 0.8796800650480939 1.0 1.0 1.0 1.0 0.24621963354702145 0.5204239899784802 0.15766422817766523 0.16746031599946973 0.15694744136120875 1:2.0 30:1.0 14:1.0 28:2.0 31:1.0 32:1.0 33:1.0 34:1.0 35:1.0 36:1.0 37:1.0 38:1.0 39:1.0 
-1.0 -1.0 0.18426099611784333 1.0 1.0 1.0 1.0 1.0 1.0 1.0 1.0 1.0 0.4938189834178642 1.0 0.4740213308230651 0.45705238699038964 0.2461205472372111 143:1.0 144:1.0 145:1.0 86:1.0 88:1.0 24:1.0 146:1.0 81:1.0 147:1.0 148:1.0 
-1.0 -1.0 0.29484857875515913 1.0 1.0 1.0 1.0 1.0 1.0 1.0 1.0 1.0 0.4682910296916559 1.0 0.4080610293417988 0.4505638791424043 0.1851041011478887 160:1.0 81:1.0 161:1.0 162:1.0 163:1.0 164:1.0 166:1.0 10:1.0 167:1.0 168:1.0 
-1.0 -1.0 0.18206056262276882 1.0 1.0 1.0 1.0 1.0 1.0 1.0 1.0 1.0 0.3483086732546534 0.7464253295014893 0.31559473909580765 0.2904791312012699 0.15851159626001612 401:1.0 402:1.0 403:1.0 404:1.0 405:1.0 98:1.0 1:2.0 406:1.0 14:1.0 407:1.0 408:1.0 
-1.0 -1.0 0.44183673892283964 1.0 1.0 1.0 1.0 1.0 1.0 1.0 1.0 1.0 0.7404904815087561 1.0 0.7241118306224578 0.6123767027125095 0.32710718914489245 456:1.0 32:1.0 457:1.0 112:1.0 56:1.0 458:1.0 
-1.0 -1.0 0.25308659729708943 1.0 1.0 1.0 1.0 1.0 1.0 1.0 1.0 1.0 0.5510129924686077 1.0 0.4440410363975877 0.3876232972874905 0.2381820921631292 1:1.0 459:1.0 460:1.0 461:1.0 462:1.0 463:1.0 464:1.0 465:1.0 
-0.273718781638256 -1.0 0.04183624343906299 1.0 1.0 1.0 1.0 0.18505981030432284 1.0 1.0 0.11858925574259292 0.13442708726303657 0.05848802336192804 0.2422643906060946 0.13661370665712513 0.10434899983270243 0.04171165789360174 28:2.0 780:1.0 14:2.0 45:1.0 43:1.0 781:1.0 782:1.0 52:1.0 86:1.0 783:1.0 784:1.0 59:1.0 785:1.0 786:1.0 787:1.0 788:1.0 34:1.0 789:1.0 252:1.0 1:1.0 790:1.0 
-1.0 -1.0 0.24658896270961203 1.0 1.0 1.0 1.0 1.0 1.0 1.0 1.0 1.0 0.7671453364267516 1.0 0.5559589636024123 0.44645122944909477 0.4142215275906278 56:1.0 887:1.0 808:1.0 888:1.0 188:1.0 28:1.0 889:1.0 890:1.0 
-0.5263538130732439 -1.0 0.05056011127630307 1.0 1.0 1.0 1.0 0.3794749250235067 1.0 1.0 0.6490954356791524 1.0 0.13542910165355163 0.21961352606710838 0.05004521050838407 0.0751151712625096 0.08059410462972191 1:3.0 788:1.0 14:1.0 898:1.0 899:3.0 900:1.0 354:1.0 901:1.0 188:1.0 241:1.0 98:1.0 28:1.0 81:1.0 902:1.0 140:1.0 903:1.0 22:1.0 904:1.0 34:1.0 869:1.0 905:1.0 
-0.9267216977424282 -1.0 0.07576593519772862 1.0 1.0 1.0 1.0 0.42301712572177624 1.0 1.0 0.45595858680636525 0.4757139752174513 0.11446899436381124 0.5367581415213916 0.21113269964574527 0.2573624664148848 0.15583808431922666 28:2.0 968:1.0 32:1.0 146:1.0 969:1.0 970:1.0 34:1.0 971:1.0 7:1.0 972:1.0 
-0.5676505865502786 -1.0 0.08872712310781583 1.0 1.0 1.0 1.0 0.40241113929137595 1.0 1.0 0.4560940213662244 0.42752333258914965 0.14038573155302306 0.3084030111626005 0.10120550268826342 0.1196153058839644 0.07552101105787032 43:1.0 1:1.0 1000:1.0 389:3.0 1001:1.0 391:3.0 22:2.0 1002:1.0 1003:1.0 1004:1.0 820:1.0 28:1.0 1005:1.0 61:1.0 1006:1.0 1007:1.0 1008:2.0 1009:1.0 1010:1.0 914:1.0 
-1.0 -1.0 0.09884674388335846 1.0 1.0 1.0 1.0 0.6739898360242523 1.0 1.0 0.7872028806985253 0.750270841831705 0.23285466357324838 0.605549667483361 0.19017750917754384 0.2711382971774382 0.09807716512066642 28:1.0 1136:1.0 232:1.0 192:1.0 34:1.0 1137:1.0 1:2.0 899:1.0 1138:1.0 1139:1.0 98:1.0 1140:1.0 
-1.0 -1.0 0.14208020999693344 1.0 1.0 1.0 1.0 0.6502352431574936 1.0 1.0 0.7538378864178085 0.7074467495181913 0.23168623879855643 0.45859522653939677 0.15694046406303386 0.21962279597815604 0.08532441560140312 301:1.0 1:3.0 887:1.0 1375:1.0 1376:1.0 98:1.0 28:1.0 1377:1.0 1378:1.0 1379:1.0 740:1.0 36:1.0 1380:1.0 1381:1.0 
-1.0 -1.0 0.07606284357901785 1.0 1.0 1.0 1.0 0.4600425184912762 1.0 1.0 0.6641876459467214 0.5272722561709502 0.1991506520734503 0.4060320433320054 0.13036529968816585 0.1508441031410362 0.08986534310855782 56:1.0 47:1.0 1:3.0 1424:1.0 59:1.0 1425:2.0 1426:1.0 98:2.0 28:2.0 1427:1.0 22:1.0 155:1.0 1285:1.0 1428:1.0 1429:1.0 1029:1.0 
-1.0 -1.0 0.15590046114298647 1.0 1.0 1.0 1.0 0.770118086273841 1.0 1.0 1.0 1.0 0.22900714650302628 0.494742823938849 0.174158535633091 0.16743731242514157 0.13385331775087989 1:2.0 565:1.0 1605:1.0 563:1.0 1606:1.0 98:1.0 28:2.0 1607:1.0 22:1.0 1427:1.0 10:1.0 228:1.0 1608:1.0 
-1.0 -1.0 0.2121195463210246 1.0 1.0 1.0 1.0 1.0 1.0 1.0 1.0 1.0 0.5520851077474618 1.0 0.4021798921029407 0.4493056409474759 0.2543176334485276 849:1.0 1704:1.0 14:1.0 1705:1.0 1706:1.0 1707:1.0 1:1.0 1708:1.0 464:1.0 981:1.0 
-1.0 -1.0 0.08652491544728069 1.0 1.0 1.0 1.0 0.5878677437240476 1.0 1.0 0.7858333322424597 0.6099110892871075 0.1553103141328649 0.44559057062464913 0.14955387037081652 0.18111706967234237 0.08044497623882677 188:2.0 1394:2.0 694:1.0 28:2.0 1766:1.0 1767:1.0 1:2.0 817:1.0 1768:1.0 697:1.0 98:1.0 1532:1.0 1421:1.0 454:1.0 1769:1.0 
-1.0 -1.0 0.13680971136993791 1.0 1.0 1.0 1.0 0.7322079663860108 1.0 1.0 1.0 1.0 0.23994415915171585 0.4812984483997196 0.1135505755799042 0.18478299704895224 0.12779217249439614 1:2.0 780:1.0 32:1.0 1880:1.0 81:1.0 506:1.0 1881:1.0 34:1.0 361:1.0 1872:1.0 112:1.0 1527:1.0 1123:1.0 98:1.0 1882:1.0 625:1.0 
-0.5606040219757467 -1.0 0.11138576342764336 1.0 1.0 0.8547601508149202 1.0 0.39447013715132717 1.0 1.0 0.7263265834709329 1.0 0.13468713215963907 0.1925147557647766 2.496971025351541E-4 0.04697198115169328 0.13680890269238102 1:4.0 1903:1.0 1537:1.0 284:1.0 98:1.0 28:2.0 1904:1.0 22:2.0 1451:1.0 1905:1.0 43:1.0 801:1.0 1906:1.0 7:1.0 10:1.0 1907:1.0 1584:1.0 1908:1.0 
-1.0 -1.0 0.522604957618004 1.0 1.0 1.0 1.0 1.0 1.0 1.0 1.0 1.0 0.5413886866698265 1.0 0.4449645087471101 0.5672341597542616 0.22373245589177235 45:1.0 2062:1.0 2063:1.0 43:1.0 1085:1.0 464:1.0 11:1.0 2064:1.0 1605:1.0 
-0.6771378281368204 -1.0 0.10798139135568184 1.0 1.0 1.0 1.0 0.4632361936586543 1.0 1.0 0.5122292642537439 0.4962002838229527 0.1638853627819348 0.33965727535581436 0.11538477266437511 0.17844263333544685 0.04721675408530476 583:1.0 2136:1.0 343:1.0 2137:1.0 28:3.0 1238:1.0 59:1.0 183:1.0 2138:1.0 1460:1.0 98:1.0 2139:1.0 11:1.0 2140:1.0 14:1.0 1:2.0 907:1.0 157:1.0 904:1.0 127:1.0 682:1.0 2141:1.0 89:1.0 10:1.0 2142:1.0 
-0.8298130313833084 -1.0 0.0 1.0 1.0 1.0 1.0 0.28067218690206414 1.0 1.0 0.35917275484496686 0.423604008957548 0.0 0.3869393862672994 0.22561474309459315 0.2144217399046147 0.0 28:2.0 2323:1.0 2324:1.0 2325:1.0 541:1.0 2326:1.0 751:1.0 2327:1.0 188:1.0 1:1.0 2328:1.0 
-1.0 -1.0 0.09969972068606568 1.0 1.0 1.0 1.0 0.8799627068986408 1.0 1.0 1.0 0.8732155076778382 0.2595095184912439 0.751675388572618 0.26980120862797624 0.3017645857604622 0.14014730749445223 28:1.0 1618:1.0 20:1.0 2571:1.0 1:2.0 2572:1.0 34:1.0 1480:1.0 
-0.4393959780242533 -1.0 0.10825649110988651 1.0 1.0 0.5868763744244715 1.0 0.35003690242815066 1.0 1.0 0.7246760068852256 1.0 0.08440298584255507 0.1891769350750675 0.0 0.00864731983906547 0.1251818364810778 1:5.0 1182:1.0 754:1.0 6:1.0 2571:1.0 644:1.0 14:2.0 56:1.0 2600:2.0 34:1.0 51:1.0 464:1.0 772:1.0 1736:1.0 2601:1.0 2602:1.0 
-1.0 -1.0 0.14016946399445282 1.0 1.0 1.0 1.0 0.7170597876705123 1.0 1.0 1.0 1.0 0.24653520113883448 0.49796091017202926 0.15940599300857905 0.17262768535671202 0.12497005170906472 1:2.0 2672:1.0 20:1.0 2673:1.0 2674:1.0 43:1.0 1775:1.0 2282:1.0 10:1.0 2675:1.0 22:1.0 270:1.0 152:1.0 24:1.0 56:1.0 1564:1.0 2676:1.0 
-0.8494837259288804 -1.0 0.14289486690319947 1.0 1.0 1.0 1.0 0.5834792283969308 1.0 1.0 0.9806428031772931 1.0 0.19331672458963828 0.33855875128707946 0.07875456947296565 0.09029120219129794 0.14253556481637006 1:3.0 2733:1.0 303:1.0 900:2.0 2734:1.0 98:1.0 28:1.0 1372:1.0 81:1.0 2021:1.0 2735:1.0 650:1.0 2736:1.0 2737:1.0 19:1.0 1863:1.0 
-1.0 -1.0 0.2570806323969961 1.0 1.0 1.0 1.0 1.0 1.0 1.0 1.0 1.0 0.5276656059985368 1.0 0.2915319038914029 0.32035141209854867 0.3121688030701966 1:2.0 1931:1.0 2777:1.0 2778:1.0 98:1.0 1910:1.0 2174:1.0 
-1.0 -1.0 0.13749916007383303 1.0 1.0 1.0 1.0 0.848733575057252 1.0 1.0 1.0 0.8956201730261872 0.284815407665002 0.6320328050064717 0.2632959374433252 0.2596383714182837 0.1412760259579743 485:1.0 14:2.0 1:2.0 2804:1.0 2805:1.0 1367:1.0 821:1.0 2012:1.0 92:1.0 625:1.0 265:1.0 2806:1.0 
-1.0 -1.0 0.13074595332232958 1.0 1.0 1.0 1.0 0.85740111529226 1.0 1.0 1.0 1.0 0.30261317512126107 0.3885296598334185 0.0 0.0 0.2443575516839214 1:4.0 2813:1.0 2814:1.0 22:1.0 303:1.0 2815:1.0 2816:1.0 1166:1.0 2817:1.0 98:1.0 1401:1.0 
-0.4596584304093992 -1.0 0.08913643174792567 1.0 1.0 0.5583634747606083 1.0 0.35020184867806503 1.0 1.0 0.6769966072853975 1.0 0.13261800529186837 0.13600664895532266 0.0 6.834511783749588E-4 0.1241383139950134 1:5.0 2845:1.0 2846:1.0 2335:2.0 464:2.0 140:1.0 155:1.0 914:1.0 76:1.0 1319:1.0 2326:1.0 2847:1.0 22:1.0 785:1.0 2848:1.0 14:1.0 34:1.0 2849:1.0 820:1.0 
-1.0 -1.0 0.11032226961144583 1.0 1.0 1.0 1.0 0.6756372154961714 1.0 1.0 0.7852740723933112 0.7361550191282015 0.22522277019541087 0.6645237526297787 0.27588816937754224 0.28495538023896344 0.09453383173570165 28:1.0 2866:1.0 2299:1.0 81:1.0 2867:1.0 528:1.0 336:1.0 2868:1.0 414:1.0 72:1.0 1041:1.0 831:1.0 26:1.0 32:1.0 2869:1.0 
-0.718307781474826 -1.0 0.12708160192364942 1.0 1.0 1.0 1.0 0.4541144865516166 1.0 1.0 0.5520866934793085 0.5484600623617034 0.12313332867509828 0.3400182520034535 0.12312158389664846 0.15026618242576936 0.08492788412005502 45:1.0 2439:1.0 544:1.0 1557:1.0 188:1.0 1:2.0 826:1.0 1835:1.0 389:2.0 2870:1.0 391:2.0 98:2.0 1256:1.0 43:1.0 2323:1.0 2871:1.0 2256:1.0 152:1.0 2868:1.0 2872:1.0 
-0.5574436205340929 -1.0 0.07656891036587778 1.0 1.0 1.0 1.0 0.39408515710779324 1.0 1.0 0.6291420606171461 1.0 0.14782900421558645 0.21966076979365448 0.05487999993354952 0.04256334589359961 0.09713833978314435 1:3.0 2893:1.0 1547:3.0 150:1.0 464:1.0 28:2.0 2894:1.0 2895:1.0 1154:1.0 188:1.0 241:1.0 1167:1.0 86:1.0 1604:1.0 81:1.0 10:1.0 2896:1.0 15:1.0 
-0.584370693791766 -1.0 0.06803717129621364 1.0 1.0 1.0 1.0 0.4167227728502722 1.0 1.0 0.6370222383173268 1.0 0.11591410873527651 0.21906670361030312 0.0 0.04447879005882243 0.11981046026027634 1:3.0 30:1.0 461:1.0 3060:1.0 14:2.0 1368:1.0 3061:1.0 353:1.0 10:1.0 668:1.0 3062:1.0 3063:1.0 98:2.0 734:1.0 3064:1.0 3065:1.0 1782:1.0 163:1.0 
-0.5848305220424856 -1.0 0.0667776613861377 1.0 1.0 1.0 1.0 0.4048286184649745 1.0 1.0 0.6371938280921167 1.0 0.16733751266735977 0.21815350910560322 0.08031152597529516 0.08053494307508412 0.08361374981724211 1:3.0 2119:2.0 3142:1.0 2180:1.0 778:1.0 22:2.0 1023:1.0 98:1.0 28:1.0 3143:1.0 694:1.0 7:1.0 24:1.0 595:1.0 92:1.0 3:2.0 763:1.0 921:1.0 840:1.0 
-1.0 -1.0 0.23608825379016826 1.0 1.0 1.0 1.0 1.0 1.0 1.0 1.0 1.0 0.4892020512173083 1.0 0.16677983113096398 0.22890473694051358 0.2794240103950899 1:2.0 2323:1.0 1785:1.0 3164:1.0 98:1.0 28:1.0 2549:1.0 110:1.0 
-1.0 -1.0 0.15052467491156973 1.0 1.0 1.0 1.0 0.8195931667112442 1.0 1.0 1.0 0.9421311060002302 0.2613358033228041 0.6070763353387033 0.2959257282132598 0.2921819220463181 0.11749820580795828 261:1.0 3215:1.0 286:1.0 3216:1.0 98:1.0 3217:1.0 3206:1.0 81:1.0 2206:1.0 22:1.0 3218:1.0 3219:1.0 1619:1.0 1338:1.0 749:1.0 34:1.0 1:1.0 3220:1.0 
-1.0 -1.0 0.12301610115730209 1.0 1.0 1.0 1.0 0.7605697412759769 1.0 1.0 1.0 1.0 0.2525625177207905 0.40907402869264936 0.06955645729453959 0.09433128351319205 0.17917076308460014 1:3.0 3222:1.0 3223:2.0 39:1.0 1911:1.0 34:1.0 2687:1.0 32:1.0 319:1.0 3224:1.0 3225:1.0 
-1.0 -1.0 0.21379984908917365 1.0 1.0 1.0 1.0 0.8899125991445911 1.0 1.0 1.0 0.9156760355299555 0.26264526636246927 0.6614412487129205 0.2629615077157636 0.2784242807633346 0.13347958011922012 3266:1.0 1867:1.0 86:1.0 2471:1.0 1551:1.0 98:1.0 1945:1.0 3267:1.0 22:1.0 64:1.0 3268:1.0 34:1.0 1911:1.0 3:1.0 378:1.0 3269:1.0 311:1.0 
-1.0 -1.0 0.1011441042830032 1.0 1.0 1.0 1.0 1.0 1.0 1.0 1.0 1.0 0.3213046079755376 0.6115171066938855 0.10475599461685137 0.13796540151594705 0.1874539857073922 1:2.0 3278:1.0 1527:1.0 3063:1.0 98:1.0 28:1.0 3279:1.0 3280:1.0 14:1.0 2135:1.0 1872:1.0 
-1.0 -1.0 0.1179238254608498 1.0 1.0 1.0 1.0 0.6686093324255682 1.0 1.0 0.855839252552719 0.7377228979845145 0.21200850313092598 0.5939679566679946 0.20531754232064386 0.3246440336103916 0.10718185792499042 28:1.0 1167:1.0 3386:1.0 1:1.0 982:1.0 3387:1.0 2991:1.0 34:1.0 1399:1.0 188:1.0 1452:1.0 1693:1.0 26:1.0 32:1.0 3388:1.0 
-1.0 -1.0 0.16412903876477508 1.0 1.0 1.0 1.0 0.7915313985754855 1.0 1.0 1.0 0.8482872274171478 0.2785790080502322 0.5770458056601849 0.23516576782452472 0.22505551625871428 0.12267403392723736 3394:1.0 3395:2.0 700:1.0 26:1.0 32:1.0 378:1.0 34:1.0 2334:1.0 28:1.0 1794:1.0 3396:1.0 10:1.0 1:1.0 2589:1.0 7:1.0 3397:1.0 
-1.0 -1.0 0.05761871324403716 1.0 1.0 1.0 1.0 0.7704496725755466 1.0 1.0 0.8035265423574978 0.724605164142013 0.21705346061413108 0.7573181005629857 0.2303462841074438 0.3505385513214866 0.0738940284692425 28:2.0 182:1.0 808:1.0 228:1.0 1965:1.0 188:1.0 2569:1.0 2570:1.0 
-0.7763378396555207 -1.0 0.08137824490921607 1.0 1.0 1.0 1.0 0.5328166716191379 1.0 1.0 0.6113809935920284 0.5242860247825487 0.17111614346521917 0.4005032238287908 0.16389383515224532 0.1475445540070608 0.09051999740168054 3465:1.0 32:1.0 28:1.0 2001:1.0 258:1.0 3466:1.0 389:1.0 612:1.0 10:1.0 1:3.0 361:1.0 3467:1.0 3:1.0 978:1.0 391:1.0 34:2.0 3468:1.0 3469:1.0 917:1.0 
-0.7683738881774766 -1.0 0.0672056616488659 1.0 1.0 1.0 1.0 0.4852974299533854 1.0 1.0 0.5777468588522925 0.5220051362190289 0.1827924837522542 0.3850008092504976 0.15425344291712906 0.15193836960546633 0.07077233559302709 750:1.0 1361:1.0 3488:1.0 1188:1.0 86:1.0 1147:1.0 1:2.0 3489:1.0 98:1.0 28:2.0 541:2.0 14:2.0 3490:1.0 34:1.0 399:1.0 368:1.0 1507:1.0 785:1.0 3491:1.0 740:1.0 
-0.8020827168651015 -1.0 0.13084754298645646 1.0 1.0 1.0 1.0 0.5547999885570559 1.0 1.0 0.61911714977381 0.576395991042452 0.18447915380136184 0.39445033251663897 0.13987543812836495 0.19384195722687264 0.05792747247775597 265:1.0 522:1.0 3639:1.0 2189:1.0 28:1.0 1283:1.0 34:3.0 3573:1.0 1:1.0 304:1.0 1325:1.0 81:2.0 3356:1.0 3106:1.0 794:1.0 2573:1.0 3640:1.0 3641:1.0 
-1.0 -1.0 0.17037470627228976 1.0 1.0 1.0 1.0 1.0 1.0 1.0 1.0 1.0 0.4178749204357753 0.8340554930781803 0.31417764342072285 0.3488120651687232 0.1444654449701345 1:1.0 3681:1.0 3682:1.0 2256:2.0 127:1.0 3683:1.0 98:1.0 1428:1.0 
-0.8539288569290991 -1.0 0.141688236848962 1.0 1.0 1.0 1.0 0.5116736071113261 1.0 1.0 0.6408272451550332 0.6030700300300869 0.16957522802604608 0.394382976286335 0.1735210414402851 0.17952608014738852 0.05917639200789815 1629:1.0 47:1.0 28:1.0 855:1.0 3280:1.0 14:1.0 548:1.0 59:1.0 32:2.0 970:1.0 10:1.0 362:1.0 34:2.0 290:1.0 1166:1.0 1365:1.0 81:1.0 3847:1.0 3090:1.0 
-0.24378618566701626 -1.0 0.06433351598652691 1.0 1.0 1.0 1.0 0.0 1.0 1.0 0.0 0.0 0.024499058658123934 0.3939939101223975 0.20488844830555564 0.28972096162635813 0.18426968195117252 28:3.0 2451:1.0 1147:1.0 3853:1.0 3131:1.0 34:1.0 3854:1.0 
-1.0 -1.0 -1.0 1.0 1.0 1.0 1.0 1.0 1.0 1.0 1.0 1.0 1.0 1.0 1.0 1.0 1.0 1:4.0 45:2.0 46:1.0 47:1.0 48:1.0 14:3.0 49:1.0 50:1.0 51:1.0 52:1.0 53:1.0 54:1.0 36:1.0 55:1.0 
-1.0 -1.0 -1.0 1.0 1.0 1.0 1.0 1.0 1.0 1.0 1.0 1.0 1.0 1.0 1.0 1.0 1.0 1:2.0 115:1.0 116:1.0 117:1.0 10:1.0 56:1.0 118:1.0 119:1.0 34:1.0 120:1.0 14:1.0 121:1.0 122:1.0 43:1.0 123:1.0 124:1.0 61:1.0 125:1.0 126:1.0 
-1.0 -1.0 -1.0 1.0 1.0 1.0 1.0 1.0 1.0 1.0 1.0 1.0 1.0 1.0 1.0 1.0 1.0 43:1.0 1278:1.0 1632:1.0 1633:1.0 59:2.0 1634:1.0 226:1.0 1635:1.0 241:1.0 277:1.0 22:1.0 1636:1.0 1:1.0 1207:1.0 14:1.0 1520:1.0 1637:1.0 7:1.0 1638:1.0 
-1.0 -1.0 -1.0 1.0 1.0 1.0 1.0 1.0 1.0 1.0 1.0 1.0 1.0 1.0 1.0 1.0 1.0 818:1.0 1873:1.0 10:1.0 28:1.0 1874:1.0 344:1.0 157:1.0 1875:1.0 188:2.0 26:1.0 
-1.0 -1.0 -1.0 1.0 1.0 1.0 1.0 1.0 1.0 1.0 1.0 1.0 1.0 1.0 1.0 1.0 1.0 1967:1.0 19:1.0 1:3.0 1905:1.0 14:2.0 1968:1.0 850:1.0 10:1.0 1969:1.0 1588:1.0 1970:1.0 22:1.0 1971:1.0 
-1.0 -1.0 -1.0 1.0 1.0 1.0 1.0 1.0 1.0 1.0 1.0 1.0 1.0 1.0 1.0 1.0 1.0 2284:1.0 14:2.0 315:8.0 2285:1.0 22:2.0 2286:1.0 330:1.0 32:1.0 1:4.0 1059:1.0 2287:1.0 2288:1.0 34:1.0 747:1.0 1484:1.0 2289:1.0 10:1.0 2107:1.0 
-1.0 -1.0 -1.0 1.0 1.0 1.0 1.0 1.0 1.0 1.0 1.0 1.0 1.0 1.0 1.0 1.0 1.0 767:1.0 47:2.0 2473:1.0 3:1.0 188:1.0 14:2.0 1:1.0 120:2.0 2296:1.0 22:1.0 1296:1.0 1813:1.0 2474:1.0 344:1.0 330:1.0 6:1.0 28:1.0 1706:1.0 2271:1.0 59:1.0 2475:1.0 34:1.0 817:1.0 2476:1.0 10:1.0 241:1.0 1328:1.0 
-0.13921994931807566 -1.0 -0.32458007644426234 -0.0 1.0 0.16232744651538047 0.2556119102486699 0.13861928804046347 0.21608658239596612 0.527381402537655 0.3096993974322622 0.5877260565790414 0.04497243135313708 0.09410848389876442 0.0 0.020917706975243307 0.07198126589826674 1:6.0 65:1.0 66:1.0 47:1.0 59:1.0 67:1.0 68:1.0 10:2.0 69:1.0 70:1.0 14:2.0 71:2.0 72:1.0 26:1.0 73:1.0 74:1.0 75:2.0 76:1.0 11:1.0 77:1.0 78:1.0 79:1.0 43:1.0 80:1.0 81:1.0 82:1.0 83:1.0 84:1.0 
-1.0 -1.0 -1.0 -0.23703432039568817 1.0 1.0 1.0 1.0 1.0 1.0 1.0 1.0 0.467629668804161 0.9035147309746445 0.3078826437678924 0.3358275069848434 0.24627688641988024 1:1.0 139:1.0 6:1.0 87:1.0 72:1.0 26:1.0 140:1.0 141:1.0 142:1.0 
-1.0 -1.0 -1.0 -0.2163746050933804 1.0 1.0 1.0 1.0 1.0 1.0 1.0 1.0 0.34764402513350634 0.8044982510702596 0.36058595290652057 0.4935359122490304 0.17222847536588723 330:1.0 226:1.0 331:1.0 332:1.0 22:1.0 333:1.0 43:1.0 334:1.0 10:1.0 1:1.0 335:1.0 
-1.0 -1.0 -1.0 -0.16637610133267927 1.0 1.0 1.0 0.8232474855669973 1.0 1.0 0.938105338122134 0.6857403801027747 0.30514126719661155 0.6531477559287802 0.23822951310402457 0.28369485015924734 0.1628520769246582 450:1.0 286:1.0 72:1.0 26:2.0 451:1.0 452:1.0 453:1.0 454:1.0 28:1.0 259:1.0 455:1.0 
-0.3690466347923438 -1.0 -0.26027119993052616 -0.04438024253051155 1.0 0.45412837748042817 0.959487606579744 0.3173796053964618 1.0 0.5958168302167786 0.25759616325658274 0.2793444421910911 0.06940721305595629 0.2252431731564155 0.058681536980095365 0.06111174561808623 0.07838410115744696 3:1.0 10:2.0 1:3.0 466:1.0 467:1.0 315:2.0 468:1.0 469:1.0 470:1.0 14:1.0 471:1.0 472:1.0 473:1.0 47:1.0 72:1.0 26:1.0 28:1.0 474:2.0 56:1.0 475:1.0 476:1.0 477:1.0 81:1.0 478:1.0 
-1.0 -1.0 -1.0 -0.15537502590737692 1.0 1.0 1.0 0.7052453938187 1.0 1.0 1.0 1.0 0.29619413676125667 0.4816463208731526 0.10729020142614158 0.1823443883606802 0.11170027768002902 1:2.0 497:2.0 43:1.0 498:1.0 499:1.0 500:1.0 47:1.0 28:1.0 501:1.0 502:1.0 
-1.0 -1.0 -1.0 -0.18945864037023524 1.0 1.0 1.0 1.0 1.0 1.0 1.0 0.912965191442616 0.45246173256854244 1.0 0.5127318706478712 0.5772464209535854 0.29491586542662157 28:1.0 515:1.0 516:1.0 517:1.0 43:1.0 11:1.0 518:1.0 497:1.0 519:1.0 520:1.0 
-0.7171531145126058 -1.0 -0.8638791983947777 -0.11316623920117604 1.0 0.8085269228619223 1.0 0.540257350263067 1.0 0.7946144214268841 0.5440404953215777 0.4293790759817465 0.1927541867350403 0.40942107231462016 0.17210383856546202 0.2564520775295702 0.08316493321561699 330:1.0 6:1.0 28:1.0 521:1.0 188:2.0 241:2.0 522:2.0 523:1.0 22:1.0 524:1.0 43:1.0 525:1.0 526:1.0 
-1.0 -1.0 -1.0 -0.20174230803764814 1.0 1.0 1.0 0.8991581575630486 1.0 1.0 1.0 1.0 0.3093146895248713 0.5183536791268474 0.10397887222724313 0.10542676550819664 0.19953082658856908 1:3.0 708:1.0 709:1.0 710:1.0 47:1.0 711:1.0 611:1.0 72:1.0 26:1.0 712:1.0 
-1.0 -1.0 -1.0 -0.2540344252511019 1.0 1.0 1.0 1.0 1.0 1.0 1.0 1.0 0.5059794428974491 0.8312051418365209 0.34011510396992606 0.3117653957105902 0.26228875881782704 1:1.0 727:1.0 103:1.0 728:1.0 19:1.0 72:1.0 26:1.0 729:1.0 730:1.0 
-1.0 -1.0 -1.0 -0.27845274137405135 1.0 1.0 1.0 1.0 1.0 1.0 1.0 1.0 0.39302017005775736 0.7172072267592253 0.0791901148685326 0.12406618127820675 0.2640513445204298 1:3.0 741:1.0 72:1.0 26:1.0 742:1.0 47:1.0 552:1.0 743:1.0 
-0.33702327170670354 -1.0 -0.7542312504659561 -0.036178279357971195 1.0 0.7664727859678868 0.9576705607141005 0.259999441795911 1.0 0.546922294180288 0.10816041704908749 0.16128128657205867 0.033907714251611286 0.39546570733308606 0.1508089244572515 0.13629198271354817 0.11740290684314006 10:3.0 28:2.0 758:1.0 759:1.0 1:3.0 760:1.0 761:1.0 26:1.0 762:1.0 577:1.0 633:1.0 763:1.0 764:1.0 765:1.0 22:1.0 574:1.0 231:1.0 34:1.0 766:1.0 700:1.0 294:1.0 295:1.0 422:1.0 47:1.0 680:1.0 767:1.0 351:1.0 768:1.0 769:1.0 770:1.0 
-0.9029592891101464 -1.0 -0.9430653915432884 -0.1143823904521745 1.0 1.0 1.0 0.597498388478802 1.0 1.0 0.6616525527262521 0.5276154003921982 0.25812645408352775 0.48522204749581693 0.21704503196697678 0.20701077906836626 0.09112597122297822 771:1.0 22:1.0 727:1.0 72:1.0 772:1.0 34:1.0 773:1.0 14:1.0 774:1.0 775:1.0 112:1.0 776:1.0 777:1.0 36:1.0 28:1.0 730:1.0 778:1.0 779:1.0 294:1.0 
-0.5762047516849849 -1.0 -0.731522398271749 -0.09846237471054407 1.0 0.7736934322733295 1.0 0.45717851901119017 1.0 0.7855525523094657 0.5458393404534266 0.3995886645561781 0.15096815409824474 0.3914744867822834 0.15899797213733227 0.15659488564160384 0.0756769460939993 830:1.0 66:1.0 14:1.0 1:3.0 831:1.0 72:1.0 26:1.0 832:1.0 833:1.0 834:1.0 22:1.0 835:1.0 836:1.0 
-0.16810247320458432 -1.0 -0.18861195545960854 -0.031721105522110736 1.0 0.2253578604061003 0.4495261935359687 0.15790838316747663 1.0 0.2102918442674322 0.17005847658799575 0.13127475909366074 0.05224580497971137 0.13319126745288523 0.04264917755646247 0.04653790433732009 0.029615883872932153 837:1.0 838:1.0 59:3.0 1:6.0 839:1.0 840:2.0 841:1.0 34:2.0 842:1.0 843:1.0 14:1.0 844:1.0 845:1.0 846:1.0 847:1.0 284:1.0 22:2.0 848:1.0 849:1.0 850:2.0 134:1.0 326:1.0 851:1.0 112:1.0 741:1.0 72:1.0 26:1.0 852:1.0 853:1.0 
-0.18288471011271543 -1.0 -0.4234564438914548 -0.0 1.0 0.20965821858413547 0.34293429819023236 0.21436704365012635 0.25217199424291215 0.6644834512389899 0.33887876772334813 0.7112562865187415 0.03859755047143755 0.06082624009278314 0.0 0.0 0.04983985248238304 1:6.0 906:1.0 383:1.0 237:1.0 847:1.0 28:1.0 907:1.0 14:1.0 210:1.0 908:1.0 909:1.0 10:1.0 910:1.0 112:1.0 53:1.0 911:1.0 912:1.0 59:1.0 294:1.0 51:1.0 226:1.0 913:1.0 32:1.0 650:1.0 672:1.0 34:1.0 914:1.0 915:1.0 761:1.0 26:1.0 916:1.0 917:1.0 918:1.0 919:1.0 
-0.23460730137404318 -1.0 -0.2655994441359095 -0.038218253926949074 1.0 0.30197312642095553 0.6281675115385691 0.20235019267102713 1.0 0.29170063096523224 0.19516437608842604 0.18351194009569596 0.07658934622441654 0.18445013487145018 0.06034659478679277 0.07531743869866393 0.03807303206925433 927:1.0 157:1.0 928:1.0 921:1.0 1:4.0 929:1.0 22:3.0 68:1.0 72:2.0 26:1.0 75:1.0 653:1.0 318:1.0 930:1.0 7:1.0 337:1.0 34:1.0 315:2.0 931:1.0 932:2.0 644:1.0 103:1.0 43:1.0 933:1.0 528:1.0 801:1.0 61:1.0 194:1.0 934:1.0 411:1.0 
-0.19503171331377347 -1.0 -0.20790620444872668 -0.033716866347187346 1.0 0.23876458308714782 0.5031835109754677 0.15283628248863695 1.0 0.2336682287222543 0.16496910352922428 0.13552823469421904 0.056356573769666414 0.14548164373097627 0.06009037778501328 0.05077804035879538 0.02751431515904497 935:2.0 286:1.0 808:1.0 936:1.0 1:5.0 937:2.0 47:2.0 63:1.0 26:2.0 938:1.0 14:2.0 939:1.0 422:2.0 940:2.0 801:1.0 941:1.0 3:1.0 28:1.0 826:1.0 942:1.0 943:1.0 944:1.0 454:1.0 157:1.0 945:1.0 946:1.0 188:1.0 11:1.0 59:1.0 947:1.0 319:1.0 948:1.0 
-0.38106002718993937 -1.0 -0.4493497821118262 -0.07252589799981919 1.0 0.4807836330729836 1.0 0.28973643837897295 1.0 0.4889267492077963 0.3326218677489603 0.2651589124006391 0.12712027250383978 0.2652030940178799 0.08931590865769656 0.09856058586939027 0.051815147499415425 961:1.0 962:1.0 363:1.0 1:3.0 867:2.0 72:2.0 26:3.0 963:1.0 964:1.0 36:1.0 965:1.0 206:1.0 560:1.0 966:1.0 47:1.0 967:1.0 
-0.19313640407334323 -1.0 -0.34021022318246996 -0.02564989718472873 1.0 0.25409743258067835 0.37841965986032383 0.15544847465113293 1.0 0.5153663055272155 0.29297672195512414 0.5256379481804334 0.058971541045220954 0.06298811072524921 0.0 0.0 0.07241064224291821 1:5.0 973:1.0 974:2.0 796:1.0 10:1.0 324:1.0 389:1.0 975:1.0 976:1.0 977:1.0 978:1.0 172:1.0 979:1.0 391:1.0 980:1.0 22:3.0 981:1.0 763:1.0 14:2.0 834:1.0 286:1.0 72:1.0 26:1.0 982:1.0 983:1.0 454:1.0 984:1.0 985:1.0 
-0.6310725294558452 -1.0 -0.8790204450787861 -0.14263216490253539 1.0 0.6749207837849606 1.0 0.4636975727110011 1.0 1.0 0.6015075945674588 0.912206067900001 0.16654031379384573 0.23921087724966902 0.07093640645482917 0.1027204049985002 0.09158956308631967 1:3.0 1275:1.0 43:2.0 1276:1.0 19:1.0 559:1.0 1277:1.0 1278:1.0 241:1.0 1279:1.0 422:1.0 1181:1.0 1280:1.0 1281:1.0 10:1.0 1282:1.0 740:1.0 
-0.5539232319630827 -1.0 -0.7549521144523527 -0.07536330333996726 1.0 0.6068540429558007 1.0 0.38474840133954913 1.0 1.0 0.49053454077738334 0.637669945110559 0.1482620617605931 0.27159115597830785 0.09670626033961753 0.0765202993074107 0.06540580433430332 1:2.0 1391:1.0 1392:1.0 6:2.0 87:1.0 72:1.0 26:1.0 1393:1.0 14:1.0 583:1.0 347:1.0 1394:1.0 232:1.0 10:1.0 1395:1.0 1396:1.0 1397:1.0 226:1.0 1398:1.0 1399:1.0 1400:1.0 
-0.8318975267954156 -1.0 -1.0 -0.12104942791554481 1.0 0.9831404564098142 1.0 0.6035568949551879 1.0 1.0 0.7811024397748203 1.0 0.22497105145542892 0.44144205616682963 0.14516709061279134 0.22456749237493753 0.10085935602475134 1:2.0 1253:1.0 226:1.0 559:1.0 317:1.0 24:1.0 1415:1.0 1231:1.0 443:1.0 1416:1.0 14:1.0 1408:1.0 28:1.0 1417:1.0 692:1.0 1058:1.0 
-0.39225187859057903 -1.0 -0.4243029747491893 -0.06746772291740331 1.0 0.4927434646458148 1.0 0.2845344525583434 1.0 0.4596836371386305 0.3337183836472625 0.25918988702559337 0.1364481445765181 0.2668254128213384 0.11196235807039392 0.13302437888059088 0.05343175324783734 224:1.0 1467:1.0 1:3.0 1468:1.0 72:1.0 26:1.0 28:2.0 1469:1.0 1470:1.0 188:1.0 1471:1.0 14:1.0 1472:1.0 10:1.0 855:1.0 81:1.0 811:1.0 529:1.0 22:1.0 1473:1.0 1474:1.0 51:1.0 226:1.0 1475:1.0 34:1.0 544:1.0 
-0.35732122248593606 -1.0 -0.5931521093517454 -0.060635252897142625 1.0 0.38709624364202183 0.8304243137213041 0.27074283409713795 1.0 0.8728405142087935 0.4575678345196762 0.7766797957729515 0.08752148489155252 0.15966031640808795 0.0 0.0 0.12157713992536046 1:4.0 671:1.0 1519:1.0 1520:1.0 389:1.0 232:1.0 391:1.0 351:1.0 59:2.0 497:1.0 439:1.0 43:1.0 1521:1.0 410:1.0 19:1.0 1522:1.0 1303:1.0 14:1.0 1523:1.0 22:1.0 1524:1.0 
-0.2630472287134111 -1.0 -0.31479623966606785 -0.05173489986270931 1.0 0.3818387128058079 0.8301854881413594 0.2133729989772465 1.0 0.3550810228124486 0.2565008541087953 0.20064013898683397 0.08242537926071208 0.18977478241868745 0.08047236400986608 0.07906676211989856 0.04919688414356653 237:1.0 10:1.0 1:5.0 566:1.0 14:2.0 1592:1.0 72:1.0 26:1.0 1593:1.0 133:1.0 1594:1.0 1595:1.0 19:1.0 28:1.0 907:1.0 112:1.0 1062:1.0 22:1.0 1520:1.0 34:1.0 1596:1.0 127:1.0 836:1.0 243:1.0 616:1.0 1597:1.0 
-0.6205808639255734 -1.0 -1.0 -0.10303481071982397 1.0 0.7426845525038919 1.0 0.4509449767065625 1.0 1.0 0.6830786374080137 1.0 0.22814315531864016 0.2573031637442352 0.0 0.0635285724250656 0.11179544019239807 1:3.0 218:1.0 1625:1.0 14:1.0 1626:1.0 1627:1.0 22:1.0 1628:1.0 1629:1.0 286:1.0 1108:1.0 34:1.0 1630:1.0 72:1.0 26:1.0 1517:1.0 1631:1.0 
-0.24195383135212392 -1.0 -0.27419488699608696 -0.04903921126357759 1.0 0.3087055079383245 0.6510039189862852 0.18169044058393458 1.0 0.2943876646060307 0.21373109297702708 0.18989701179841936 0.0804174778216675 0.18321415868702534 0.0692653706004921 0.07268696678093875 0.0377476506312894 1670:1.0 14:3.0 1:5.0 1671:1.0 286:1.0 72:1.0 26:3.0 1655:1.0 1672:1.0 1673:2.0 1674:1.0 1675:1.0 454:1.0 1676:1.0 1677:1.0 1514:1.0 1678:1.0 
-0.5071592314341473 -1.0 -0.6188040056812815 -0.06657458759610382 1.0 0.6702985409476705 1.0 0.39083116402913326 1.0 0.6455741640960504 0.48008153708161366 0.3932289542696041 0.1556566736262413 0.3635238755094302 0.13468028568507867 0.1368405011883112 0.07717927139920873 1726:1.0 1727:1.0 286:1.0 72:1.0 26:1.0 28:1.0 1728:1.0 59:1.0 75:1.0 1:3.0 1729:1.0 1730:1.0 14:2.0 259:1.0 188:1.0 308:1.0 591:1.0 
-0.48361716392978943 -1.0 -0.5426419210773314 -0.0656755983879598 1.0 0.5958667200759264 1.0 0.3452418687731519 1.0 0.5686585079308584 0.3926295458424053 0.26137181069382703 0.14360735618802425 0.29486201198719453 0.13443785167597394 0.15500458694832428 0.0873756149074045 1630:2.0 439:1.0 26:1.0 1989:1.0 1356:1.0 92:1.0 1990:1.0 28:2.0 1991:1.0 1085:1.0 1272:1.0 14:1.0 1992:1.0 59:1.0 406:1.0 34:1.0 1993:1.0 1994:1.0 22:1.0 1995:1.0 43:1.0 1996:1.0 398:1.0 
-0.5622613451561526 -1.0 -0.6603006504719195 -0.09929970452773683 1.0 0.6784769860696174 1.0 0.40868225686512694 1.0 0.687350754069838 0.492537018954441 0.37186676340597363 0.16284537815133032 0.37167587749908204 0.13108592882648953 0.17135586126378274 0.08549007664112665 2056:1.0 43:1.0 1498:2.0 22:2.0 2057:1.0 142:1.0 2058:1.0 947:1.0 840:1.0 2059:1.0 188:1.0 28:2.0 1177:1.0 2024:1.0 2060:1.0 14:1.0 1:1.0 2061:1.0 
-0.4577920099842433 -1.0 -0.5506502178881738 -0.06192531683302545 1.0 0.5949985608498438 1.0 0.364516718020704 1.0 0.6025597255921755 0.41200908937703673 0.3588659821883067 0.12679451870844194 0.3117903953301462 0.12090958259048523 0.12015913973709368 0.0756608064805901 2199:1.0 258:1.0 2200:3.0 43:3.0 2201:1.0 2202:1.0 2203:1.0 2204:1.0 261:1.0 2205:1.0 10:1.0 506:1.0 1:1.0 2206:1.0 1870:1.0 
-0.3414909116000775 -1.0 -0.4925676718976546 -0.07108800384222878 1.0 0.4745446306803706 0.8853252216974359 0.27048561438165314 1.0 0.6564796523084815 0.3820997881017779 0.5215821410093254 0.09864636856464577 0.17083031250885344 0.03223845510123232 0.05158381141045226 0.05394964040986513 1:3.0 1021:1.0 2253:1.0 454:1.0 1303:2.0 2254:1.0 47:1.0 2255:1.0 34:1.0 2256:1.0 14:3.0 2257:1.0 2258:1.0 480:1.0 2259:1.0 43:1.0 28:1.0 417:1.0 
-0.21095593283158928 -1.0 -0.49845070774250744 -0.0 1.0 0.21802846139225887 0.3535875975580657 0.1932488959095205 0.21823181529339253 0.7470245784012686 0.3936965210816604 0.8202050804475224 0.051872144562752534 0.06124956753824806 0.0 0.0 0.06534561038989459 1:6.0 77:1.0 14:3.0 2254:2.0 2306:1.0 2307:1.0 34:1.0 912:1.0 146:1.0 81:1.0 1654:1.0 2308:1.0 1767:1.0 2309:1.0 1338:1.0 43:1.0 2310:1.0 
-1.0 -1.0 -1.0 -0.15555043988661404 1.0 1.0 1.0 0.6578049493153707 1.0 1.0 0.7888467742974783 0.738628189306173 0.30757373107892017 0.5873248211308273 0.28374651502997805 0.24922963874950896 0.11859513763285477 298:1.0 2311:1.0 28:1.0 1666:1.0 2312:1.0 46:1.0 98:1.0 1:2.0 2313:1.0 72:1.0 26:1.0 2314:1.0 
-0.7004536383274931 -1.0 -0.9606852746673797 -0.11853935898840119 1.0 0.8546986681115281 1.0 0.5193913779578844 1.0 1.0 0.660893719814713 0.7914170939890384 0.16484241641506156 0.34518657746934694 0.17298782033448626 0.13944853183874364 0.09848057892623127 1:2.0 1368:1.0 1517:1.0 14:2.0 1519:1.0 1837:1.0 186:2.0 1282:1.0 22:1.0 2320:1.0 47:1.0 2321:1.0 
-1.0 -1.0 -1.0 -0.20228843654950274 1.0 1.0 1.0 0.8678942574440919 1.0 1.0 1.0 1.0 0.3438757983435439 0.6562736853361844 0.26668118668335505 0.2660279222849067 0.15727187378657015 1:1.0 2322:1.0 286:1.0 72:1.0 26:1.0 85:1.0 2224:1.0 562:1.0 1319:1.0 14:1.0 127:1.0 1849:1.0 
