svm_type c_svc
kernel_type rbf
gamma 7.367567965814484E-5
nr_class 19
total_sv 7200
rho -0.7625485364361753 -0.7681672360901552 -0.46877919986964 -0.42259321156877805 -0.6417630070473871 -0.6309426775460235 1.1090833903343242 -0.7890058070512058 -0.6668643921406445 -0.7341282151925326 -0.28792662927278767 -0.9660060523181082 -0.7614371979977649 -0.9410620779960766 -0.9363735052858774 -0.9059676652302362 -0.8940553059226326 -0.9991101916823218 0.9536031858040698 1.0076974388898314 0.9454424605085539 0.9883631726031249 0.9265249022086027 0.8579326162845227 0.8508775104328191 0.8750615809899983 -0.916614231584159 1.0435224678657855 -1.0150598610222394 0.922037805191173 -0.9685713217967145 -0.9535342829509716 -0.9606167568953448 -0.9425811370557724 -0.9997651235430414 1.0398059594310487 0.9670076361303813 1.02239845753738 0.9561906098185055 0.8611905024419833 0.8643076447507296 0.8891797816232231 -0.91467412525884 1.0552031240095254 -1.010796966658607 0.9414761195071416 -0.9634479842417151 -0.9517308951699949 -0.9596695755364804 -0.9411834599588816 -0.9992641137294948 0.8019796221540234 -0.9879403594961824 -1.056098461151123 0.6877293525816033 -1.204339022892258 0.6875540195724977 -0.9787588744864039 0.8658257146997332 -1.0398853547374898 -1.1048761546486838 -0.9951746429445882 -0.9791333036746074 -1.0023714259421785 -0.979233857129246 -1.0004779442380942 -0.8883064609635569 -0.9388591100185724 0.6509792501149706 -1.0998947453538852 -1.0707675947360884 -0.9247030022949573 -0.7033841683381284 -1.0387075022456478 -0.9947864946554171 -0.992002442318555 -0.9759921411260489 -0.9915353574880037 -0.974466063591388 -0.9999834700786423 0.8729222844723545 0.7787843784783413 0.769115899652081 0.7931703941095544 -0.9470884461171516 0.9771658542138734 -1.034125553435745 -1.0853553890777041 -0.9829503993227275 -0.9673054176894232 -0.9870425358398726 -0.9696895441469687 -1.000194934843781 0.7849657467042287 -1.1228307485580444 0.834213346234501 -0.8896090613512997 1.0407582079270397 -1.0175806834741148 -0.9959611284017006 -0.9779038401638978 -0.962867542162487 -0.9730298936840345 -0.9491659875156224 -1.000099432903306 -0.9712769389186994 -0.8832464309661457 -0.8739347472683193 -0.5774980955343327 -1.0025834066681587 -0.9188289573593499 -0.9928292241959356 -0.9752542704312313 -0.9746308523497955 -0.9644847271466288 -1.000523296011588 1.0023375417483955 -0.8192922767564493 1.2150981959431721 -0.9961640615951673 -0.8883903036634371 -0.9541666883448128 -0.9449436380876209 -0.9357271638974064 -0.9223487069914049 -0.9993130539591202 -0.8500822792583512 1.241109131660387 -1.008787970788048 -0.9113004116856919 -0.969942622867828 -0.9604765120116017 -0.9563419764137292 -0.9408666632355357 -0.9999378251768639 0.9853194433236032 -1.0441590315963765 0.8683584388510981 -0.9837215558341237 -0.966648375872828 -0.9869842887809995 -0.9700697428877895 -0.9995095593345771 -1.063066226848368 -1.0983334886422371 -0.9996890887155123 -0.9838842047915481 -1.0183212776683979 -1.0021156850360904 -1.0008930042838937 0.9934945950383176 -0.937668752761985 -0.9266951416378348 1.0354788924668985 1.06056603566165 -0.9994093720840412 -0.9639981137096535 -0.9523776239973318 -0.9513419330254117 -0.9376533564384725 -0.9998406029662469 -0.9549074106917692 0.9617812315548968 0.9786282284297297 -0.9996475082072552 0.9427660560267221 0.953814671340855 -0.9994900591808881 -0.9642181968558863 -0.9992352668211699 -0.9994190154170125
label 11 1 7 13 2 6 14 19 17 9 5 16 18 4 3 15 8 10 12
nr_sv 744 305 326 430 590 361 429 1287 427 515 296 546 131 358 90 71 155 138 1
SV
0.5327582159732055 0.4343665754706233 0.4694707160579401 1.0 0.44004317656386027 0.4236756612677408 1.0 0.5082058633303121 0.4947101362630222 0.40938118987488326 1.0 0.29769492023469546 0.36437976968502445 0.2735708503544304 0.20765547410677015 0.2714555635240555 0.3997241153084972 0.0 3281:1.0 354:1.0 594:2.0 3862:1.0 1767:1.0 3863:1.0 1828:1.0 3776:1.0 24:1.0 1855:1.0 
0.5641526876420574 0.0 1.0 1.0 0.4394156013299223 0.45646260582398157 1.0 0.47660246496337155 1.0 0.0 0.9432538900162531 0.0 0.3905440353913143 0.0 0.0 0.0 0.0 0.0 1:1.0 2922:1.0 1897:1.0 88:1.0 24:1.0 28:1.0 3219:1.0 2754:1.0 
0.34936606895922995 0.1730616922515791 0.3657251274488841 0.5763987575578642 0.29631311625566403 0.4074445596735523 1.0 0.3407406490489098 0.5316580514283862 0.31698110668734075 0.8518105066673219 0.11115337405386799 0.41262160306061424 0.1510931399192246 0.2089774295353021 0.1261493813544949 0.27221119090086837 0.0 375:1.0 1868:1.0 86:1.0 3889:1.0 1:3.0 672:1.0 24:1.0 682:1.0 1156:1.0 1386:1.0 671:1.0 
0.0 0.0 1.0 1.0 0.703686883744336 0.0 1.0 0.0 1.0 0.0 0.29307156622712055 0.0 0.0 0.0 0.0 0.0 0.0 0.0 1:1.0 88:1.0 1372:1.0 1300:1.0 1167:1.0 3663:1.0 34:1.0 528:1.0 53:1.0 529:1.0 
0.0 0.5600694795181325 0.400746056917635 0.46915514076652964 0.3312264796408532 1.0 1.0 1.0 1.0 1.0 1.0 0.4100436071373316 0.31113264182406086 0.3819387104366678 0.27877777760286315 0.0 0.5856504220266836 0.0 56:1.0 329:1.0 298:1.0 2127:1.0 3894:1.0 2979:1.0 700:1.0 34:1.0 1:1.0 3144:1.0 2076:1.0 
0.26365208815884444 0.15600131366406145 0.4381600693541624 0.48957166431268284 0.25635621419242244 0.2892821085457222 1.0 0.3526014027294294 0.39852448769387105 0.23110136611285748 0.7487699494486986 0.16874774737195802 0.3454337762535863 0.14839552745590445 0.1566678478676648 0.1680838910540016 0.1387955032229803 0.0 1199:1.0 594:1.0 3905:1.0 26:1.0 11:1.0 3237:1.0 2654:1.0 1328:1.0 22:1.0 2486:2.0 10:2.0 28:2.0 621:1.0 422:1.0 19:1.0 1015:1.0 
0.14356870591988452 0.0 0.5411726187659389 0.4321861777021268 0.2085034317796311 0.4477300049618952 1.0 0.20610361500319824 0.25909214061475866 0.20158628094664074 0.3957398683937196 0.0 0.15270831214046943 0.0 0.0 0.0 0.3201683580920817 0.0 224:1.0 102:1.0 1:2.0 2343:1.0 10:1.0 28:1.0 1911:1.0 991:1.0 22:1.0 1716:1.0 7:1.0 549:1.0 3930:1.0 
0.3233263333997297 0.5277966449710779 1.0 1.0 0.5919555720459521 0.5022926202596611 1.0 0.3940891327608822 1.0 0.3222537188265381 0.6807222821521428 0.0 0.43782459812242663 0.0 0.0 0.0 0.18117502464344945 0.0 1:1.0 1150:1.0 19:1.0 102:1.0 103:1.0 28:2.0 3429:1.0 22:1.0 354:1.0 24:1.0 2179:1.0 3599:1.0 
0.7314951640897918 1.0 1.0 1.0 1.0 1.0 1.0 1.0 1.0 0.5408110340067167 0.5657382408047384 0.25060433685339156 0.7033915242302756 0.0 0.0 0.284031132149727 0.33549363562917356 0.0 1:2.0 1066:1.0 3978:1.0 19:1.0 1716:1.0 188:1.0 34:1.0 3979:1.0 3980:1.0 
0.20764381677247173 0.3004358433861006 1.0 1.0 0.3941303435483373 0.5520014685130651 1.0 0.2693492125833853 1.0 0.19362855024622935 0.3720606993195572 0.1501612201863356 0.22565835531547482 0.1007278945139807 0.14119762665577312 0.1583246107266877 0.15362068689483482 0.0 1:3.0 504:2.0 1368:1.0 2391:1.0 43:1.0 3498:1.0 34:4.0 11:1.0 1644:1.0 14:1.0 28:2.0 825:2.0 680:1.0 157:1.0 286:1.0 3925:1.0 2132:1.0 1335:1.0 2318:1.0 22:1.0 2509:1.0 
0.0 0.0 1.0 1.0 0.0 0.32151788968663647 1.0 0.0 0.8611001067409556 0.0 0.0 0.37092253322615354 0.4872634537148833 0.0 0.0 0.0 0.0 0.0 1:1.0 849:1.0 6:1.0 694:1.0 2250:1.0 24:1.0 2864:1.0 1118:1.0 
0.17960522056976613 0.28815203802357364 0.0 0.29765424346068303 0.4328086920741008 0.0 1.0 0.6132457082737575 0.0 0.2875980184894453 0.4919768995491969 0.29078017290623476 0.48502592108267767 0.0 0.0 0.0 0.259474225098236 0.0 59:1.0 92:1.0 19:1.0 1032:1.0 103:1.0 28:1.0 2817:1.0 847:1.0 26:1.0 3999:1.0 1855:1.0 4000:1.0 529:1.0 
1.0 0.7476579673115429 1.0 1.0 1.0 0.0 1.0 1.0 1.0 0.7144573422982535 1.0 0.0 0.3595931056564534 0.0 0.0 0.0 0.0 0.0 10:1.0 1:2.0 143:1.0 330:1.0 1906:1.0 1315:1.0 24:1.0 4042:1.0 
0.0 0.1643759557470718 0.0 0.27167781126717716 0.21566467210634158 0.0 1.0 0.0 0.0 0.0 0.0 0.0 0.0 0.0 0.0 0.1107601803915168 0.0 0.0 298:1.0 1032:1.0 1:1.0 1879:1.0 24:1.0 28:1.0 749:1.0 81:1.0 3177:1.0 4084:1.0 258:1.0 4085:1.0 983:2.0 3247:1.0 4086:1.0 
0.2206376231012354 1.0 0.7816625695994617 1.0 0.5584244007522656 0.628355856895953 1.0 1.0 0.7163545109124102 0.6997911742068657 1.0 0.24383632304275063 1.0 0.1448066926366369 0.17336888930937616 0.25595942238126856 0.27113784649974115 0.0 7:1.0 19:1.0 28:1.0 553:1.0 3799:1.0 4104:1.0 10:1.0 1:3.0 4105:1.0 4106:1.0 1736:1.0 674:1.0 3610:1.0 594:1.0 439:1.0 24:1.0 1851:1.0 
0.5169546597761221 0.5216027179070625 1.0 1.0 0.5490635387943027 1.0 1.0 1.0 1.0 0.4755393229085152 1.0 0.0 1.0 0.0 0.0 0.0 0.0 0.0 1:1.0 4107:1.0 1785:1.0 4108:1.0 24:1.0 28:1.0 3429:1.0 
0.4763305756791635 1.0 1.0 1.0 1.0 1.0 1.0 1.0 1.0 0.5121657874186331 0.5157800223649303 0.31836718702619704 0.7303513407434026 0.0 0.0 0.3238323972492168 0.3722086180174065 0.0 1:2.0 2513:1.0 411:1.0 86:1.0 4117:1.0 87:1.0 88:1.0 24:1.0 1511:1.0 
0.3957004574282015 0.6224087173348689 0.7228350690312089 1.0 0.5776675014421784 1.0 1.0 1.0 1.0 1.0 1.0 0.6074826003455117 0.6121843842004495 0.4054988602763536 0.3705680218220254 0.2237529513482467 0.4127580805356651 0.0 56:1.0 1709:1.0 370:1.0 1331:1.0 34:1.0 1:2.0 2675:1.0 26:1.0 2787:1.0 3964:1.0 
0.548474431906842 0.25729868459750344 0.0 1.0 0.4798126570857635 0.5253961362593941 1.0 1.0 1.0 0.6188006075159418 1.0 0.3289095845376803 0.5136213876619226 0.0 0.0 0.0 0.2873172486084574 0.0 4118:1.0 6:1.0 87:1.0 1591:1.0 24:1.0 1:1.0 755:1.0 
0.5008167417349583 0.21438473094208044 0.0 1.0 0.37259598768994995 0.41770619290423133 1.0 0.49183617169282545 0.4271322195786961 0.3628339418994077 1.0 0.0 0.32076302250024347 0.0 0.1783631251805264 0.0 0.0 0.0 1942:1.0 1756:1.0 10:1.0 340:1.0 86:1.0 87:1.0 1591:1.0 34:1.0 713:1.0 126:1.0 856:1.0 
0.34992511381718727 1.0 0.27448824370252234 0.5589118205680004 0.15112678777752997 0.4448375877685933 1.0 0.25684769220069625 0.19480972961060483 0.4320065671261236 0.6890429875797516 0.28055471760336853 0.13653819542859716 0.0 0.3071294593325491 0.19388353889335597 0.0 0.0 113:1.0 1380:1.0 14:2.0 1:1.0 1804:1.0 19:1.0 2149:1.0 10:1.0 28:1.0 1451:1.0 110:1.0 4199:1.0 98:1.0 4200:1.0 3554:1.0 278:1.0 64:1.0 22:1.0 4105:1.0 
0.5182866335645643 1.0 0.45222799698312244 1.0 0.3309335836196326 0.6644713915834739 1.0 0.7153424084126658 1.0 0.0 1.0 0.0 0.35308767917119865 0.0 0.0 0.3106969773045041 0.0 0.0 583:1.0 2274:1.0 1393:1.0 36:1.0 1:1.0 2058:1.0 922:1.0 
0.3747123128038715 0.17258995994500204 0.26720542512411205 0.4681568168784477 0.2886064936974818 0.2881661949114447 1.0 0.23712111103881806 0.3779049067143059 0.23345096834673046 0.6540332318163424 0.11662349042916412 0.19449279299867084 0.1753886397278013 0.16748190118136866 0.18952067932205197 0.15697142186656218 0.0 4261:1.0 4262:1.0 47:1.0 269:1.0 43:1.0 4263:1.0 2899:1.0 4264:1.0 695:1.0 4265:1.0 1032:1.0 24:1.0 28:2.0 1014:1.0 22:1.0 1814:1.0 1047:1.0 635:1.0 4218:1.0 3158:1.0 
0.623145767791964 1.0 1.0 1.0 1.0 1.0 1.0 1.0 1.0 0.5534663621024296 0.4621840871583901 0.0 1.0 0.0 0.0 0.0 0.0 0.0 1:2.0 4275:1.0 4276:1.0 334:1.0 24:1.0 4277:1.0 
0.4528347146112405 1.0 0.7324564915489973 1.0 0.5631222200265422 1.0 1.0 1.0 1.0 0.6930290694709704 1.0 0.30039880477982606 1.0 0.30322061801366 0.0 0.5602704142274415 0.18327481352346003 0.0 28:1.0 325:1.0 1018:1.0 2863:1.0 796:1.0 6:1.0 87:1.0 1591:1.0 34:1.0 1:1.0 2092:1.0 
0.229337860419122 0.0 0.0 0.6135500009547633 0.0 0.0 1.0 0.19989351742291148 0.0 0.2250451631907684 0.8316192385105292 0.10994956894417823 0.0 0.0 0.26525096602215686 0.0 0.22322367197938137 0.0 702:1.0 30:1.0 86:2.0 883:1.0 3726:1.0 24:1.0 1511:1.0 59:1.0 87:1.0 1108:1.0 34:1.0 1120:1.0 497:1.0 4316:1.0 
0.48932548549256377 0.5858955566930284 1.0 1.0 0.5896951192104307 0.7487365794459947 1.0 0.6776808473854858 1.0 0.46242692986742945 1.0 0.0 0.5489367762599052 0.0 0.0 0.0 0.2263501793802189 0.0 1:1.0 4317:1.0 4318:1.0 2043:1.0 6:1.0 3726:1.0 417:1.0 24:1.0 234:1.0 4319:1.0 
0.6108632357500867 0.37187062393656756 0.22655957979385818 1.0 0.5119912711828383 0.5700762221239918 1.0 0.681872564429506 0.7373276618121705 0.5906453393478582 1.0 0.31295251006025526 0.5963296987109242 0.0 0.17034750245187505 0.27997650584898204 0.3817960995893373 0.0 4336:1.0 86:1.0 1749:1.0 694:1.0 188:1.0 2250:1.0 24:1.0 1:1.0 4049:1.0 
0.0 0.5692522404930143 0.0 0.0 0.23001643556015985 0.0 1.0 0.0 0.0 0.5196814332807571 0.26854264835892183 0.0 0.0 0.0 0.0 0.0 0.0 0.0 298:1.0 739:1.0 1:2.0 2400:1.0 3663:1.0 24:1.0 97:1.0 621:1.0 
0.3981203013832257 0.7856152690579196 0.5551920403003184 1.0 0.0 1.0 1.0 0.0 0.0 0.0 0.3109570124202484 0.0 0.0 0.0 0.20420367763220842 0.40635285216660505 0.0 0.0 583:2.0 197:1.0 2087:1.0 86:1.0 88:1.0 24:1.0 3966:1.0 988:1.0 3808:1.0 
0.6024551662522483 0.2160708895916632 0.0 0.0 0.0 0.0 1.0 0.0 0.48738020144950134 0.0 0.5276572225505749 0.0 0.0 0.0 0.0 1.0 0.0 0.0 97:1.0 140:2.0 601:1.0 1230:1.0 1850:1.0 1255:1.0 24:1.0 1:1.0 
0.2694481328367801 1.0 0.3479725721174054 0.5100350496514043 0.5416696411734012 0.8420448065458549 1.0 0.5524303609085988 0.4700842403966331 0.5950627560345645 1.0 0.0 1.0 0.0 0.41638159986660084 0.6027155028316515 0.0 0.0 28:1.0 1368:1.0 1274:1.0 4365:1.0 6:1.0 87:1.0 1591:1.0 34:1.0 1:1.0 4366:1.0 
0.2914369944409033 0.28570306391099176 0.37216229401217804 0.48892422852121 0.26185566725416265 0.22782331978578454 1.0 0.2197579580489959 0.37219269170890645 0.22826731885039364 0.6159779613561855 0.12680666290851794 0.25736195456466016 0.055883112481782626 0.10833031826631567 0.13593507249729958 0.1267049215652662 0.0 674:1.0 241:1.0 4415:1.0 2415:1.0 2745:1.0 34:2.0 878:1.0 339:2.0 330:1.0 102:2.0 1:4.0 4416:1.0 822:2.0 10:1.0 28:1.0 3010:1.0 599:2.0 1507:1.0 290:1.0 152:1.0 894:1.0 59:1.0 594:1.0 315:2.0 127:1.0 
0.722092822219147 0.0 0.0 1.0 0.0 0.6061381545977272 1.0 0.3185975008713791 0.31109513277489514 0.3587594580204561 1.0 0.0 0.4061678135261988 0.0 0.0 0.0 0.0 0.0 763:1.0 347:1.0 79:1.0 286:1.0 1877:1.0 34:1.0 506:1.0 350:1.0 
0.27442789472327 0.1648381416442136 0.0 0.18131719720247205 0.1664911853520007 1.0 1.0 1.0 0.0 0.6322054157094921 0.4692130520326432 0.0 0.13375148624928476 0.0 0.1717722642610392 0.0 0.11638416322068468 0.0 56:1.0 625:1.0 47:1.0 4505:1.0 34:1.0 265:1.0 404:1.0 4506:1.0 43:1.0 4507:1.0 75:1.0 98:1.0 1:1.0 932:1.0 4508:1.0 4509:1.0 
1.0 1.0 1.0 1.0 1.0 1.0 1.0 1.0 1.0 0.2558267124526745 0.0 0.0 1.0 0.0 0.0 0.5401175273491883 0.0 0.0 1:3.0 1394:1.0 102:1.0 4525:1.0 24:1.0 4526:1.0 
0.29815997025653335 0.47422623586511065 0.0 1.0 0.5622230975225451 0.5744663562656357 1.0 0.48206607820312175 0.4703221557314569 0.4230208145881339 1.0 0.0 0.5298754059429307 0.0 0.37445707830551656 0.39728449716834846 0.2661214906812837 0.0 36:1.0 4540:1.0 3591:1.0 883:1.0 28:1.0 53:1.0 3541:1.0 24:1.0 127:1.0 1895:1.0 4541:1.0 
0.4239276246472017 0.6511669420435093 1.0 1.0 0.5486043895361501 1.0 1.0 0.6778513115067182 1.0 0.33370717320877247 0.6670307025606634 0.2807792940568005 0.5688575309935444 0.19897681879212237 0.0 0.36061921106694866 0.19029648142555908 0.0 1:2.0 4543:1.0 22:1.0 4544:1.0 694:1.0 4545:2.0 24:1.0 356:1.0 110:1.0 
0.28461417989190724 0.20517119895341362 0.25337208306736386 0.7201320009498751 0.2088680043855378 0.44779660264332666 1.0 0.4927485346829793 0.5004578720160726 0.40936980401306355 1.0 0.0 0.29219146174860167 0.257451992081893 0.21266946979736726 0.2725596760112415 0.39527419951994686 0.0 4552:1.0 4553:2.0 81:1.0 3177:1.0 79:1.0 86:1.0 439:1.0 24:1.0 1:1.0 950:1.0 
0.4832995803084684 1.0 0.7026807208377626 1.0 0.7325385565139921 0.7026123445023369 1.0 1.0 1.0 1.0 1.0 0.38459266146520255 1.0 0.26083138828426433 0.0 0.3174444078758352 0.6478459531935614 0.0 7:1.0 47:1.0 1722:1.0 4631:1.0 2586:1.0 4632:1.0 59:1.0 28:1.0 4633:1.0 1075:1.0 19:1.0 883:1.0 2217:1.0 24:1.0 228:1.0 71:1.0 
0.5304474562495898 0.8191907908631618 0.22506917684764216 0.49010150304399935 0.4341577467872208 0.7361205988530941 1.0 0.4913511416669998 0.3400449801984136 0.5222468968697304 1.0 0.0 1.0 0.20264210814308764 0.0 0.3379430644246901 0.0 0.0 28:1.0 4634:1.0 4635:1.0 6:1.0 87:1.0 1896:1.0 34:1.0 528:1.0 4636:1.0 
0.28957828622940374 0.2506611842916048 0.34066684360601307 0.45687918258658367 0.2691756543031855 0.3035756229520227 1.0 0.33690182139294667 0.39207254422943394 0.1916728783718259 0.7391427775275572 0.20399647605816595 0.35937986407851163 0.21281384864722463 0.19076630539038547 0.16833269214531021 0.14057275069257147 0.0 4652:1.0 102:1.0 1:1.0 4653:1.0 10:1.0 28:1.0 942:1.0 81:1.0 821:1.0 4654:1.0 188:1.0 14:1.0 241:1.0 4655:1.0 1356:1.0 22:2.0 11:1.0 3663:1.0 330:1.0 992:1.0 4656:1.0 1154:1.0 98:1.0 1278:1.0 
0.516234297357544 0.43698256860379403 1.0 1.0 0.5413217350631033 0.9430983459797021 1.0 0.6212819059669101 1.0 0.4635656777223329 0.9158987331480786 0.0 0.5540696737686023 0.0 0.0 0.0 0.22455056458853098 0.0 1:1.0 4662:1.0 286:1.0 2392:1.0 34:1.0 886:1.0 112:1.0 4005:1.0 
0.4591880454205952 0.227942873215197 0.0 0.6211954606341843 0.685673724197187 0.5538095017694524 1.0 0.424455423007831 0.28631198158111143 0.6283031702240759 1.0 0.0 0.6186121986651015 0.0 0.20493460161983465 0.0 0.24496776048608962 0.0 32:1.0 28:1.0 4682:1.0 1:1.0 4683:1.0 1331:1.0 24:1.0 1741:1.0 102:1.0 4684:1.0 
1.0 1.0 1.0 1.0 1.0 1.0 1.0 1.0 1.0 0.6006429678879016 0.0 0.2374567266657739 1.0 0.0 0.0 0.6624820770622859 0.0 0.0 1:3.0 197:1.0 2782:1.0 88:1.0 4711:1.0 24:1.0 1156:1.0 
0.5484883064466042 0.2574327348618449 0.45799393137092037 1.0 0.7065684691476344 1.0 1.0 1.0 1.0 0.6925524433993443 1.0 0.3289264230433406 0.5713748843663274 0.0 0.0 0.0 0.46555418654042113 0.0 1183:1.0 778:1.0 1280:1.0 47:1.0 1605:1.0 7:1.0 4712:1.0 
0.723545309012493 0.36490463430209497 0.2675435084510028 1.0 0.5434162476670795 0.5168442234311986 1.0 1.0 0.6130764035205766 0.46843670360847184 1.0 0.5871757982134009 0.5224804751900513 0.0 0.0 0.2429692678964685 0.41434957797331645 0.0 1740:1.0 22:1.0 4729:1.0 286:1.0 4505:1.0 24:1.0 56:1.0 350:1.0 
0.45249907601613487 0.6403847947338862 1.0 1.0 0.5517725645289001 1.0 1.0 0.5571504210024802 1.0 0.29914897437498594 0.30405534643499066 0.0 0.5374625186736205 0.0 0.0 0.5615048684460352 0.0 0.0 1:2.0 2247:1.0 983:1.0 4730:1.0 1381:1.0 2217:1.0 3299:1.0 24:1.0 2860:1.0 1156:1.0 
0.6182886478827334 1.0 1.0 1.0 1.0 1.0 1.0 1.0 1.0 0.6128088419822229 0.3488510597102664 0.3256402332076916 1.0 0.4749504563344809 0.0 0.42496265994388654 0.3425981148730002 0.0 1:3.0 2963:1.0 3219:1.0 132:1.0 6:1.0 1716:1.0 188:1.0 4741:1.0 34:1.0 4742:1.0 2219:1.0 
0.24773278692442385 0.0 0.0 0.39749421974818255 0.350934071173256 0.37819669447024656 1.0 0.18513192950519897 0.34077353973278757 0.2928210414157704 0.5352278295893336 0.0 0.2860913099488729 0.3787362060013332 0.0 0.0 0.0 0.0 112:1.0 56:1.0 756:1.0 536:1.0 694:1.0 1053:1.0 24:1.0 4743:1.0 1924:1.0 22:1.0 783:1.0 2756:1.0 59:1.0 35:1.0 28:1.0 2282:1.0 258:1.0 801:1.0 2889:1.0 
0.2678033955343535 0.0 0.0 0.558214734044093 0.250650867051397 0.39756622946031817 1.0 0.6362224052966083 0.46256977403852456 0.2855388154036893 1.0 0.0 0.24869538078707845 0.0 0.0 0.4825445274643086 0.0 0.0 988:1.0 329:1.0 1:1.0 1151:1.0 88:1.0 24:1.0 28:1.0 4777:1.0 672:1.0 3214:1.0 
0.38088671391355633 0.2977051165564786 0.4624978623863291 0.7743381822619858 0.43213283702413563 0.4015928015540342 1.0 0.42666485911167973 0.6003666328065609 0.4044864067584075 1.0 0.1361432432515538 0.4438981404959097 0.2286461359832767 0.2990220633075559 0.3437763133916409 0.3009062877113323 0.0 1207:1.0 4793:1.0 4794:1.0 61:1.0 3456:1.0 6:1.0 87:1.0 1608:1.0 1047:1.0 34:1.0 1:1.0 4795:1.0 4796:1.0 10:1.0 4797:1.0 
0.2910307961285815 0.27515314727844475 0.44014568027342643 1.0 0.5332097232909767 0.4934898129031448 1.0 0.6561859830064101 1.0 0.4194468592082463 1.0 0.19732198962547298 0.5679914322076062 0.0 0.0 0.0 0.22659523608846935 0.0 443:1.0 1212:1.0 1213:1.0 583:2.0 3371:1.0 1393:1.0 34:1.0 368:1.0 112:1.0 4801:1.0 
1.0 1.0 1.0 1.0 1.0 1.0 1.0 1.0 1.0 1.0 0.3633656021394346 0.5458055843303302 1.0 0.4489824097906539 0.0 0.5088576122689287 0.36365332047719023 0.0 1:3.0 3857:1.0 1768:1.0 4469:1.0 4810:1.0 24:1.0 2047:1.0 189:1.0 
0.38795488521464355 0.25571931607755904 1.0 1.0 0.4038288666574658 1.0 1.0 0.6586376998129552 1.0 0.36823024904887836 0.7452831269552813 0.0 0.41127485241411404 0.0 0.0 0.0 0.0 0.0 1:1.0 306:1.0 19:1.0 3539:1.0 34:1.0 28:1.0 196:1.0 749:1.0 
0.6043835301686605 0.6670403866041008 0.0 1.0 0.22979892537689178 0.6024773880292279 1.0 0.5502451147287408 0.465108643844505 0.58437117648357 1.0 0.0 0.39778670085885853 0.0 0.0 0.445276694394804 0.0 0.0 583:1.0 53:1.0 4875:1.0 88:1.0 24:1.0 241:1.0 853:1.0 3493:1.0 
0.5410250174240991 0.696618494256783 1.0 1.0 1.0 1.0 1.0 1.0 1.0 0.5195500137359019 0.5301610446188876 0.3227153464012009 1.0 0.0 0.0 0.3522513715020991 0.2789574611147139 0.0 1:2.0 4899:1.0 19:1.0 828:1.0 24:1.0 1253:1.0 1537:1.0 261:1.0 863:1.0 
1.0 1.0 1.0 1.0 1.0 1.0 1.0 1.0 1.0 1.0 1.0 0.0 1.0 0.6040719505092291 0.0 1.0 0.0 0.0 28:2.0 2195:1.0 4903:1.0 384:1.0 24:1.0 1916:1.0 
0.22866124680772293 0.3754201994676142 1.0 0.6511438171603359 0.3183294507774018 0.5889739220556478 1.0 0.3867542917262426 0.7668421967923024 0.33647700492726385 1.0 0.0 0.0 0.0 0.20890968708297047 0.3858869677970605 0.0 0.0 330:1.0 2333:1.0 1032:1.0 1:1.0 4957:1.0 10:1.0 28:1.0 104:1.0 14:1.0 140:1.0 
0.0 0.0 0.0 0.0 0.0 0.0 1.0 0.4750236111921725 0.5327999297583034 0.0 1.0 0.0 0.0 0.0 0.0 0.0 0.0 0.0 681:1.0 1032:1.0 1591:1.0 24:1.0 4958:1.0 244:1.0 
0.0 0.371926485543612 0.22714759518953387 0.27728587979716723 0.0 0.0 1.0 0.20449935380968093 0.3323509746312044 0.0 0.4617093853036749 0.0 0.0 0.0 0.0 0.0 0.0 0.0 330:1.0 1550:1.0 1:1.0 2031:1.0 24:1.0 11:1.0 5006:1.0 5007:1.0 601:1.0 4063:1.0 7:2.0 5008:1.0 5009:1.0 22:1.0 1556:1.0 
0.0 0.0 0.0 0.0 0.0 0.0 1.0 0.0 0.0 0.0 0.25393199925453763 0.0 0.0 0.0 0.0 0.0 0.0 0.0 298:1.0 86:1.0 2114:1.0 1:2.0 5018:1.0 24:1.0 5019:1.0 1830:1.0 
0.43696381883878266 0.0 0.0 0.0 0.62740401231005 0.0 1.0 0.7423843013783639 0.0 0.29629045516187175 0.3778102894118801 0.24206609406818136 0.0 0.0 0.0 0.0 0.0 0.0 544:1.0 1372:1.0 86:1.0 1531:1.0 53:1.0 79:1.0 454:1.0 408:1.0 34:1.0 127:1.0 4671:1.0 
0.2959787489082615 0.32563873183922554 1.0 1.0 0.6410052970626172 0.4893163192496863 1.0 0.46071742126359005 1.0 0.2835476337335 0.6181969009128845 0.1865064799317697 0.37337530259847007 0.13244903619084455 0.15125583002371437 0.34310921948404083 0.3155462787798898 0.0 1:1.0 5035:1.0 594:1.0 88:1.0 24:1.0 1476:1.0 5036:2.0 368:1.0 36:1.0 4279:1.0 105:1.0 692:1.0 650:1.0 
0.3043596973333954 0.21756215675183838 0.25652236584023413 0.6326361302712799 0.31410914975067417 0.31203418757578294 1.0 0.27456804488567865 0.46256326974380496 0.3344065161242997 0.692048368436655 0.27600885141876563 0.16725164552595084 0.19856902079908617 0.17068186158464743 0.13059880774779237 0.13564118608211706 0.0 5064:1.0 2188:2.0 86:1.0 439:1.0 5065:1.0 24:1.0 1:2.0 4964:1.0 674:1.0 157:1.0 226:1.0 5066:1.0 562:1.0 826:1.0 112:2.0 34:1.0 5067:1.0 152:1.0 
0.3919736330268871 0.5129047290019811 1.0 1.0 0.33267373341147743 1.0 1.0 1.0 1.0 1.0 1.0 0.251011151321993 0.7139086900511271 0.6043004857276808 0.6388632024120219 0.0 0.4233980923743202 0.0 234:1.0 368:1.0 286:1.0 1608:1.0 1047:1.0 34:1.0 5075:1.0 
0.0 0.0 0.0 0.0 0.0 0.0 1.0 0.0 0.0 0.0 0.0 0.0 0.0 0.0 0.3317478521466144 0.0 0.0 0.0 330:1.0 1032:1.0 1:1.0 3334:1.0 24:1.0 241:1.0 1856:1.0 327:1.0 
0.4475918704983721 0.2700275631937662 0.45531984608968845 0.6898490108193123 0.37530177731817604 0.3976128387289012 1.0 1.0 0.4995421279839274 0.3930270938095709 1.0 0.12913847041972532 0.4466896961243717 0.28319161096357126 0.1965474619306505 0.3127467854611724 0.30716713309230936 0.0 5098:1.0 5099:1.0 28:1.0 5100:1.0 2994:1.0 10:1.0 1:2.0 2446:1.0 6:1.0 1591:1.0 5101:1.0 24:1.0 1920:1.0 
0.22771590010413004 0.0 0.2183374304005383 0.5678138222978732 0.23776564318461602 0.319235484955615 1.0 0.5493441570521702 0.5694698335502343 0.24882999194710387 0.8687515141632705 0.0 0.22041371741936233 0.0 0.10947916920732076 0.2572587825148088 0.08668065527579713 0.0 479:1.0 1:1.0 2319:1.0 61:1.0 2963:1.0 122:1.0 298:1.0 102:1.0 28:2.0 4884:1.0 4424:1.0 98:1.0 11:1.0 5108:1.0 35:1.0 103:1.0 1738:1.0 140:1.0 601:1.0 
0.5287711385481291 0.5471307015597604 1.0 1.0 0.5765523057374331 1.0 1.0 0.6514008786484302 1.0 0.4979714056678401 1.0 0.0 0.5616141405487401 0.0 0.0 0.20591792241773252 0.2733611820156469 0.0 1:1.0 5119:1.0 439:1.0 28:1.0 5120:1.0 24:1.0 5121:1.0 2132:1.0 4815:1.0 36:1.0 5122:1.0 5123:1.0 
0.27306643751008663 0.5839236008095139 0.0 1.0 0.6674499226757039 1.0 1.0 0.6201951682478989 1.0 0.38983042112608496 1.0 0.0 0.4034571755461555 0.0 0.0 0.2201528207492206 0.0 0.0 11:1.0 5139:1.0 5140:1.0 19:1.0 1317:1.0 24:1.0 1:1.0 2520:1.0 
0.6500748861828127 0.5059806372028524 0.7208483621918311 0.6447498515282982 0.6078429808421647 0.42832985830976045 1.0 0.5179339217968782 1.0 0.37069903384665404 1.0 0.13363158896740224 0.4346931818008686 0.13225643081760763 0.10137767215528129 0.18110980318839523 0.19906510337304487 0.0 188:1.0 2241:1.0 5154:1.0 1971:1.0 5155:1.0 2316:1.0 5156:1.0 112:1.0 1:2.0 5157:1.0 81:1.0 1256:1.0 4845:1.0 59:1.0 102:1.0 3516:1.0 10:1.0 28:1.0 4944:1.0 4815:1.0 
1.0 1.0 1.0 1.0 1.0 1.0 1.0 1.0 1.0 0.6382402988717726 0.1170056789516179 0.0 1.0 0.707152808628013 0.0 0.0 0.6645063643708264 0.0 1:3.0 45:1.0 3125:1.0 482:1.0 34:1.0 1777:1.0 1156:1.0 
0.4416387751478546 0.5033656395624562 1.0 1.0 0.637001767799001 0.7496320362844586 1.0 0.6899974127232602 1.0 0.39040993363406595 1.0 0.0 0.5337976292112578 0.0 0.0 0.0 0.24987364414920357 0.0 1:1.0 4138:1.0 5198:1.0 88:1.0 24:1.0 28:1.0 5199:1.0 2754:1.0 10:1.0 4253:1.0 
0.0 0.0 0.7873585711701414 0.3728077982255639 0.0 0.3845106228195299 1.0 0.49368060132086033 0.0 0.0 0.49835075881300545 0.0 0.0 0.0 0.0 0.6761091823445238 0.0 0.0 330:1.0 2107:1.0 1:1.0 5229:1.0 24:1.0 28:1.0 5230:1.0 
0.0 0.0 0.0 0.192713781401313 0.0 0.0 1.0 0.0 0.0 0.6801219417504473 1.0 0.0 0.0 0.0 0.0 0.5380501808285661 0.0 0.0 536:1.0 1896:1.0 1:2.0 4395:1.0 34:1.0 3225:1.0 4636:1.0 4413:1.0 10:1.0 5261:1.0 
0.6057666188977461 0.8520323342851895 1.0 1.0 1.0 1.0 1.0 1.0 1.0 0.5455514693589928 0.5080231004508031 0.0 0.6453508589171757 0.0 0.0 0.29096214458664865 0.0 0.0 1:2.0 5295:1.0 2294:1.0 47:1.0 1300:1.0 24:1.0 4650:1.0 
0.26779267905338217 0.0 1.0 1.0 0.2718781299380278 0.45315896599333755 1.0 0.4016716496527509 1.0 0.0 0.7471467859630332 0.0 0.4624208099150342 0.0 0.0 0.0 0.0 0.0 1:1.0 887:1.0 6:1.0 2375:1.0 241:1.0 4635:1.0 24:1.0 11:1.0 30:1.0 2:1.0 
0.4580414247914251 0.0 0.0 0.6400877433907415 0.3879592890037681 0.0 1.0 1.0 1.0 0.7037095448381283 1.0 0.0 0.3533734803465043 0.0 0.0 0.63930302358432 0.3015112564106951 0.0 1824:1.0 78:1.0 19:1.0 828:1.0 24:1.0 1:1.0 2520:1.0 
0.19963761012659723 0.419996498692906 0.33604582385776416 0.47397640490830584 0.37468985818274425 0.6637915523278508 1.0 1.0 1.0 0.428892929966903 1.0 0.15690777323811828 0.21418400120147862 0.4130479466907449 0.11385859316479126 0.3024885904072105 0.24050433226012924 0.0 112:1.0 1:2.0 303:1.0 1303:1.0 10:2.0 750:1.0 751:1.0 109:1.0 753:1.0 4658:1.0 81:1.0 3246:1.0 1311:1.0 5381:1.0 86:1.0 87:1.0 439:1.0 89:1.0 24:1.0 4964:1.0 5382:1.0 
0.29685882262872126 0.5656334245293767 0.5488958665010188 0.6905865978979056 0.48165842410068815 0.560723700573901 1.0 0.39392045294866784 0.406881185141586 0.7525356869352704 1.0 0.0 0.25588478654381996 0.0 0.12888871819756967 0.3998823958146017 0.31882366319007005 0.0 536:1.0 3142:1.0 1029:1.0 1:3.0 1369:1.0 22:1.0 694:1.0 5392:1.0 24:1.0 5393:1.0 5394:1.0 5395:1.0 
0.3824521699575255 0.40386504864101336 0.36838730113255597 0.6674854534350736 0.3721200973768285 0.5107425660138594 1.0 0.4420298988291618 0.4907421929196282 0.41412909555962685 1.0 0.31251999370743344 0.36357542406725374 0.2757044422439175 0.28069352901491423 0.28989188330385596 0.21534531729112527 0.0 1365:1.0 81:1.0 5412:1.0 5413:1.0 286:1.0 5414:1.0 22:1.0 1230:1.0 985:1.0 24:1.0 5415:1.0 5416:1.0 10:1.0 1:1.0 5417:1.0 2641:1.0 
0.5814621466335264 0.3498050713256039 0.20123304804891456 1.0 0.5031015163868716 0.5604904136003784 1.0 1.0 0.6131384620693727 0.4940512853887079 1.0 0.35935869914659185 0.5224680354749074 0.0 0.0 0.2118008468014194 0.4697286326928803 0.0 5420:1.0 625:1.0 19:1.0 539:1.0 24:1.0 1:1.0 584:1.0 1557:1.0 
1.0 1.0 1.0 1.0 1.0 1.0 1.0 1.0 1.0 0.5738775513538529 0.47979810615596274 0.350357813078942 1.0 0.5250495436655191 0.26009754619492237 0.4014767285749867 0.411164578159644 0.0 1:3.0 5457:1.0 43:1.0 5458:1.0 6:1.0 87:1.0 913:1.0 1300:1.0 24:1.0 3063:1.0 
0.5695189841578199 0.5554980885990555 0.34144999028207457 0.9287432066630437 0.5599568234361397 1.0 1.0 0.6814024991286209 0.6725866983754649 0.5955135932415925 1.0 0.26440822935421665 0.4521326713071655 0.0 0.17245179812677883 0.0 0.3777063599522594 0.0 733:1.0 5461:1.0 5060:1.0 5462:1.0 47:1.0 3848:1.0 24:1.0 1:1.0 1675:1.0 
0.5055095960900776 0.38751296177112726 0.24613702273416166 1.0 0.6120407109962319 0.5882784669927926 1.0 1.0 0.5512836544105493 0.5540752062846167 1.0 0.2637447763850076 0.5224555960559242 0.0 0.0 0.2526804726557725 0.4697286326928803 0.0 5493:1.0 1274:1.0 594:1.0 3049:1.0 24:1.0 1:1.0 3830:1.0 5494:1.0 
0.3893903766672622 0.25935835212429764 1.0 0.6063888750744859 1.0 1.0 1.0 1.0 1.0 0.4472909097847278 1.0 0.0 1.0 0.25275657341490415 0.1914777903821028 0.9082284821285462 0.22180035255660713 0.0 36:1.0 1:2.0 5537:1.0 658:1.0 3958:1.0 473:1.0 286:1.0 2566:1.0 24:1.0 5538:1.0 84:1.0 14:1.0 4823:1.0 
0.0 0.0 1.0 1.0 0.0 0.0 1.0 0.0 0.3056036885477311 0.0 0.0 0.0 0.18319359034769453 0.0 0.0 0.0 0.0 0.0 1:1.0 284:1.0 14:1.0 988:1.0 442:1.0 61:1.0 1443:1.0 410:1.0 2127:2.0 241:1.0 1520:2.0 34:1.0 702:1.0 3063:1.0 232:1.0 86:1.0 87:1.0 1161:1.0 112:1.0 
0.5464259165177192 0.6017971508984242 1.0 1.0 0.564782729465302 1.0 1.0 0.7468476894629588 1.0 0.4432976005670427 1.0 0.0 0.5511151816330939 0.0 0.0 0.0 0.23642002925886446 0.0 1:1.0 2413:1.0 221:1.0 24:1.0 1775:1.0 1644:1.0 10:1.0 5552:1.0 
0.0 0.7460812326718722 0.0 0.0 0.0 0.0 1.0 0.0 0.0 0.0 0.0 0.0 0.0 0.0 0.0 0.0 0.0 0.0 224:1.0 694:1.0 1053:1.0 24:1.0 28:2.0 5583:1.0 607:1.0 98:1.0 1075:1.0 
0.28355846601998197 0.33728074378963635 1.0 1.0 0.6146285752293688 0.6105666855509493 1.0 0.3281497848549013 1.0 0.3828153713878688 0.8990357581849852 0.23196201004614436 0.41444963201100515 0.2507848946565824 0.21782597267646078 0.31392996399794415 0.208339923869231 0.0 1:2.0 5592:1.0 19:2.0 1032:1.0 103:1.0 228:1.0 5593:1.0 422:1.0 656:1.0 102:1.0 10:1.0 599:1.0 98:1.0 28:1.0 5594:1.0 14:1.0 1797:1.0 3013:1.0 2336:1.0 692:1.0 1058:1.0 
0.19790813772202911 0.2653570383251007 0.2615171941666874 0.5377306956732006 0.3690573008104664 0.26625472614361734 1.0 0.3301479964477837 0.3434135934754402 0.47175387365470056 1.0 0.1315126485508316 0.39477127334248563 0.277533807841506 0.09854306777054345 0.1385172860567842 0.3147089413339458 0.0 5603:1.0 86:2.0 2439:1.0 1:2.0 5604:2.0 22:1.0 883:1.0 4005:1.0 468:1.0 24:1.0 
0.4605222305477422 0.2489708535823863 0.3822914371051061 0.7343407775236919 0.3798186012429051 0.40154013135508815 1.0 0.6060795470513322 0.7136880184188885 0.40444622094335736 1.0 0.18986958051055908 0.32148224742786446 0.2529888152621723 0.23036300308414634 0.23993530839174917 0.2660859025270297 0.0 3692:1.0 224:1.0 6:1.0 87:1.0 2127:1.0 5609:1.0 14:1.0 228:1.0 3306:1.0 34:1.0 3144:1.0 28:1.0 5610:1.0 2003:1.0 1518:1.0 
0.7024614740780484 0.6434469474284431 1.0 1.0 0.7097744541406574 1.0 1.0 0.7604230532915925 1.0 0.5315632963915282 0.5822322058062175 0.3505480739672813 0.5959933175124846 0.5111159308968508 0.4234718927209308 0.36402409629926546 0.34038363819732187 0.0 1:3.0 347:1.0 1443:1.0 47:1.0 735:1.0 24:1.0 53:1.0 1660:2.0 2647:1.0 2141:1.0 98:1.0 
1.0 0.3982028491015758 1.0 1.0 1.0 1.0 1.0 1.0 1.0 0.4603182313953681 1.0 0.6272204898489049 0.44645094905410687 0.0 0.0 0.0 0.0 0.0 1:1.0 870:1.0 878:1.0 34:1.0 7:1.0 5673:1.0 
0.6022145617054013 0.5622515688843224 0.6950894029950767 1.0 0.5344417802374415 1.0 1.0 1.0 1.0 1.0 1.0 0.5526914360919961 0.4555550250163547 0.42528869114934287 0.39090892431475854 0.0 0.4052664045276215 0.0 56:1.0 1357:1.0 2970:1.0 957:1.0 5705:1.0 6:1.0 87:1.0 1154:1.0 24:1.0 1:1.0 350:1.0 1949:1.0 
0.46755004083081375 0.4510536963465191 0.2218958434282974 1.0 0.5599774320564762 0.5779200599226391 1.0 1.0 1.0 0.5955537790566426 1.0 0.3492408750734156 0.4521188121250379 0.0 0.2248048507940651 0.0 0.445988261166331 0.0 1790:1.0 4777:1.0 5722:1.0 86:1.0 88:1.0 24:1.0 1:1.0 5723:1.0 84:1.0 
0.0 0.0 1.0 1.0 1.0 0.0 1.0 0.0 0.9318007388802262 0.0 0.0 0.0 0.0 0.0 0.0 0.0 0.0 0.0 1:1.0 1372:1.0 1896:1.0 5724:1.0 5725:1.0 34:1.0 28:1.0 1557:1.0 10:1.0 5726:1.0 
0.7527212699931116 1.0 1.0 1.0 1.0 1.0 1.0 1.0 1.0 0.5911517962353428 0.581076412041186 0.5395063215376916 1.0 0.48883202271062576 0.180205743677736 0.3729015662409488 0.4663969711410397 0.0 1:3.0 5738:1.0 594:1.0 1646:1.0 24:1.0 3644:1.0 2141:1.0 98:1.0 4665:1.0 
0.3995733617995644 0.7419691914816466 1.0 1.0 0.6412643004514187 1.0 1.0 1.0 1.0 1.0 1.0 0.6572682789622434 0.6466265196534957 0.5747113088506571 0.3835794035819259 0.41623453771022345 0.5174267371233655 0.0 56:1.0 1518:1.0 1:1.0 5749:1.0 1331:1.0 34:1.0 702:1.0 5750:1.0 1206:1.0 
0.3022752571700164 0.49346434073508005 0.29953547055775226 1.0 0.2491199405371394 0.373683306659117 1.0 0.3870591457874805 0.5867228282871878 0.5686959935820626 1.0 0.0 0.33854999888402665 0.0 0.0 0.0 0.0 0.0 3106:1.0 61:1.0 4633:1.0 816:1.0 6:1.0 2375:1.0 24:1.0 7:1.0 2945:1.0 476:1.0 
0.5088862904701825 1.0 1.0 1.0 0.5696842236216418 1.0 1.0 1.0 1.0 1.0 1.0 0.0 1.0 0.31322256642797336 0.4116684367657619 0.5381341185810578 0.4359944700502274 0.0 28:1.0 1771:1.0 5806:1.0 694:1.0 1937:1.0 24:1.0 1:1.0 350:1.0 
0.5485021813373911 0.2928100349915207 0.0 1.0 0.4681610495383421 0.5428107760046185 1.0 1.0 1.0 0.5188851708009271 1.0 0.27486942732058944 0.5258237494664888 0.0 0.0 0.0 0.46555418654042113 0.0 5827:1.0 439:1.0 28:1.0 4005:1.0 24:1.0 5828:1.0 841:1.0 
0.49721379548111666 0.6951443829327074 1.0 1.0 1.0 1.0 1.0 1.0 1.0 0.341890897241551 0.3459667681836575 0.0 0.7667971234379716 0.0 0.0 0.35152965489870175 0.2838704846252812 0.0 1:2.0 5859:1.0 6:1.0 87:1.0 2670:1.0 648:1.0 24:1.0 5369:1.0 
0.8613988090035526 1.0 1.0 1.0 1.0 1.0 1.0 1.0 1.0 0.5155119118305933 0.4704517014720182 0.0 1.0 0.0 0.0 0.0 0.0 0.0 1:2.0 5861:1.0 19:1.0 439:1.0 24:1.0 4964:1.0 
0.3672100148744896 0.2582681521898655 1.0 1.0 0.5752923015133228 0.6964243770479773 1.0 0.6003526577808183 1.0 0.29568842034035187 1.0 0.0 0.4092288769322106 0.0 0.0 0.0 0.0 0.0 1:1.0 1206:1.0 5499:1.0 19:1.0 138:1.0 34:1.0 5869:1.0 1397:1.0 4027:1.0 
0.5192215818358795 0.4966383467608263 1.0 1.0 0.46709304930602 0.5915132612603627 1.0 0.5646955183116102 1.0 0.4628872935313772 0.7113514764330977 0.17728703989529965 0.5855503679889948 0.0 0.0 0.2971186494841748 0.2110181383290102 0.0 1:1.0 2179:1.0 6:1.0 87:1.0 1326:1.0 34:2.0 597:1.0 1518:1.0 772:1.0 994:1.0 1233:1.0 
0.0 0.0 0.599253943082365 0.33207770956122584 0.0 0.6281287362695716 1.0 0.0 0.6684512026341718 0.37596133734974224 1.0 0.4305015703501041 0.0 0.0 0.0 0.0 0.0 0.0 330:1.0 6:1.0 1591:1.0 241:2.0 3542:1.0 24:1.0 5895:1.0 
0.3308454007118495 1.0 1.0 1.0 0.428552469470678 0.628690807276823 1.0 0.5065509301071898 1.0 0.0 0.5202018938440373 0.0 0.3263628053873081 0.0 0.0 0.0 0.0 0.0 1:1.0 1505:1.0 47:1.0 88:1.0 24:1.0 28:1.0 1451:1.0 4366:1.0 
0.11766023093534239 0.5111831497051699 1.0 1.0 0.30289051513382015 0.2126200432073868 1.0 0.0 1.0 0.0 0.0 0.0 0.0 0.0 0.2852643921416494 0.0 0.25128246509741636 0.0 1:3.0 140:2.0 19:1.0 3776:2.0 24:1.0 876:1.0 200:1.0 464:1.0 2679:1.0 775:1.0 
0.38858702595001815 0.0 0.0 0.7182683750534253 0.0 0.24933180833044277 1.0 0.3637775947033916 0.4819181123028484 0.3783569852682731 1.0 0.0 0.22383490754689692 0.0 0.21927424948879828 0.0 0.47068057102051736 0.0 3027:1.0 1849:1.0 47:1.0 2581:1.0 34:1.0 1372:1.0 112:1.0 5928:1.0 4049:1.0 
0.3989483597383705 0.7915160261943153 0.7289858852645885 0.7009415626956506 0.26481528494538314 1.0 1.0 0.6059853709502293 0.5493665133085655 0.552504518763253 1.0 0.3421403958678936 1.0 0.47781816739451854 0.0 0.4163941850926692 0.0 0.0 28:1.0 2737:1.0 4395:1.0 19:1.0 1032:1.0 24:1.0 583:1.0 2815:1.0 1168:1.0 188:1.0 4035:1.0 2698:1.0 
0.6178562186470146 0.6626664659159293 1.0 1.0 1.0 1.0 1.0 1.0 1.0 0.6317697509511216 0.5910004748925478 0.0 1.0 0.0 0.0 0.24457452932411725 0.26389808105063994 0.0 1:2.0 6003:1.0 3642:1.0 2254:1.0 47:1.0 539:1.0 24:1.0 6004:1.0 
0.5765252118315493 0.3313971143842294 0.4079421162796617 0.8102618695414578 0.776449160334662 0.5200557486430933 1.0 0.4808890010720527 0.601475512306129 0.316538673542764 1.0 0.2737740256904132 0.6931586412733353 0.2103875764370315 0.09911612747259528 0.337038618620948 0.3123894298461359 0.0 547:2.0 816:1.0 61:1.0 4098:1.0 47:1.0 3609:1.0 24:1.0 1444:1.0 22:1.0 2671:1.0 
0.38432309013677624 0.2559284344879831 0.2908034204284231 0.5308448592334704 0.4323284512662543 0.4227645495068988 1.0 0.5547508713937528 0.5458462593228985 0.3716968297759241 0.7626602904615405 0.3177537938217473 0.4253899816770201 0.0 0.11407085997383509 0.15206737308177729 0.291069902123572 0.0 1551:1.0 14:1.0 6061:1.0 22:1.0 1051:1.0 6062:1.0 6063:1.0 286:1.0 840:1.0 2127:1.0 34:1.0 1:2.0 1561:1.0 26:1.0 4917:1.0 61:1.0 6064:1.0 
0.0 0.0 1.0 1.0 0.0 0.0 1.0 0.0 0.09436921437935258 0.0 0.3648636980899582 0.0 0.178834987204263 0.0 0.0 0.09177151787145377 0.0 0.0 1:1.0 3229:1.0 594:1.0 656:1.0 102:1.0 10:1.0 271:1.0 582:1.0 21:1.0 22:2.0 1032:2.0 103:2.0 14:4.0 28:2.0 1532:1.0 475:2.0 59:2.0 19:2.0 448:1.0 2126:1.0 98:1.0 291:1.0 127:2.0 1488:1.0 4375:1.0 1578:1.0 
0.4895913090131304 0.24101004149502314 0.0 1.0 0.39659886131916683 1.0 1.0 1.0 1.0 0.3067767722483825 1.0 0.0 0.37200005471238456 0.0 0.41525114915180505 0.0 0.2744374861659956 0.0 713:1.0 6074:1.0 86:1.0 1591:1.0 146:1.0 2294:1.0 24:1.0 127:1.0 3043:1.0 
0.23458127771927628 0.17313551823806306 0.2636584142980877 0.4918033144039813 0.3004525077656366 0.2813799894724811 1.0 0.21939267458656653 0.3078938047548386 0.17150292344549098 0.6330361737796018 0.09214380846447881 0.1918828952893352 0.18057722358590453 0.12860111507627692 0.18212621712494798 0.1536996032625111 0.0 5588:1.0 81:2.0 753:1.0 347:1.0 6081:1.0 6082:1.0 6083:1.0 19:1.0 3794:1.0 34:1.0 1635:1.0 674:1.0 1:2.0 1017:1.0 672:1.0 1216:1.0 139:1.0 24:2.0 28:2.0 592:1.0 14:1.0 1283:1.0 22:1.0 2329:1.0 99:1.0 3:1.0 330:1.0 1550:1.0 499:1.0 601:1.0 
0.46437312385649315 0.595376401037972 1.0 1.0 0.5779729961204834 1.0 1.0 0.49086835284229546 1.0 0.3993570321120984 0.4611323274078134 0.0 1.0 0.0 0.0 0.6653688974468561 0.0 0.0 1:1.0 1867:1.0 883:1.0 4482:1.0 24:1.0 5651:1.0 1177:1.0 
0.5375236155477608 0.6783171237235184 1.0 1.0 1.0 1.0 1.0 1.0 1.0 0.5307825084557155 1.0 0.2473273407169526 0.6736371946126919 0.0 0.0 0.38382611328116284 0.3074059569261514 0.0 1:2.0 5387:1.0 594:1.0 3889:1.0 24:1.0 350:1.0 616:1.0 127:1.0 1179:1.0 
0.5475009239838651 0.35063655493383034 0.2424278015204259 1.0 0.6431230639888175 0.4871889522193533 1.0 0.7535700714082306 0.6888979199900972 0.5331827241637119 1.0 0.3202574356404515 0.4521049525923567 0.0 0.20881073166852732 0.24335723601509207 0.2738129513439837 0.0 691:1.0 6107:1.0 86:1.0 1877:1.0 6108:1.0 1773:1.0 34:1.0 1743:1.0 3800:1.0 
0.5884336168485423 0.5732876490116643 0.0 1.0 0.38024509171773047 0.23799017074395468 1.0 0.5054631091393261 0.3111020800099028 0.29485342001806525 1.0 0.3646584473998685 0.34040299724902356 0.0 0.0 0.0 0.28288684141126497 0.0 1824:1.0 536:1.0 694:1.0 562:1.0 1319:1.0 2884:1.0 24:1.0 583:1.0 178:1.0 
0.29400531304997113 0.566215118485655 1.0 0.4537911553042947 0.0 0.7337047649098483 1.0 0.6632640102398504 1.0 0.53122362810816 1.0 0.4231846955941819 0.0 0.0 0.2663634117115962 0.5776189685307299 0.0 0.0 330:1.0 32:1.0 34:1.0 794:1.0 485:1.0 2943:1.0 24:1.0 544:1.0 5778:1.0 629:1.0 350:1.0 
0.40650077397930695 0.2979672008927778 1.0 1.0 0.4232952784385237 0.49880973834191233 1.0 0.5029504407144387 1.0 0.4836520971415512 0.6274999600698015 0.3148097189069605 0.37290711568419627 0.0 0.0 0.0 0.0 0.0 1:1.0 5916:1.0 522:2.0 5167:1.0 138:1.0 19:1.0 6173:1.0 34:1.0 28:1.0 5302:1.0 6174:1.0 
0.724746615435492 0.7323905582753383 1.0 1.0 1.0 1.0 1.0 0.6234324435124857 1.0 0.4650385253684524 0.8268619575288138 0.0 0.5848749151307213 0.0 0.431884925688094 0.0 0.23684287156891926 0.0 1:1.0 5688:1.0 6:1.0 1032:1.0 2860:1.0 24:1.0 713:1.0 3930:1.0 
0.0 0.0 0.0 0.78938609587318 0.0 0.0 1.0 0.41716211122925495 0.42095642630488445 0.3412517893616751 1.0 0.0 0.2634813389423497 0.0 0.0 0.0 0.2779538877198827 0.0 816:1.0 86:1.0 1317:1.0 4731:1.0 24:1.0 4300:1.0 6253:1.0 5727:1.0 
0.5305288665344597 0.49505883073230844 1.0 1.0 0.6509391781610689 0.8150051963818331 1.0 0.746150560907444 1.0 0.4940598322703903 1.0 0.18138375668964832 0.5527293288795979 0.0 0.0 0.23166986356174865 0.21056161581135985 0.0 1:1.0 6267:1.0 47:1.0 828:1.0 24:1.0 28:1.0 3576:1.0 81:1.0 3331:1.0 1320:1.0 36:1.0 6268:1.0 3772:1.0 
0.3919515824630961 0.5710634574713294 1.0 1.0 1.0 1.0 1.0 0.7806073254134335 1.0 0.30356087887878613 0.3790892551437965 0.0 1.0 0.0 0.0 0.0 0.0 0.0 1:2.0 6288:1.0 1317:1.0 284:1.0 24:1.0 28:1.0 468:1.0 6289:1.0 
0.3540842923091122 0.0 0.0 0.6965887235374583 0.0 0.0 1.0 0.5 0.3781565495985169 0.0 1.0 0.0 0.0 0.0 0.0 0.0 0.0 0.0 3711:1.0 3848:1.0 2484:1.0 24:1.0 3708:1.0 1372:1.0 
0.3215600889114936 0.5213023666380401 1.0 1.0 0.5658422532127791 0.6910249607478685 1.0 0.49411707835672336 1.0 0.0 0.5613061043379797 0.0 0.34153754101694134 0.0 0.0 0.0 0.41249010967472177 0.0 1:2.0 592:1.0 594:1.0 828:1.0 24:1.0 978:1.0 43:1.0 28:1.0 2203:1.0 14:1.0 153:1.0 105:1.0 6313:1.0 
0.388176648402523 0.3688757415555972 0.6026392505505529 0.8830030440352208 0.47697993744337863 0.5273204743089625 1.0 0.6299505298963614 0.6676490253687957 0.5475784405598759 1.0 0.20934959289893082 0.5404039765957441 0.0 0.0 0.21535613144392485 0.23985610782959627 0.0 4652:1.0 286:1.0 4505:1.0 24:1.0 1644:1.0 6211:1.0 6376:1.0 26:1.0 575:1.0 81:1.0 3981:1.0 10:1.0 872:1.0 
0.5567679708974526 0.3370882750099249 0.0 1.0 0.5861325149795082 0.5524127538296917 1.0 1.0 1.0 0.6903828724459482 1.0 0.2835529840211445 0.5478673286928345 0.0 0.0 0.0 0.46555418654042113 0.0 6431:1.0 220:1.0 594:1.0 1919:1.0 2120:1.0 34:1.0 6432:1.0 
0.4634713431730673 0.6895768237498899 1.0 1.0 1.0 1.0 1.0 1.0 1.0 1.0 1.0 0.6615694974615833 1.0 0.5945011397236464 0.4047529124310812 0.4563238179618079 0.5066262981333115 0.0 56:1.0 2646:1.0 2681:1.0 883:1.0 1820:1.0 24:1.0 6449:1.0 2495:1.0 411:1.0 
0.4590879277087448 0.6550220651322132 1.0 1.0 0.7084522519555958 1.0 1.0 0.7760424577745316 1.0 0.3906607904631755 0.11344386626145318 0.212016506668979 0.5368352265584255 0.28122482616015015 0.19596424303343893 0.33423867669126994 0.1922228794297199 0.21407096307274537 1:5.0 3046:1.0 3210:1.0 24:1.0 6457:1.0 84:1.0 14:2.0 6458:1.0 2955:1.0 34:2.0 163:1.0 28:1.0 158:1.0 6459:1.0 1413:1.0 454:1.0 3842:1.0 6460:1.0 
0.5236694243208365 1.0 1.0 1.0 0.8930788710392935 1.0 1.0 1.0 1.0 0.4696209222675588 1.0 0.0 1.0 0.0 0.0 0.0 0.0 0.0 1:2.0 1864:1.0 439:1.0 1114:1.0 24:1.0 429:1.0 
0.26343138561560614 0.6629117249900751 0.7112503606808771 1.0 0.0 0.574954286804917 1.0 0.3589892232355707 0.4655811938865527 0.3328902700926543 1.0 0.0 0.1979342875880081 0.0 0.2506891170090506 0.5823371105176302 0.22345592991761654 0.0 536:1.0 86:1.0 102:1.0 28:1.0 53:1.0 1855:1.0 3334:1.0 2217:1.0 24:1.0 583:1.0 1856:1.0 327:1.0 
0.5439645956460053 1.0 0.7513102649361 1.0 0.4968984836131284 1.0 1.0 0.6497344140352541 0.6566143719416786 0.5593452134112222 1.0 0.0 1.0 0.32223351113396576 0.0 0.5523448415415879 0.22768745631050333 0.0 28:1.0 3517:1.0 19:1.0 883:1.0 24:1.0 1:1.0 3063:1.0 61:1.0 1612:1.0 10:1.0 6497:1.0 1213:1.0 
0.5408119545794048 0.37193759917084146 0.0 1.0 0.540855755248657 0.5447988308232632 1.0 1.0 1.0 0.6105063066332181 1.0 0.3574236817761332 0.5478811878749621 0.0 0.0 0.0 0.46555418654042113 0.0 1320:1.0 3053:1.0 286:1.0 2670:1.0 24:1.0 1:1.0 6512:1.0 
0.5496143867942443 0.4040281078284656 0.4114506162589528 1.0 0.5623899308487733 0.5156454688184756 1.0 0.6324709636696412 0.578308009634232 0.4913703816247498 1.0 0.3919113143626789 0.5191288569381514 0.2519888906624611 0.21042522202216238 0.28384735700725056 0.20786568394037794 0.0 6550:1.0 5583:1.0 6551:1.0 2200:1.0 5343:1.0 1:1.0 1704:1.0 6552:1.0 10:1.0 28:1.0 3844:1.0 
0.6445857051413153 1.0 1.0 1.0 1.0 1.0 1.0 1.0 1.0 0.5076301842549639 0.42174453617187385 0.26039273176563626 1.0 0.0 0.0 0.3107096860779416 0.25339922558568895 0.0 1:2.0 3624:1.0 47:1.0 1591:1.0 34:1.0 4407:1.0 650:1.0 1911:1.0 
0.5911266705652509 0.42665592595518037 0.3610329123700521 1.0 0.5550496046145116 0.5749030019942923 1.0 0.6433423243037324 0.7319194881041999 0.6284470111449224 1.0 0.3785905645129128 0.601346233620829 0.0 0.23846302260536878 0.25482617618536885 0.37939090093848665 0.0 6561:1.0 6562:1.0 81:1.0 6563:1.0 985:1.0 594:1.0 2581:1.0 34:1.0 6564:1.0 3063:1.0 
0.36040001368109453 0.33920853047560007 0.32423442116024603 0.8364115365686384 0.5141335063895225 0.4843545311815244 1.0 0.3502655859647459 0.42148482032486134 0.45130278987105443 1.0 0.19953257890532725 0.36043299909343884 0.3570793783789171 0.12497637457036145 0.17998210160772046 0.15441367643990153 0.0 26:2.0 3331:1.0 188:2.0 1:2.0 5697:1.0 454:1.0 6589:1.0 1253:1.0 713:1.0 6590:1.0 86:1.0 3210:1.0 24:1.0 485:1.0 6591:1.0 6592:1.0 
0.38171135211726664 0.2702040347407345 1.0 1.0 0.5678671629758644 0.56818946495971 1.0 0.5058829216432766 1.0 0.47775310313026964 0.5030001379356457 0.0 1.0 0.0 0.0 0.0 0.0 0.0 1:1.0 1867:1.0 780:1.0 47:1.0 88:1.0 24:1.0 28:1.0 6593:1.0 4782:1.0 34:1.0 3046:1.0 
0.0 0.0 0.27456236607959034 0.0 0.0 0.4945891659326028 1.0 0.0 0.2680805118958001 0.0 0.41892358795881407 0.5610437247928124 0.0 0.0 0.443659656358445 0.0 0.0 0.0 330:1.0 694:1.0 241:2.0 3821:1.0 24:1.0 6607:1.0 
0.3198749211880695 0.5253953970726055 0.6715300507025558 0.47752820901849213 0.5050193838974869 0.44788403291849727 1.0 0.594770514860205 1.0 0.4811148291990729 1.0 0.20739409907856785 0.3740240118223507 0.0 0.0 0.15936339822761758 0.0 0.0 157:1.0 6633:1.0 127:1.0 2002:1.0 22:1.0 102:1.0 1:1.0 179:1.0 10:1.0 28:1.0 855:1.0 1816:1.0 6634:1.0 
0.5638313733657017 0.653739444176965 1.0 1.0 1.0 1.0 1.0 1.0 1.0 0.25693139173663904 0.47929008914411775 0.0 0.7059727739653088 0.0 0.0 0.3755422520925327 0.0 0.0 1:2.0 1880:1.0 6640:1.0 2098:1.0 6:1.0 1531:1.0 4046:1.0 34:1.0 908:1.0 
0.5143624326996061 0.4827947157221318 1.0 1.0 0.580582373272692 0.7291984845132544 1.0 0.6687670740739451 1.0 0.3969861748239435 1.0 0.4838976210674669 0.5571026352245715 0.0 0.0 0.0 0.23984605799470746 0.0 1:1.0 2220:1.0 306:1.0 47:1.0 1326:1.0 34:1.0 597:1.0 1518:1.0 
0.551568391834737 0.32978750331756224 0.21621265351537572 1.0 0.5063241452238593 0.5763243387322592 1.0 1.0 0.5925216140528593 0.5791541796214723 1.0 0.2637972425442656 0.5224431569331015 0.0 0.0 0.2608460598254318 0.4697286326928803 0.0 6664:1.0 2599:1.0 878:1.0 2274:1.0 34:1.0 5778:1.0 629:1.0 350:1.0 
0.4823947477543272 0.43276974840281357 0.557174987979661 1.0 0.31114677798784884 1.0 1.0 0.5233975350366284 0.6889048672251048 0.6240386626502578 1.0 0.0 0.617405660477835 0.0 0.7177898911990499 0.4124042736404085 0.2833614073527417 0.0 113:1.0 3237:1.0 1647:1.0 47:1.0 88:1.0 24:1.0 7:1.0 6239:1.0 6665:1.0 
0.4911137095298175 0.3327493376362399 0.26070378567594765 1.0 0.45914424475134297 0.5093106422022518 1.0 0.6608347028061721 0.6218434504014831 0.5955939675834943 1.0 0.35674849556993976 0.44721500914805523 0.0 0.1821936954287232 0.21547370123095194 0.34197010899781854 0.0 6676:1.0 6677:1.0 6678:1.0 86:1.0 87:1.0 439:1.0 24:1.0 1:1.0 429:1.0 
0.5224396303183816 0.4926612636289167 1.0 1.0 0.6197549082822695 1.0 1.0 0.5983283503472492 1.0 0.3477038662781918 0.5499864802565555 0.349599616530481 0.477684655034185 0.22422525537078453 0.5080873646575362 0.3616036659089297 0.2040617794461123 0.0 1:2.0 6128:1.0 150:1.0 112:1.0 6683:1.0 22:1.0 102:1.0 6288:1.0 10:1.0 28:1.0 6067:1.0 1443:1.0 
0.0 0.0 0.0 0.29333411627855305 0.0 0.0 1.0 0.0 0.0 0.0 0.0 0.0 0.0 0.0 0.0 0.0 0.0 0.0 298:1.0 1032:1.0 1:2.0 6684:1.0 5394:1.0 10:1.0 2584:1.0 6685:1.0 22:1.0 878:1.0 1768:1.0 7:1.0 
1.0 1.0 1.0 1.0 1.0 0.3615343796866495 1.0 1.0 1.0 1.0 1.0 0.4986681430046943 0.7051558897843364 0.0 0.33950661468659343 0.36896523000498077 0.5770910814790091 0.0 10:1.0 2001:1.0 1321:1.0 753:1.0 1757:1.0 375:1.0 86:1.0 87:1.0 1393:1.0 24:1.0 1:1.0 6704:1.0 
0.388480833389355 0.3921985326483093 0.2721899753504214 0.6541241460900729 0.419417626727308 0.43950958639962157 1.0 0.4506558429478298 0.422130497753928 0.31031986390121075 1.0 0.3801155683396244 0.4673381171919445 0.25605612878522815 0.31189386037775557 0.34640800346267087 0.24576792299188094 0.0 2336:1.0 4154:1.0 6741:2.0 6742:1.0 384:1.0 24:1.0 127:1.0 1037:1.0 2120:1.0 1968:1.0 1361:1.0 
0.587398088919717 0.398218081142774 0.0 1.0 0.5408694370617998 0.5658488676131381 1.0 1.0 1.0 0.5239813081813431 1.0 0.3155823018181125 0.5478950474076433 0.0 0.0 0.0 0.46555418654042113 0.0 6771:1.0 19:1.0 1463:1.0 138:1.0 34:1.0 1:1.0 1801:1.0 
0.36682713908890663 0.271069238264531 0.37333126307020537 0.4755868889219156 0.2686974032712506 0.2512634205540053 1.0 0.29570511576856306 0.2920735848156973 0.3697288783594459 0.6959446535650093 0.14964071942681648 0.38061406219049465 0.21710151630660043 0.17718598393257026 0.2749131517592717 0.1654921847984159 0.0 234:1.0 250:1.0 619:2.0 2198:1.0 229:1.0 43:1.0 1:2.0 6780:1.0 434:1.0 594:1.0 439:1.0 89:1.0 24:1.0 4964:1.0 36:1.0 824:1.0 188:1.0 6781:1.0 
0.5006041413447848 0.5043294044895915 1.0 1.0 0.5183415758993118 0.7873799567926132 1.0 0.6954579275433544 1.0 0.46992067378997365 0.9877093459926805 0.0 0.505095219104789 0.0 0.0 0.0 0.2048920648411282 0.0 1:1.0 3096:1.0 47:1.0 88:1.0 24:1.0 28:1.0 53:1.0 2117:1.0 
0.0 0.0 1.0 1.0 0.16258561913406042 0.0 1.0 0.0 0.399572092951265 0.0 0.0 0.18222540491238562 0.6951310751507342 0.0 0.0 0.0 0.0 0.0 1:1.0 849:1.0 1867:2.0 3997:1.0 19:1.0 2581:1.0 34:2.0 28:1.0 1036:1.0 2157:1.0 5928:1.0 7:1.0 836:1.0 
0.21148872103935587 1.0 1.0 0.47379708097075884 0.26746144348600787 1.0 1.0 0.2986771249757214 1.0 1.0 1.0 0.0 1.0 0.0 0.0 0.3133815827714829 0.4428416764313665 0.0 28:2.0 870:1.0 384:1.0 24:1.0 5085:1.0 188:1.0 1:1.0 5083:1.0 
0.2993249693447772 0.8483160549241093 0.7289717604790577 0.9220186982422502 0.6228541648528103 0.17214033532672235 1.0 0.22023546982513661 1.0 0.14354778805694174 0.8144406917773218 0.14442129564388623 0.8280465532875355 0.06301097690024007 0.07158894507476721 0.07799646030957569 0.15968580685660722 0.0 443:1.0 1:3.0 1388:1.0 1255:1.0 22:1.0 6816:1.0 594:1.0 1051:1.0 595:1.0 6817:1.0 1075:2.0 19:1.0 102:1.0 103:1.0 6818:1.0 81:2.0 4488:1.0 990:1.0 355:1.0 6819:1.0 
0.593499226020693 0.52203976751681 1.0 1.0 0.6453412465679202 1.0 1.0 1.0 1.0 0.645172687624823 0.4950871824114287 0.29096507456408427 0.6595970027509764 0.1687242090303123 0.0 0.0 0.3237217605641842 0.0 1:2.0 2577:1.0 6:1.0 1591:1.0 3729:1.0 875:1.0 6833:1.0 24:1.0 2957:1.0 6834:1.0 1879:1.0 
1.0 1.0 1.0 1.0 1.0 1.0 1.0 1.0 1.0 0.4459247937153833 1.0 0.6488782675318349 1.0 0.0 0.0 0.6161738867188371 0.0 0.0 1:1.0 2909:1.0 735:1.0 24:1.0 6851:1.0 2011:1.0 
0.4358473123579426 1.0 1.0 1.0 0.5958297719368751 1.0 1.0 1.0 1.0 0.0 0.0 0.0 1.0 0.0 0.0 0.0 0.0 0.0 1:2.0 3541:1.0 19:1.0 3726:1.0 24:1.0 5064:1.0 
1.0 0.6135586279565943 1.0 1.0 1.0 1.0 1.0 1.0 1.0 0.4460492968992173 0.5503745826450502 0.3121059028743671 1.0 0.0 0.0 1.0 0.2538795560148386 0.0 1:2.0 2536:1.0 1113:1.0 1320:1.0 286:1.0 1802:1.0 24:1.0 4254:1.0 
0.2065742125392697 0.3724831986071655 0.6514092613300969 0.5715699618559187 0.19229162108033127 0.7246624349514255 1.0 0.3675290363303588 0.5913793489386319 0.40308857997361147 0.7364364242191228 0.1560270547732775 0.0 0.0 0.20163444536364664 0.2742739212486235 0.1575180901156447 0.0 330:1.0 3161:1.0 883:1.0 1:2.0 3037:2.0 24:1.0 739:1.0 1679:1.0 
0.41821582841972527 1.0 1.0 1.0 0.459001775960146 1.0 1.0 0.5948541991284103 1.0 0.5850828252681166 0.6798388676465308 0.28762382843125023 0.49107791391786715 0.1957523004004109 0.0 0.4639562447377731 0.2545128680584786 0.0 1:2.0 2597:1.0 19:1.0 789:1.0 28:1.0 4378:1.0 24:1.0 3602:1.0 2094:1.0 14:1.0 681:1.0 
0.49298251419628814 0.6126297814655262 1.0 1.0 0.6631892623518985 0.7322146512732974 1.0 0.5996744066383837 1.0 0.4591889659932833 1.0 0.0 0.5601020180006088 0.0 0.0 0.26370214944763043 0.3121569240071057 0.0 1:1.0 6921:1.0 6922:1.0 19:1.0 1032:1.0 103:1.0 28:1.0 6923:1.0 3:1.0 1577:1.0 1097:1.0 
0.22690089678889946 0.4776077752733674 1.0 1.0 0.40804442795404794 0.5425196148236662 1.0 0.3964664763298674 1.0 0.3018684927061652 0.31251650624095184 0.0 0.3043907938938191 0.19657087721482847 0.0 0.10518263720260951 0.15644872285798525 0.0 1:3.0 1918:1.0 1919:1.0 1920:3.0 34:1.0 113:1.0 817:1.0 26:1.0 102:2.0 10:2.0 28:2.0 1921:2.0 22:1.0 1075:1.0 
0.22797367343091618 0.6901244171357949 0.3702605188504555 0.5104283356873172 1.0 0.20905855805003504 1.0 0.39265590506975123 0.330974875662121 0.39393884778279165 0.7046309474171003 0.4389562752071876 0.3226946190788507 0.0 0.0 0.0 0.0 0.0 298:1.0 883:1.0 2256:1.0 24:1.0 1:1.0 3532:1.0 3856:1.0 3523:1.0 6939:1.0 
0.43167489305178497 0.2016819735576526 0.0 0.0 0.0 0.0 1.0 0.7589274217607825 0.0 0.0 1.0 0.0 0.0 0.0 0.31449911567348426 0.0 0.5556362138715174 0.0 53:1.0 4871:1.0 3836:1.0 88:1.0 24:1.0 1:1.0 1131:1.0 6948:1.0 1218:1.0 
0.4672417840267945 0.5205924196116307 1.0 1.0 0.5733588762257535 0.775787664082502 1.0 0.7099014914437414 1.0 0.42853176962482453 1.0 0.0 0.5496892416905662 0.0 0.0 0.0 0.2604527951949269 0.0 1:1.0 6969:1.0 1155:1.0 1802:1.0 24:1.0 56:1.0 350:1.0 464:1.0 6970:1.0 5625:1.0 
0.27525338456450793 0.0 1.0 1.0 0.5714475305293221 1.0 1.0 0.6305734803816622 1.0 0.0 0.0 0.0 0.2966084757697244 0.0 0.40969649165969424 0.0 0.0 0.0 1:2.0 53:1.0 2092:1.0 47:1.0 2392:1.0 34:1.0 584:1.0 6990:1.0 
0.5443756984812419 0.3269823171333017 0.2521927530676475 1.0 0.4591305629382002 0.6024337705396818 1.0 0.6397564508071436 1.0 0.5995817498424371 1.0 0.0 0.4488848183669061 0.0 0.0 0.0 0.3009228699110582 0.0 1334:1.0 5739:1.0 1331:1.0 34:1.0 1:1.0 468:1.0 1332:1.0 10:1.0 876:1.0 
0.24030623050505492 0.16813250031517696 0.46390940131663094 0.586034145227141 0.37541830609946114 0.30171386220604723 1.0 0.29539869331426216 0.32064403073271697 0.157532444946153 0.6453211287603526 0.07243285430531382 0.39149453728296624 0.0 0.16548397725362451 0.1777572144003664 0.12791936441184953 0.0 34:1.0 1716:1.0 1:1.0 1303:1.0 330:1.0 1032:1.0 28:1.0 7012:1.0 24:1.0 197:1.0 1775:1.0 4894:1.0 81:1.0 1782:1.0 96:1.0 1457:1.0 22:2.0 2415:1.0 4103:1.0 14:1.0 7013:1.0 3094:2.0 1522:1.0 
0.399221875568273 0.1991480946412251 0.18904925744590276 0.8721698486288063 0.4153902117883032 0.3705187306505914 1.0 0.4970495592855613 0.6280199847718732 0.33694553407848327 1.0 0.38889085880610474 0.320374590420482 0.5933695077764369 0.2068222553652733 0.0 0.23288601836554212 0.0 4383:1.0 81:1.0 7019:1.0 311:1.0 286:1.0 1591:1.0 24:1.0 7020:1.0 36:1.0 4540:1.0 3591:1.0 327:1.0 
0.38263594990182165 0.3186447476005674 0.2887496393191229 1.0 0.5624067991730515 0.6083641773384244 1.0 0.5105257474142445 0.5785151796751387 0.4162484304374281 1.0 0.3919289410296909 0.5653068181991314 0.2299702059211869 0.19754236458470525 0.29657635532103677 0.1963062306742976 0.0 7026:1.0 4316:1.0 14:1.0 7027:1.0 712:1.0 86:1.0 87:1.0 2392:1.0 34:1.0 3576:1.0 51:1.0 
0.5776640464849343 0.6834574360382255 1.0 1.0 1.0 1.0 1.0 1.0 1.0 1.0 0.44532224561920924 0.3076562460839392 0.6120008452911477 0.0 0.0 0.2853439436038732 0.31562441427479904 0.0 1:2.0 7032:2.0 19:1.0 3776:1.0 24:1.0 621:1.0 
0.3752188459984852 0.0 0.0 0.855534819629059 0.0 0.4220799400773609 1.0 0.43346536476194375 0.43523009144157215 0.3162489706472163 1.0 0.0 0.38239213012746437 0.0 0.0 0.0 0.26895773502230824 0.0 769:1.0 286:1.0 2960:1.0 24:1.0 7048:1.0 61:1.0 4288:1.0 3041:1.0 
0.40618396815391683 0.4687926204414229 1.0 1.0 0.548365781662009 0.6549376524559993 1.0 0.3871919774573967 1.0 0.27538853224197624 0.6799238929597126 0.0 0.3537933916924542 0.13525212400721304 0.0 0.5238660848938441 0.3069112730514774 0.0 1:1.0 863:1.0 19:1.0 102:1.0 24:1.0 28:1.0 595:1.0 1156:1.0 650:1.0 840:1.0 1300:1.0 34:1.0 7051:1.0 3219:1.0 2754:1.0 112:1.0 1471:1.0 
0.2973049734981514 0.1643674044343342 0.0 0.5110051509468303 0.3999845977640788 0.42500084051311515 1.0 0.3291947561946723 0.2331578032076976 0.24235779113438774 0.6197543542451719 0.0 0.4114271455384695 0.36287178464070163 0.0 0.0 0.156720907223928 0.0 1867:1.0 102:1.0 1:1.0 4465:1.0 10:1.0 28:2.0 1075:1.0 422:1.0 656:1.0 19:1.0 1032:1.0 103:1.0 4857:1.0 
0.5853394682401623 0.0 0.0 0.48260946366413093 0.0 0.0 1.0 0.2155465236393938 0.0 0.0 1.0 0.0 0.34516156888956573 0.3834035869856321 0.0 0.0 0.0 0.0 720:1.0 713:1.0 2914:1.0 56:1.0 1359:1.0 47:1.0 4505:1.0 7118:1.0 24:1.0 1:1.0 350:1.0 
0.16482928300269944 0.19719539391221486 0.23336159658099678 0.8092544467811763 0.4368777799734578 0.30698893170682817 1.0 0.29026048393839793 0.4477405190315673 0.3159297842637082 0.8280814715230117 0.0 0.3546491410828243 0.0 0.1214119823022578 0.1513427639929762 0.18871387544711118 0.0 443:1.0 21:1.0 1278:2.0 10:2.0 28:1.0 1432:1.0 7123:1.0 157:1.0 102:1.0 1:2.0 6369:1.0 25:1.0 241:1.0 352:1.0 226:1.0 4292:1.0 112:1.0 
0.39754483374775174 0.0 0.0 0.34750428686785206 0.23089574929584697 0.0 1.0 0.24642992859176938 0.2590359134684432 0.0 0.614026196883235 0.0 0.32607872299580076 0.0 0.0 0.0 0.0 0.0 1236:1.0 286:1.0 4505:1.0 24:1.0 53:1.0 102:1.0 794:1.0 7126:1.0 22:1.0 7127:1.0 4688:1.0 98:1.0 152:1.0 
0.25260776801582524 0.46374666462608694 1.0 1.0 0.4234476942625669 0.829826635776652 1.0 0.325178540937832 1.0 0.19069420821415217 0.297802434937146 0.24153437290945373 0.24495833015180538 0.23608070922122548 0.14162175695502321 0.2509899834321409 0.21884097449076512 0.0 1:3.0 1432:1.0 7136:2.0 286:1.0 828:1.0 10:2.0 34:1.0 28:1.0 5973:1.0 3:1.0 730:1.0 112:2.0 32:1.0 1117:2.0 3909:1.0 346:1.0 14:1.0 
0.4785626072175525 0.601781918857226 0.0 0.9991487837231565 0.46679027670902334 0.5128110477806467 1.0 1.0 1.0 0.4566535145718696 1.0 0.0 0.5545545480397998 0.0 0.0 0.0 0.0 0.0 7182:1.0 7183:1.0 789:1.0 370:1.0 24:1.0 7184:1.0 1332:1.0 
0.5911542885748049 0.3515217920505661 0.0 1.0 0.547221898274877 0.4552011691767368 1.0 0.5541863565982452 0.44331169528562064 0.571107070033097 1.0 0.36421425869997925 0.6013913275987955 0.0 0.23061577525874002 0.0 0.3794641188319285 0.0 3702:1.0 1255:1.0 14:1.0 7222:1.0 7223:1.0 47:1.0 539:1.0 24:1.0 1:1.0 4650:1.0 
0.3747815553193246 0.0 0.0 0.7377929764551878 0.0 0.21664604180339797 1.0 0.387780978222441 0.3758624391449793 0.3096171275540518 1.0 0.0 0.2886333103543212 0.0 0.0 0.0 0.0 0.0 1439:1.0 143:1.0 409:1.0 3848:1.0 7224:1.0 24:1.0 127:1.0 1510:1.0 
0.6120451147853565 0.5229352294937042 1.0 1.0 0.5913554683403038 0.6879658124242171 1.0 0.6674573021625346 1.0 0.40884820376465725 1.0 0.0 0.5444449749836453 0.0 0.0 0.0 0.26182170352743317 0.0 1:1.0 1259:1.0 3718:1.0 475:1.0 6:1.0 88:1.0 24:1.0 723:1.0 754:1.0 
0.3202709136890805 0.4956705955104085 1.0 1.0 0.7281218700619723 1.0 1.0 0.5924143765848173 1.0 0.3172411475872424 0.5592406495360659 0.0 0.4910657964368307 0.2563517168815299 0.0 0.32999431550548436 0.31455456115459085 0.0 1:2.0 6750:1.0 361:1.0 59:1.0 594:1.0 4334:1.0 86:1.0 1230:1.0 497:1.0 24:1.0 950:1.0 
0.0 0.0 0.3485907386699031 0.0 0.0 0.48763761312835163 1.0 0.0 0.0 0.0 0.0 0.0 0.0 0.0 0.23536087987144322 0.0 0.0 0.0 330:1.0 1824:1.0 828:1.0 1:2.0 1879:1.0 24:1.0 3830:1.0 1830:1.0 
0.0 0.31836072911473523 0.21284793817788952 0.20213502341173112 0.0 0.16671515766473646 1.0 0.0 0.1746409023632816 0.0 0.3194246019012774 0.0 0.24483751006264315 0.0 0.0 0.0 0.0 0.0 330:1.0 1032:1.0 28:1.0 5970:1.0 24:1.0 241:1.0 7251:1.0 22:1.0 1399:1.0 89:1.0 34:1.0 1:2.0 1792:1.0 14:1.0 1828:1.0 
0.2815228683278844 0.4141044433069716 0.32859579140967243 0.578510613368874 0.0 0.0 1.0 0.45572446303085695 0.5508066232241112 0.0 1.0 0.0 0.0 0.0 0.0 0.26178700425541457 0.0 0.0 85:1.0 32:1.0 34:1.0 1487:1.0 4894:1.0 24:1.0 56:1.0 5638:1.0 
0.378096782237758 0.3000399503989114 1.0 1.0 0.3146647776178874 0.5095670678513873 1.0 0.32441758399871545 1.0 0.2547168982416054 0.5990107003283807 0.0 0.3566143270817598 0.19799845644564099 0.1367809334817011 0.15460420558895516 0.20848098802956577 0.0 1:1.0 1133:1.0 19:1.0 1032:1.0 24:1.0 28:3.0 2817:1.0 411:1.0 10:1.0 7271:1.0 680:1.0 330:1.0 245:1.0 990:1.0 1303:1.0 
0.3338498207945377 0.45843700329142756 1.0 1.0 0.8874764769122376 1.0 1.0 0.5021215993743636 1.0 0.0 0.31397143791402116 0.0 0.4195463238440099 0.0 0.0 0.0 0.0 0.0 1:2.0 4700:1.0 47:1.0 221:1.0 24:1.0 433:1.0 
0.23276187109128088 0.29260637605557127 1.0 1.0 0.5676715487337457 0.4965342449091844 1.0 0.26602950236907275 1.0 0.22601450871568807 0.46431596416298637 0.0981031424579707 0.3193736352535429 0.0 0.0990367394333598 0.190354152066609 0.19264270031395211 0.0 1:2.0 565:1.0 102:1.0 3165:1.0 10:1.0 28:2.0 1017:1.0 1921:1.0 422:1.0 652:1.0 2183:1.0 24:1.0 2513:1.0 411:1.0 22:1.0 47:1.0 656:1.0 315:2.0 6749:1.0 98:1.0 1798:1.0 4471:1.0 
0.5167004196915316 0.0 0.0 0.5135693733562623 0.3362429586920389 0.4478379358804979 1.0 0.5080966260831228 0.0 0.5477144986005885 0.5512755039217514 0.0 0.30684135872666474 0.0 0.0 0.0 0.1613873302989954 0.0 544:1.0 85:1.0 86:1.0 3210:1.0 24:1.0 28:1.0 2538:1.0 59:1.0 47:1.0 1047:1.0 5846:1.0 2046:1.0 146:1.0 
0.4830453402238779 1.0 1.0 1.0 1.0 1.0 1.0 1.0 1.0 0.5567023994329573 0.6479419630652659 0.3876436340298633 0.5922550072939377 0.0 0.0 0.27483025057035265 0.27526591268360795 0.0 1:2.0 4287:1.0 594:1.0 539:1.0 24:1.0 595:1.0 1186:1.0 1168:1.0 7338:1.0 
0.21977008719819846 0.5074735606943545 0.39119251441763137 1.0 0.6637570413079611 1.0 1.0 0.6454757071859001 0.5288996670896443 0.429839125577131 1.0 0.0 0.4362464971862842 0.0 0.0 0.43277386347561053 0.0 0.0 11:1.0 7339:1.0 4349:1.0 480:1.0 6:1.0 87:1.0 1230:1.0 34:1.0 1:1.0 908:1.0 
1.0 1.0 1.0 1.0 1.0 1.0 1.0 1.0 1.0 0.4217029886863971 0.05769020324385837 0.38833764852760755 1.0 0.43398760965382427 0.0 0.6349908538448313 0.433015619111675 0.0 1:3.0 1394:1.0 828:1.0 318:1.0 645:1.0 24:1.0 7354:1.0 
0.5652222655964927 0.20383193325240861 0.21978970170263668 0.7431707463726585 0.3576788566930569 0.3825426579413429 1.0 0.4720223432504885 0.6467504258959987 0.2598136210057478 1.0 0.0 0.2553627389404257 0.0 0.0 0.0 0.14894597967803566 0.0 7285:1.0 443:1.0 3848:1.0 1:2.0 5291:1.0 47:1.0 2509:1.0 24:1.0 2373:1.0 1791:1.0 
0.1043325039467021 0.23498299016234075 0.0 0.2996561846759538 0.22017166766375984 0.18593272448203768 1.0 0.25506195884511507 0.31661225498075496 0.31429622715268923 0.4969773592382869 0.0 0.09948435196377771 0.0 0.11395824924983575 0.17252745825905136 0.0 0.0 330:1.0 1550:1.0 1:4.0 2031:1.0 24:2.0 7383:1.0 7009:1.0 14:1.0 241:1.0 421:1.0 22:1.0 2049:1.0 2149:1.0 4839:1.0 3622:1.0 
0.36729842089749803 1.0 0.6593331563939869 1.0 0.7307003413342327 0.7122930333894952 1.0 0.4497548852712592 0.6338577033388617 0.0 0.20056165083683652 0.0 0.33647835018432276 0.0 0.4695528992409411 0.2773223896140112 0.5605546011957432 0.0 583:2.0 2994:1.0 6:1.0 2375:1.0 1156:1.0 414:1.0 5028:1.0 
0.4886105140792649 1.0 0.0 0.47369132495907473 1.0 0.2662952350901517 1.0 0.6122190217775589 1.0 0.6412405419795439 1.0 0.0 0.6551576889910682 0.0 0.0 0.0 0.28128705882143584 0.0 988:1.0 442:1.0 1023:1.0 19:1.0 3889:1.0 34:1.0 1:1.0 2733:1.0 
0.5836072692079749 0.4266697415887022 0.3835086273805105 1.0 0.5589224036270576 0.6231893018928045 1.0 0.5091316471577045 0.593118814858414 0.6369278663015303 1.0 0.313077770007213 0.5873783969393858 0.0 0.2598172941925137 0.289323656841217 0.4528691428338297 0.0 7434:1.0 19:1.0 739:1.0 24:1.0 28:1.0 2045:1.0 106:1.0 7435:1.0 7436:1.0 1075:1.0 
0.65063393104077 0.692421931413588 1.0 1.0 1.0 1.0 1.0 1.0 1.0 0.5122933743903566 0.5325801954361825 0.34916923314004555 1.0 0.0 0.0 0.0 0.2690708313967615 0.0 1:2.0 7500:1.0 7501:1.0 286:1.0 735:1.0 24:1.0 3642:1.0 1520:1.0 
0.37685423220803604 0.6627192562103636 1.0 1.0 1.0 1.0 1.0 0.5729615214800575 1.0 0.4093029404621684 0.36284422600363275 0.0 0.49490478089521095 0.0 0.0 0.21411695727523564 0.0 0.0 1:2.0 565:1.0 32:1.0 3267:1.0 34:2.0 1919:1.0 2254:1.0 1673:1.0 411:1.0 
0.4221224369423071 1.0 0.44282501202033897 0.5318431831215523 0.5344318436927521 0.6793035535298793 1.0 0.8294688862465319 1.0 1.0 1.0 0.0 1.0 0.3260752553464973 0.0 0.4867923232412215 0.0 0.0 28:1.0 2031:1.0 19:1.0 1531:1.0 34:1.0 583:1.0 853:1.0 10:1.0 1:1.0 1293:1.0 
0.18358969733258898 0.3449779348677869 0.3236417005341661 0.4747797313427018 0.22551007666772305 0.44942428330566814 1.0 0.19824818238316744 0.308466319921857 0.35591688029818 1.0 0.0 0.19427661056182613 0.19848055595094705 0.1661734879951913 0.36709209772558127 0.08922186194501996 0.0 536:1.0 102:1.0 1:3.0 3644:1.0 10:1.0 28:2.0 745:1.0 1499:1.0 36:1.0 3177:1.0 14:2.0 70:1.0 5486:1.0 7526:1.0 
1.0 0.6583494078699585 1.0 1.0 1.0 1.0 1.0 1.0 1.0 0.5527090902152723 1.0 0.145101732953091 0.4206332450246625 0.6004719686052409 0.0 0.21465647111343725 0.2735817538423256 0.0 188:1.0 1:3.0 817:1.0 3113:1.0 14:1.0 2674:1.0 7529:1.0 2495:1.0 694:1.0 821:1.0 24:1.0 177:1.0 
0.6114129740499818 0.33386504145385354 0.0 1.0 0.5408831192211141 0.5011902616580877 1.0 1.0 1.0 0.5560243251745427 1.0 0.3384305025384167 1.0 0.0 0.0 0.0 0.28385726223873115 0.0 951:1.0 7535:1.0 2114:1.0 6569:1.0 24:1.0 1:1.0 1333:1.0 
0.28845504728103427 0.0 0.0 0.2929509374736075 0.3194507711071926 0.0 1.0 0.4945368908606739 0.0 0.30020882579313435 1.0 0.2631580683162976 0.4555724194439531 0.0 0.21747401007793696 0.0 0.37787838545123903 0.0 849:1.0 5402:1.0 286:1.0 3776:1.0 24:1.0 1196:1.0 7545:1.0 1645:1.0 1351:1.0 3:1.0 1519:1.0 5067:1.0 7546:1.0 
0.3295038922403847 0.41671509378825755 1.0 1.0 0.4141399746626243 0.6089525638165535 1.0 0.5132425788704676 1.0 0.21226392384018317 0.4134683907965782 0.0 0.432149374089989 0.0 0.0 0.0 0.15474233666211273 0.0 1:2.0 1271:1.0 14:1.0 2:1.0 47:1.0 11:1.0 180:1.0 81:1.0 3400:1.0 1456:1.0 301:1.0 7551:1.0 103:1.0 28:1.0 3429:1.0 
0.21473094486679567 0.31420854179218594 0.3049105970049233 0.6239723111510931 0.314326275802813 0.2503679637155414 1.0 0.3367359897601496 0.29839504850282556 0.2551404697224099 0.8363603794460198 0.26854617453599405 0.2845761646817443 0.0911630736024513 0.1776855451979089 0.15265793645935766 0.15896346708364265 0.0 1972:1.0 7564:1.0 14:1.0 1:3.0 7565:1.0 694:1.0 4074:1.0 24:1.0 4291:1.0 10:1.0 28:1.0 7566:1.0 1536:1.0 34:1.0 6716:1.0 1791:1.0 61:1.0 1269:1.0 882:1.0 
0.34744033945418873 0.31503785495344244 0.3952897558920996 1.0 0.4400225679435238 0.42366455097262623 1.0 0.5081638283071745 0.5847818855957856 0.40935841793177963 1.0 0.41148561831855324 0.5893397985097608 0.2553250293252362 0.31205997454787504 0.3624643148365993 0.21936695946128704 0.0 3342:1.0 763:1.0 679:1.0 286:1.0 2885:1.0 24:1.0 1:1.0 433:1.0 772:1.0 34:1.0 1183:1.0 951:1.0 2665:1.0 
0.223395853059209 0.5172052842778683 0.0 0.39606673704073797 0.6417362936191109 0.0 1.0 1.0 0.4435526816506582 0.17135239758211476 1.0 0.6387097558579352 0.0 0.41201342741792124 0.0 0.26495746250353197 0.0 0.0 241:1.0 2277:1.0 6:1.0 3210:1.0 24:1.0 211:1.0 3496:1.0 2439:1.0 170:1.0 1:1.0 7579:1.0 1864:1.0 
0.5153000387521904 0.5432968383429637 1.0 1.0 0.5732418001153902 0.9628552927594489 1.0 1.0 1.0 0.4315552175346585 1.0 0.6353415526001315 0.522315344965815 0.0 0.0 0.0 0.2569691839043406 0.0 1:1.0 7631:1.0 7632:1.0 88:1.0 24:1.0 28:1.0 53:1.0 7633:1.0 
0.6395999863189055 0.6462338167842976 1.0 1.0 1.0 1.0 1.0 1.0 1.0 0.5313466845837732 1.0 0.2719511537416528 1.0 0.0 0.0 0.3762533759220516 0.25765863651096754 0.0 1:2.0 6212:1.0 1716:1.0 188:1.0 3821:1.0 34:1.0 7638:1.0 346:1.0 
1.0 1.0 1.0 1.0 1.0 1.0 1.0 1.0 1.0 1.0 0.6164496785927017 0.6321067917874377 1.0 1.0 0.0 0.0 0.0 0.0 1:2.0 327:1.0 1825:1.0 24:1.0 4125:1.0 
0.19336738517324198 0.6730176828666983 0.23535121863693906 0.48996495034859566 0.37356199869068096 0.26260110121831515 1.0 0.3280900866300559 0.4199249657467231 0.23743806891825986 0.6371557739963672 0.16067997182372257 0.2487055825928481 0.15323122386237348 0.2024211767302989 0.13629604082011065 0.2465550929173656 0.0 196:1.0 1:2.0 950:1.0 1380:1.0 19:2.0 619:1.0 10:1.0 28:1.0 92:1.0 22:1.0 7656:1.0 1851:1.0 7657:1.0 26:1.0 7658:1.0 5044:1.0 777:1.0 
0.412601911080283 0.4783972820929375 0.0 0.8786255095094162 0.5040719041165553 0.2539940390069506 1.0 0.49503351496644865 0.43385635134227196 0.36543373911265126 1.0 0.5134378988301116 0.40286325194324757 0.0 0.0 0.24487240253048873 0.5872419194643349 0.0 1490:1.0 485:1.0 5018:1.0 1393:1.0 24:1.0 1:1.0 7692:1.0 1830:1.0 
0.7519756645852281 1.0 1.0 1.0 1.0 1.0 1.0 1.0 1.0 0.609590066365934 0.22651103259077116 0.4604936784623084 1.0 0.5111679772893742 0.4061996417330476 0.4324784116733378 0.24240619316398632 0.236827773503673 1:4.0 853:1.0 738:1.0 1906:1.0 1827:1.0 24:1.0 7698:1.0 650:1.0 850:1.0 2716:1.0 3534:1.0 
0.4993958586552152 0.5501294156829503 0.0 0.48899484905316964 1.0 0.5435373941760184 1.0 0.39029167894682687 0.2351718527167517 1.0 1.0 0.0 0.48637861233807744 0.317257967438726 0.0 0.0 0.0 0.0 1443:1.0 5395:1.0 88:1.0 79:1.0 24:1.0 448:1.0 350:1.0 112:1.0 3868:1.0 7708:1.0 
0.0 0.4151202357864185 0.5592952581752901 0.0 0.4502014071403067 1.0 1.0 1.0 0.5552886816829834 1.0 1.0 0.0 0.0 0.0 0.0 0.0 0.27257839021670427 0.0 56:1.0 140:1.0 1025:1.0 6:1.0 87:1.0 2127:1.0 34:1.0 28:1.0 3144:1.0 1063:1.0 2788:1.0 
0.20912199835467699 0.24063926627280963 0.2897000682057115 0.6215938526038127 0.3264393617671749 0.2038499010164953 1.0 0.253849439092556 0.3545115190015535 0.154780838061114 0.7080238668469674 0.10103535733407801 0.33631290019812954 0.15655087658094552 0.09107029939194669 0.18438431740529915 0.10365954904621008 0.0 443:1.0 157:1.0 3588:1.0 1398:1.0 1:2.0 2642:1.0 19:1.0 2486:2.0 10:1.0 28:3.0 1015:2.0 98:1.0 3057:1.0 22:1.0 7748:1.0 35:1.0 1401:1.0 3865:1.0 611:1.0 2059:1.0 
0.3891367642499133 0.30080141810740163 0.4511041334989811 0.836852622640284 0.43777690247745493 0.42509699800570766 1.0 0.3798048317521011 0.5816933117466732 0.3929976019040894 1.0 0.2801648524200152 0.4579804053354144 0.33513916517543824 0.2429660773148387 0.15115419091747828 0.21533797459198178 0.0 7784:1.0 81:1.0 4183:1.0 7785:1.0 814:1.0 6088:1.0 7786:1.0 1300:1.0 1:2.0 2294:1.0 24:1.0 682:1.0 411:1.0 
0.2127510871877243 0.6588158740246359 0.617708562894894 0.6428944862717365 0.4482274354710999 0.688114669077871 1.0 0.3940146290497707 0.4373314342810436 0.4049372439654355 1.0 0.24783941373054946 1.0 0.24359490089585228 0.28622352673248896 0.2895232208618085 0.26819954357154174 0.0 28:2.0 5625:1.0 10:2.0 1088:1.0 6:1.0 2801:1.0 539:1.0 457:1.0 34:1.0 563:1.0 1557:1.0 1351:1.0 3:1.0 7411:1.0 22:1.0 7808:1.0 7809:1.0 1047:1.0 3867:1.0 
0.4868218495438573 1.0 1.0 1.0 1.0 1.0 1.0 1.0 1.0 0.2683999521363433 0.28864852356690224 0.0 1.0 0.0 0.0 0.2796764245163395 0.0 0.0 1:2.0 1463:1.0 4361:1.0 3562:1.0 286:1.0 958:1.0 34:1.0 2328:1.0 
0.4223359535150657 0.6124870382288727 1.0 1.0 0.3675050151944402 1.0 1.0 0.7254319551143213 1.0 0.4580654751115304 0.7421161007738285 0.0 0.388337542556918 0.0 0.0 0.0 0.0 0.0 1:1.0 5393:1.0 4744:1.0 594:1.0 2392:1.0 34:1.0 900:1.0 7823:1.0 112:1.0 2024:1.0 
0.27909905407370594 0.1931015708396017 0.36089669853252315 0.45909803318285203 0.37714583514718975 0.3996618563676746 1.0 0.36504356987960385 0.39963336719343906 0.18086321555698434 1.0 0.0 0.21888351387499358 0.0 0.0 0.15619019416702215 0.18493474655374847 0.0 197:1.0 973:1.0 7836:1.0 7837:1.0 86:1.0 820:1.0 24:1.0 1:2.0 1815:1.0 4740:1.0 10:1.0 988:1.0 1417:1.0 692:1.0 
0.41156638315145766 0.15330964779393672 0.4210102336194339 1.0 0.3508344092189216 0.46257608976803066 1.0 0.5726413968843185 0.4711003329103557 0.336245244043811 1.0 0.33040405977633336 0.4790310933206515 0.0 0.0 0.0 0.23423212568928894 0.0 3240:1.0 594:2.0 3588:1.0 22:1.0 127:1.0 822:1.0 739:1.0 24:1.0 3652:1.0 
0.2523357855380738 0.15352734866304446 0.42904577908737385 0.4864306266437377 0.3241158175443717 0.30702160944532164 1.0 0.23445915246923876 0.292105747227242 0.3609996486318898 0.7260537248841167 0.11452564058937789 0.3000530007687783 0.09423012059812189 0.19684955866796422 0.15271313254379576 0.15357601456792785 0.0 1602:1.0 605:1.0 32:1.0 7:1.0 2003:1.0 1303:1.0 330:2.0 1032:1.0 28:3.0 556:1.0 24:1.0 1793:1.0 34:1.0 3505:1.0 7850:1.0 652:1.0 7851:1.0 4103:1.0 
0.4908350371713146 0.5558411011405746 1.0 1.0 0.6201813987570949 0.5598241659358828 1.0 0.6698520035522163 1.0 0.3229014377118717 0.6477156066949623 0.0 0.46093133250700213 0.0 0.0 0.0 0.23529845821161738 0.0 1:1.0 3472:1.0 6:1.0 87:1.0 439:1.0 24:1.0 228:1.0 53:1.0 349:1.0 
0.600778124431727 0.3003090766944383 0.5420060686290796 1.0 0.6000154022359212 0.4111546079782643 1.0 0.5749030207374963 0.5564473183493418 0.31987805824955273 1.0 0.0 0.4523989659370714 0.0 0.0 0.23588528714476736 0.36028528965506035 0.0 2213:1.0 988:1.0 3808:1.0 7:1.0 6:1.0 539:1.0 2011:1.0 24:1.0 59:1.0 2332:1.0 
0.6175213042375478 0.6735703160025259 0.0 0.34885618283966413 0.0 0.0 1.0 1.0 0.38147562518541966 0.5149507006346978 1.0 0.5971060581824434 0.5173800285272618 0.0 0.0 0.5292770020157415 0.5344458134595789 0.0 1849:1.0 1802:1.0 24:1.0 7908:1.0 2484:1.0 1720:1.0 
0.5772521050860028 0.42671235098833576 0.631612698867444 1.0 0.5648411732885324 0.5749298620183377 1.0 0.6118048510744136 0.5852752329404499 0.6370277269510644 1.0 0.36264192761569286 0.5793667549753375 0.3807764984777684 0.2598500690878766 0.294764692341851 0.4568357984516547 0.0 5670:1.0 1670:1.0 86:1.0 87:1.0 138:1.0 34:1.0 1:1.0 84:1.0 2213:1.0 4734:1.0 
0.31060405777427913 0.19066074229176533 1.0 1.0 0.24464882146358885 0.5468410340066625 1.0 0.3221486884932818 1.0 0.0 0.43266585007027836 0.0 0.29402722603469117 0.0 0.0 0.0 0.0 0.0 1:1.0 1666:1.0 86:1.0 2670:1.0 7918:2.0 24:1.0 485:1.0 6211:1.0 81:1.0 2787:1.0 1644:1.0 
0.6335825367701196 1.0 0.6590498281977878 0.6611584262326377 0.0 0.4801501900137342 1.0 0.31766202432050716 0.44471131831701655 0.27312770466911146 1.0 0.4269009136356902 1.0 0.0 0.5336857158082302 0.41766288948236985 0.0 0.0 28:1.0 1025:1.0 6:1.0 87:1.0 2392:1.0 34:1.0 1:1.0 1563:1.0 26:1.0 7375:1.0 
0.0 0.0 0.0 0.3094134021020944 0.0 0.0 1.0 0.0 0.0 0.0 0.41021598346335636 0.0 0.0 0.0 0.0 0.0 0.4555688938741901 0.0 298:1.0 694:1.0 28:1.0 3142:1.0 2970:1.0 24:1.0 1:2.0 2591:1.0 188:1.0 3158:1.0 
0.5123830409060659 1.0 0.7683316502231967 1.0 0.6201948729708165 1.0 1.0 1.0 1.0 0.730900745977494 1.0 0.0 1.0 0.3277980893271051 0.0 0.5759614493782145 0.0 0.0 28:1.0 2254:1.0 19:1.0 1896:1.0 34:1.0 1:1.0 1736:1.0 
0.5092209915364871 0.6022452651395844 1.0 1.0 0.5605843986700777 1.0 1.0 1.0 1.0 0.3915948594639622 1.0 0.7401505595969817 0.488082796893326 0.5529522202944186 0.0 0.3461810944380176 0.0 0.0 1:2.0 1260:1.0 34:1.0 382:1.0 1551:1.0 47:1.0 1317:1.0 24:1.0 597:1.0 297:1.0 
0.4166521104758694 0.34626055582303505 1.0 1.0 1.0 1.0 1.0 0.4051458008715897 1.0 0.0 0.0 0.0 0.39305333771533313 0.0 0.0 0.0 0.0 0.0 1:2.0 565:1.0 47:1.0 694:1.0 104:1.0 24:1.0 1466:1.0 
0.6105393833379662 0.40462359896202804 0.0 1.0 0.5408968017265057 0.4977073797403389 1.0 1.0 1.0 0.5315301449559423 1.0 0.3194856268805495 0.6335812728727832 0.0 0.0 0.0 0.36705318992456853 0.0 7981:1.0 1896:1.0 141:1.0 24:1.0 1:1.0 828:1.0 3214:1.0 
0.21181630502880303 0.3182518070646133 0.0 0.4623338553191074 0.24273739234091055 0.18857123943837426 1.0 0.35665767569626755 0.18079192148644357 0.2601232524625714 1.0 0.28187192618462487 0.2058522885441258 0.25362224480430645 0.4214970787426229 0.40266408176050983 0.29756875142881994 0.0 261:1.0 3663:1.0 170:1.0 184:1.0 86:1.0 87:1.0 2960:1.0 24:1.0 28:1.0 3691:1.0 1533:1.0 
0.4368988250155164 0.25205145910943016 0.27059316886626295 0.6479513684703369 0.4415755992477343 0.4722839448973602 1.0 0.4219365432861993 0.46811501010505674 0.42916021892755546 1.0 0.18790089298745732 0.38638462688589054 0.0 0.1562587032621565 0.15263645687395147 0.26892076301386747 0.0 8027:1.0 1248:1.0 86:1.0 87:1.0 439:1.0 24:1.0 28:1.0 745:1.0 5727:1.0 10:1.0 8028:1.0 3106:1.0 61:1.0 8029:1.0 8030:1.0 5531:1.0 84:1.0 
0.1420112482856082 0.6275012234550705 1.0 1.0 0.28164168964851016 0.42114183973136654 1.0 0.12258867200890916 1.0 0.13428317556736463 0.2838223591761192 0.0 0.3247101968201829 0.1073710597609544 0.18464976147244969 0.11029455581144171 0.14816573517855494 0.0 1:3.0 595:1.0 1828:1.0 1262:1.0 11:1.0 3609:1.0 10:2.0 28:2.0 876:1.0 3989:1.0 389:1.0 315:2.0 4116:2.0 391:1.0 422:1.0 19:2.0 2964:1.0 89:1.0 22:1.0 2370:1.0 98:1.0 682:1.0 8038:1.0 188:1.0 
0.611823351597477 1.0 1.0 1.0 1.0 1.0 1.0 1.0 1.0 0.4676702800758262 0.6079541976302084 0.0 0.7024241104215014 0.0 0.0 0.33751792293771415 0.22615143278488803 0.0 1:2.0 5220:1.0 47:1.0 4505:1.0 24:1.0 8041:1.0 1651:1.0 
0.7320851373395477 0.7297568207397229 1.0 1.0 1.0 1.0 1.0 1.0 1.0 0.4562804033478292 0.5099896087497026 0.3678932082125623 1.0 0.0 0.0 0.3762533759220516 0.262510840096349 0.0 1:2.0 7844:1.0 334:1.0 7500:1.0 6:1.0 1393:1.0 24:1.0 1828:1.0 
1.0 1.0 1.0 1.0 1.0 1.0 1.0 1.0 1.0 0.5560338516767538 0.0 0.6010994720527976 1.0 1.0 0.0 0.0 0.0 0.0 1:2.0 2294:1.0 735:1.0 24:1.0 2389:1.0 
0.3958325108770883 0.5677151944907759 0.4692449602305545 0.45803651806977663 0.3254186150003687 0.37509049949947953 1.0 0.40522948513979495 1.0 0.5340165976971504 1.0 0.2586645009185111 1.0 0.38902619268797367 0.0 0.0 0.20391133001830852 0.0 157:1.0 2107:1.0 1:2.0 3622:1.0 24:1.0 8063:1.0 599:1.0 258:1.0 8064:1.0 8065:1.0 
0.20478603913725127 0.3149918877629729 1.0 1.0 0.6214952530642591 0.40848673873963726 1.0 0.40155301110316505 1.0 0.0 0.45001351974344456 0.5317010988708138 0.34500683756846223 0.0 0.0 0.0 0.0 0.0 1:1.0 625:1.0 86:1.0 8067:1.0 4505:1.0 75:1.0 34:1.0 817:1.0 85:1.0 
0.0 0.0 0.5477720030168776 0.0 0.0 0.0 1.0 0.0 0.0 0.0 0.24599643051801345 0.0 0.0 0.0 0.35824486289612417 0.0 0.0 0.0 330:1.0 828:1.0 1:2.0 8096:1.0 140:1.0 24:1.0 1085:1.0 1822:1.0 
0.686338816814363 1.0 1.0 1.0 1.0 1.0 1.0 1.0 1.0 0.4877066256096434 0.48026629094314943 0.285171165704987 1.0 0.4749504563345206 0.2553167022999074 0.304435619162912 0.38911865539386975 0.0 1:3.0 5194:1.0 2133:1.0 4505:1.0 24:1.0 8107:1.0 7906:1.0 14:1.0 2977:1.0 2497:1.0 1651:1.0 
0.0 0.15170562289181805 0.6164913726194895 0.0 0.0 0.0 1.0 0.6151854471133258 0.0 0.0 0.0 0.0 0.0 0.0 0.0 0.0 0.0 0.0 298:1.0 86:1.0 694:1.0 2250:1.0 24:1.0 2599:1.0 4869:1.0 
0.5583612248521455 0.563017431396206 1.0 1.0 1.0 1.0 1.0 1.0 1.0 0.46654846423672214 0.4089995251074522 0.45950390627971516 1.0 0.4728542331453129 0.32115078286202725 0.38806550209855073 0.21884358797656958 0.0 1:3.0 1776:1.0 1797:1.0 6:1.0 102:1.0 182:1.0 24:1.0 744:1.0 349:1.0 14:1.0 28:1.0 698:1.0 
0.528146370324388 0.5078798249588644 1.0 1.0 0.4952129877856267 1.0 1.0 0.687179079785059 1.0 0.5163479028584488 1.0 0.21336734145185318 0.582400938672216 0.0 0.0 0.24934021638983567 0.27595914195869714 0.0 1:1.0 8118:1.0 8119:1.0 47:1.0 739:1.0 24:1.0 590:1.0 1673:1.0 1681:1.0 22:1.0 8120:1.0 411:1.0 
0.5562120282967707 1.0 1.0 1.0 1.0 1.0 1.0 1.0 1.0 0.43256992366813046 0.3914903493454724 0.0 1.0 0.0 0.0 0.0 0.0 0.0 1:2.0 2613:1.0 19:1.0 1646:1.0 24:1.0 3644:1.0 
0.45897498257590086 0.34883305795649067 1.0 1.0 0.5953601419825489 1.0 1.0 0.38481455288667415 1.0 0.0 0.0 0.0 0.4701245940570693 0.0 0.0 0.0 0.0 0.0 1:2.0 2127:1.0 1849:1.0 1802:1.0 24:1.0 7969:1.0 1506:1.0 373:1.0 
0.5153691635173339 0.48881685029483013 1.0 1.0 0.6805492288928074 1.0 1.0 0.6062437669018678 1.0 0.49236981574503613 0.5021083459372315 0.3927653020274528 0.6924466671515432 0.0 0.0 0.0 0.0 0.0 1:2.0 849:1.0 47:1.0 288:1.0 34:2.0 794:1.0 1063:1.0 1325:1.0 
0.5180483539048168 0.6118564469706287 0.5249363321695948 1.0 0.5444447208750933 0.626316693340883 1.0 1.0 1.0 0.610169578873915 1.0 0.2883571375784188 0.3769738996967449 0.0 0.25280647932166245 0.6630228656066877 0.3397893520617139 0.0 303:1.0 298:1.0 1646:1.0 1:2.0 8170:1.0 24:1.0 3642:1.0 1647:1.0 
0.483765702642456 0.5399560849179481 1.0 1.0 1.0 1.0 1.0 1.0 1.0 0.5836292914809535 0.5066001171628908 0.3612703931091761 0.5485696491946322 0.0 0.0 0.3141985003859107 0.32964420596905036 0.0 1:2.0 8189:1.0 1483:1.0 1393:1.0 34:1.0 8190:1.0 2201:1.0 36:1.0 4994:1.0 8191:1.0 
0.0 1.0 1.0 1.0 0.6634110284869167 0.6881904963870932 1.0 1.0 1.0 1.0 1.0 0.5390065377127505 0.6404068943435466 0.0 0.0 0.0 0.68117633680993 0.0 7:1.0 19:1.0 330:1.0 232:1.0 1906:1.0 762:1.0 24:1.0 1:1.0 1102:1.0 
0.628246211596265 0.5832849062117424 1.0 1.0 1.0 1.0 1.0 1.0 1.0 0.41412958901873553 0.2547168730447187 0.0 0.6216203938853815 0.46315566114962475 0.13541681769073002 0.44052643806657027 0.3519333764514343 0.0 1:3.0 343:1.0 14:2.0 671:1.0 6:1.0 1550:1.0 1325:1.0 24:1.0 8238:1.0 249:1.0 
0.1565836910364314 0.17664660507501045 0.29281364988588265 0.3864499990452367 0.20816568709624858 0.3344653214093606 1.0 0.19329970586099132 0.33645518847004685 0.22370207177369883 0.14434732887512017 0.06911855337140901 0.0 0.07789661300028089 0.06856492193948407 0.0 0.07161224574951375 0.0 1:1.0 3229:1.0 594:1.0 656:2.0 102:1.0 10:1.0 271:1.0 582:1.0 21:1.0 22:2.0 1032:2.0 103:2.0 14:4.0 28:2.0 1532:1.0 475:2.0 59:2.0 19:2.0 448:1.0 2126:1.0 98:1.0 291:1.0 127:2.0 1488:1.0 4375:1.0 1578:1.0 
0.2573825651049115 0.20937542389684943 1.0 1.0 1.0 0.49043293214861267 1.0 0.3312329259260549 0.7648281472832483 0.19659833675388438 0.46175186448579825 0.0 0.33418080643585873 0.0 0.290704418455403 0.0 0.0962324724893595 0.0 1:1.0 169:1.0 10:1.0 506:2.0 350:2.0 286:1.0 735:1.0 24:1.0 422:1.0 86:1.0 6125:1.0 7708:1.0 
0.306864681595816 1.0 1.0 1.0 0.29022554585934257 0.48925743398614063 1.0 0.4507203135299645 1.0 0.2573889788959981 1.0 0.0 0.3075533328484567 0.0 0.0 0.19810180957806758 0.0 0.0 1:1.0 177:1.0 594:1.0 102:1.0 24:1.0 28:1.0 3142:1.0 104:1.0 14:1.0 2975:1.0 828:1.0 6075:1.0 1766:1.0 
0.6953627078938509 0.522922778951359 1.0 1.0 0.6237126956000419 0.7078802214406471 1.0 0.6519405260453405 1.0 0.40100075510233874 0.9577420567089074 0.0 0.5193205054098735 0.0 0.0 0.0 0.24956338556007152 0.0 1:1.0 5022:1.0 594:1.0 102:1.0 24:1.0 4964:1.0 81:1.0 3441:1.0 643:1.0 
0.0 0.29856132759750614 0.2606106853155236 0.5376661446808926 0.0 0.0 1.0 0.0 0.0 0.0 0.5382906146963251 0.0 0.0 0.0 0.0 0.0 0.0 0.0 298:1.0 86:1.0 1877:1.0 79:1.0 34:1.0 5941:1.0 2439:1.0 1316:1.0 
0.6956403026666046 0.6607914695243999 1.0 1.0 1.0 1.0 1.0 1.0 1.0 0.3133923934643696 0.3025356685244518 0.5878033240871238 1.0 0.0 0.0 0.7042513570790456 0.0 0.0 1:2.0 3691:1.0 19:1.0 3364:1.0 24:1.0 314:1.0 4552:1.0 1533:1.0 
1.0 1.0 1.0 1.0 1.0 1.0 1.0 1.0 1.0 0.48833438233191867 0.49789165406276853 0.0 1.0 0.0 0.0 0.0 0.0 0.0 1:2.0 5899:1.0 411:1.0 735:1.0 24:1.0 8257:1.0 
0.24901008578204792 0.33733353408407074 0.3284699492974442 0.5262029190292412 0.4679892713954016 0.36490921598360926 1.0 0.32689601659051537 0.4183066882533268 0.39466004543638056 1.0 0.24882435853471835 0.49757952419794815 0.0 0.4017681069304667 0.17514069636500829 0.10799201185891391 0.0 371:1.0 56:1.0 1303:1.0 228:1.0 6952:1.0 1924:1.0 19:1.0 2486:1.0 10:1.0 28:1.0 1015:1.0 22:1.0 2145:1.0 188:1.0 8258:1.0 226:1.0 1166:1.0 34:1.0 7:1.0 
0.6504583893278465 0.4077651817359118 0.0 1.0 0.6673262665885226 1.0 1.0 1.0 1.0 0.5769791854118661 1.0 0.6425763182238668 0.6022132991411415 0.0 0.0 0.0 0.3521540468064385 0.0 866:1.0 86:1.0 88:1.0 24:1.0 28:1.0 53:1.0 2808:1.0 
0.7104217137705963 0.7073936239444287 1.0 1.0 1.0 1.0 1.0 1.0 1.0 0.48031856671924283 0.5446974600647796 0.3678932082125623 0.511917203106674 0.0 0.0 0.3762533759220516 0.22689958312696046 0.0 1:2.0 6288:1.0 1906:1.0 28:1.0 8265:1.0 24:1.0 2076:1.0 2282:1.0 
0.21268679844287378 0.5257737641348894 1.0 1.0 0.404710301013622 0.368274265112613 1.0 0.32687224573665374 1.0 0.23201339935688126 0.4553025399352204 0.0 0.31676452144680456 0.0 0.0 0.0 0.0 0.0 1:1.0 494:1.0 556:1.0 19:1.0 828:1.0 24:1.0 28:1.0 8266:1.0 81:2.0 454:1.0 8267:1.0 61:1.0 621:1.0 
0.4273260768855626 0.39533086724528665 1.0 1.0 0.45139561046384985 1.0 1.0 0.5126084130819205 1.0 0.0 0.0 0.0 0.45143035080536775 0.0 0.0 0.5945592712621515 0.0 0.0 1:2.0 3165:1.0 47:1.0 3848:1.0 24:1.0 831:1.0 1644:1.0 
0.47122886145187093 0.47774066046578123 0.5425254779845097 1.0 0.48882954123419486 0.6294812693494086 1.0 0.5279776567495116 0.4984877219837489 0.4414467049634966 1.0 0.3900934173575468 0.40391685483009526 0.23218904379824998 0.3119317422231239 0.27453585157497473 0.24775860727613064 0.0 3249:1.0 32:1.0 28:1.0 3360:1.0 22:1.0 1015:1.0 907:1.0 34:2.0 539:1.0 1443:1.0 8301:1.0 
0.544209344674776 0.34478989078544064 0.2228358032480595 1.0 0.4591168807788859 0.5822938070957686 1.0 0.6550431595117756 0.7409640865315568 0.57401594867938 1.0 0.4028939418175566 0.6373261240933897 0.0 0.17318128576828573 0.23255043218570506 0.26327290224051847 0.0 8305:1.0 3063:1.0 86:1.0 87:1.0 2375:1.0 24:1.0 1617:1.0 112:1.0 8306:1.0 
0.0 0.0 0.0 0.0 0.0 0.0 1.0 0.0 0.0 0.0 0.47234277744942516 0.0 0.0 0.0 0.0 0.0 0.0 0.0 2250:1.0 14:1.0 2244:1.0 286:1.0 3609:1.0 24:1.0 6263:1.0 10:1.0 910:1.0 
0.6376138450896061 0.35735683291101294 0.0 1.0 0.5111704587658051 0.4461904982305475 1.0 0.5504224823240688 0.35324957410400126 0.5161143908256037 1.0 0.23945077108567925 0.33183077079594775 0.0 0.0 0.2007591408098068 0.2673659110125662 0.0 1666:1.0 86:1.0 87:1.0 1458:1.0 2335:1.0 43:1.0 1:1.0 727:1.0 24:1.0 1410:1.0 50:1.0 1644:1.0 
0.0 0.0 1.0 0.0 0.0 0.33649169336380197 1.0 0.0 0.0 0.0 0.0 0.3017029224301696 0.0 0.0 0.0 0.0 0.0 0.0 330:1.0 1550:1.0 1:2.0 1551:1.0 24:1.0 1609:1.0 14:1.0 241:1.0 4987:1.0 
0.2753707147069981 1.0 0.27716493096879113 0.7941559090000964 0.6690664163803675 1.0 1.0 1.0 0.4315380084110583 0.6153222251837206 1.0 0.0 1.0 0.3959280494907709 0.0 0.5973359182394902 0.0 0.0 28:1.0 2922:1.0 231:1.0 19:1.0 1896:1.0 34:1.0 3472:1.0 
0.1825983329737193 0.0 1.0 1.0 0.0 0.0 1.0 0.0 0.9602669330950717 0.0 0.0 0.0 0.0 0.0 0.0 0.0 0.0 0.0 1:1.0 144:1.0 3013:1.0 286:1.0 4505:1.0 4119:1.0 34:1.0 127:1.0 4964:1.0 3542:1.0 
0.32040896210485775 0.0 0.0 0.5655888626179775 0.0 0.0 1.0 0.3072082147171446 0.6140290120972592 0.0 1.0 0.0 0.0 0.0 0.0 0.0 0.0 0.0 1522:1.0 7:1.0 1942:1.0 286:1.0 2509:1.0 24:1.0 2157:1.0 10:1.0 8404:1.0 
1.0 1.0 1.0 1.0 1.0 0.6702787857027974 1.0 1.0 1.0 1.0 1.0 0.3414922382206682 0.6549931624315377 0.0 0.39859109498497064 0.6713944911070887 0.6715607536376157 0.0 10:1.0 11:1.0 1445:1.0 2294:1.0 913:1.0 1300:1.0 4105:1.0 24:1.0 1:1.0 1651:1.0 
0.0 0.0 1.0 1.0 0.5992403314722329 0.31064484493794464 1.0 0.5400756674245066 1.0 0.0 0.32016113235346916 0.0 1.0 0.0 0.0 0.0 0.0 0.0 1:1.0 45:1.0 694:1.0 127:1.0 8412:1.0 24:1.0 8413:1.0 1086:1.0 
0.5858155953112467 0.3604303883265285 0.27089265987010214 1.0 0.45910319827349433 0.5823022614887342 1.0 0.6696956910984146 0.6625952498015156 0.5795264503208704 1.0 0.40290481292036395 0.4428973647754285 0.0 0.17801639946272965 0.24611630354244537 0.29250978701537766 0.0 8424:1.0 86:1.0 300:1.0 8425:1.0 61:1.0 5895:1.0 24:1.0 53:1.0 2117:1.0 
1.0 1.0 1.0 1.0 1.0 1.0 1.0 1.0 1.0 0.5224500969348794 0.424436785515912 0.3678932082125623 1.0 0.0 0.0 0.6426919518963923 0.2786836251634301 0.0 1:2.0 3836:1.0 286:1.0 794:1.0 8428:1.0 34:1.0 467:1.0 2238:1.0 
0.7129734052919802 1.0 1.0 1.0 1.0 1.0 1.0 1.0 1.0 0.43141073228545535 0.7580901287384328 0.0 1.0 1.0 0.0 0.23017763768949226 0.2578215218766117 0.0 1:2.0 1457:1.0 1458:1.0 140:1.0 24:1.0 2679:1.0 8455:1.0 
0.7672381289087191 0.7493388157083952 1.0 1.0 1.0 1.0 1.0 1.0 1.0 0.5086296183752502 1.0 0.36789320821263083 1.0 0.0 0.0 0.2981000933076082 0.3004233825514537 0.0 1:2.0 3042:1.0 8456:1.0 594:1.0 1591:1.0 24:1.0 669:1.0 1562:1.0 
0.57730831121715 0.4075999197532847 0.4007000780816479 1.0 0.5662572013541957 0.5749567232973061 1.0 0.5665346352380563 0.5626685657189564 0.5849535167639581 1.0 0.27907349702520545 0.6122359713812515 0.0 0.22259546940884117 0.34706086887661153 0.4329621040420084 0.0 7088:1.0 286:1.0 2509:1.0 24:1.0 1:1.0 1520:1.0 35:1.0 112:1.0 1401:1.0 1827:1.0 
0.36641746322988045 0.2676094417246618 0.0 0.9340537497741621 0.36120661494967365 0.3768106981071954 1.0 1.0 1.0 0.3750453352882926 1.0 0.0 0.42862511563367256 0.0 0.0 0.0 0.0 0.0 6793:1.0 86:1.0 237:1.0 300:1.0 818:1.0 24:1.0 1332:1.0 
0.4227478949139972 0.28219940567025215 0.5446801539103115 1.0 0.43031577637835816 0.42118438098135313 1.0 0.35249002452219913 0.5443929861842427 0.6378388680585158 1.0 0.12560779332004174 0.5149740789173223 0.27206257181737503 0.1326661201950054 0.38510567601484624 0.2763629267567077 0.0 557:1.0 3379:1.0 56:1.0 753:1.0 1:2.0 1557:1.0 6:1.0 2114:1.0 6707:1.0 24:1.0 1253:1.0 750:1.0 751:1.0 4033:1.0 1303:1.0 
0.6661501792054623 0.4567031616570363 0.6829788140200782 1.0 0.0 0.0 1.0 0.6073440949302488 1.0 0.0 1.0 0.0 0.24534204707385845 0.0 0.0 0.0 0.0 0.0 298:1.0 883:1.0 485:1.0 1960:1.0 24:1.0 1:1.0 2328:1.0 2482:1.0 
0.20073008941592763 0.17184221566369218 0.3769361155384322 0.4776257971946192 0.24278395601442607 0.2117022388590638 1.0 0.15843137121168083 0.3732421662100437 0.29682350561202964 0.6132155151426182 0.11750541411738365 0.18994287584720332 0.09222987850292441 0.1730670830364024 0.1555919473061479 0.14447548386179326 0.0 1507:1.0 371:1.0 990:1.0 81:2.0 1059:1.0 1782:1.0 14:2.0 28:3.0 1119:1.0 98:1.0 1044:1.0 8581:1.0 1:1.0 8582:1.0 735:1.0 24:1.0 4409:1.0 2233:1.0 1029:1.0 34:1.0 5149:1.0 8583:1.0 8584:1.0 8585:1.0 8586:1.0 
0.2449111215158242 1.0 1.0 1.0 0.6493274875727428 1.0 1.0 1.0 1.0 1.0 1.0 0.0 1.0 0.678479730141885 0.7343860930363066 1.0 0.0 0.0 28:2.0 870:1.0 384:1.0 24:1.0 899:1.0 1573:1.0 5236:1.0 2002:1.0 
0.149797788572972 0.375327416129037 0.4192679421220573 0.430278852368951 0.17159532022036497 0.25948846236935763 1.0 0.12410962336734982 0.29928817369275507 0.285219624820221 0.6042601316062803 0.07563287892368539 0.12119903933390147 0.03916297108230038 0.03952091008651536 0.17650425363543015 0.06553901894101057 0.0 536:1.0 1825:1.0 34:2.0 28:2.0 2815:1.0 22:2.0 2415:1.0 1935:1.0 2045:1.0 4098:1.0 14:1.0 7012:1.0 10:3.0 1334:1.0 2232:1.0 5006:1.0 152:2.0 821:1.0 656:1.0 1032:1.0 261:1.0 1:2.0 5616:1.0 4894:1.0 2113:1.0 1531:1.0 2491:1.0 8602:1.0 61:1.0 853:1.0 36:1.0 6529:1.0 5781:1.0 8603:1.0 3530:1.0 
0.6327899851255103 0.601703825735747 1.0 1.0 1.0 1.0 1.0 1.0 1.0 0.5849289525811824 0.5498558223826902 0.3612808371667046 0.5907711230677894 0.0 0.0 0.3287278672276497 0.26295312628434003 0.0 1:2.0 672:1.0 8613:1.0 735:1.0 24:1.0 435:1.0 84:1.0 34:1.0 2130:1.0 615:1.0 
0.0 0.0 1.0 1.0 0.0 0.0 1.0 0.0 0.49609412167407213 0.0 0.0 0.0 0.0 0.0 0.0 0.0 0.0 0.0 1:1.0 565:1.0 694:1.0 1849:1.0 24:1.0 6132:1.0 2513:1.0 1867:1.0 
0.0 0.21201011997288313 0.7434776341597659 0.42902785794381176 0.0 0.3464374046216661 1.0 0.0 1.0 0.0 1.0 0.0 1.0 0.0 0.0 0.0 0.0 0.0 330:1.0 3125:1.0 241:1.0 3456:1.0 34:1.0 1:1.0 1302:1.0 2623:1.0 10:1.0 8645:1.0 
0.30321889097585875 0.15642788695326626 0.23894800008360906 0.6674505118599574 0.3589947029373828 0.32069644647012074 1.0 0.26902846023371835 0.2514100761510971 0.33970885149286334 0.6345148470395869 0.19810621965256336 0.21569874570471229 0.17766302536363346 0.15856015382039396 0.15762791102084134 0.21390930229758406 0.0 763:1.0 8650:1.0 2484:2.0 286:1.0 2520:1.0 2141:1.0 22:1.0 1:2.0 2577:1.0 3609:2.0 261:1.0 1849:1.0 10:1.0 28:1.0 8651:1.0 991:1.0 14:1.0 
0.0 0.25144602466063 0.0 0.5260235950916942 0.4078630107761878 0.6535625953783339 1.0 0.3624865383625562 1.0 0.0 1.0 0.0 0.0 0.0 0.0 0.0 0.0 0.0 11:1.0 764:1.0 45:1.0 3574:1.0 8657:1.0 24:1.0 1:1.0 1557:1.0 61:1.0 399:1.0 1253:1.0 
0.14002632504156134 0.0 0.21224794574239927 0.2824823940109367 0.0 0.3764221687372398 1.0 0.0 0.20249309898749082 0.1610678498561787 0.4249687271067354 0.0 0.15602882288894906 0.0 0.0 0.0 0.181679136992508 0.0 224:1.0 1032:1.0 228:1.0 6865:1.0 89:1.0 10:2.0 1:2.0 8659:1.0 22:1.0 268:1.0 6950:1.0 2604:1.0 1311:1.0 8660:1.0 
0.5649830925047674 0.44415889885942533 0.3112183326935231 1.0 0.4590895154220255 0.5822702356166778 1.0 0.6979321407085446 0.7094557959020198 0.5406814033416703 1.0 0.40291568431652464 0.47751952480994875 0.0 0.15263883695868116 0.34218562870686403 0.27696046840165667 0.0 8664:1.0 19:1.0 3848:1.0 24:1.0 2968:1.0 5:1.0 1:1.0 2846:1.0 669:1.0 
0.6020631241427121 0.0 0.0 1.0 0.5246386944056722 0.5160917149338526 1.0 1.0 0.5253817272455682 0.5721494339592061 1.0 0.5239314312948783 0.574735146332982 0.6402030590034702 0.7067424701757374 0.6141130322029396 0.5075021468268266 0.0 3609:1.0 1802:1.0 24:1.0 2809:1.0 2332:1.0 
0.49077900846351286 0.7391618781204645 1.0 1.0 0.5833225076818253 1.0 1.0 1.0 1.0 0.4665606405632743 1.0 0.0 1.0 0.0 0.0 0.6643626638205664 0.0 0.0 1:1.0 2451:1.0 1300:1.0 1030:1.0 24:1.0 4329:1.0 84:1.0 
0.5407268086512123 0.555453114459186 0.3384149096746183 1.0 0.5419644166321906 0.5500713541122484 1.0 0.7013228750242786 0.6258564698464193 0.6069729061904291 1.0 0.3144939426683213 0.4775319645250926 0.0 0.1913118773936539 0.33563733617943353 0.53207310591984 0.0 4877:1.0 7484:1.0 86:1.0 1032:1.0 8671:1.0 34:1.0 1:1.0 1557:1.0 3662:1.0 
0.5204110563807645 0.7010022241303475 1.0 1.0 0.634045996357139 0.6759363530733968 1.0 1.0 1.0 0.44196276481240715 1.0 0.0 0.5561018595040903 0.0 0.0 0.0 0.2387771022215671 0.0 1:1.0 5618:1.0 1393:1.0 24:1.0 56:1.0 671:1.0 98:1.0 746:1.0 22:1.0 6632:1.0 
0.14249978203144983 0.0 0.12355151165253489 0.5594466260425688 0.2855900014281368 0.4168241444338545 1.0 0.30454207245664555 0.529677844268543 0.16699511971563769 1.0 0.0 0.3728135876549225 0.0 0.0 0.0 0.16180482703233823 0.0 197:1.0 692:1.0 196:1.0 1:1.0 3110:1.0 140:2.0 818:1.0 19:1.0 1032:1.0 24:1.0 28:1.0 3147:1.0 3094:1.0 
0.5726739231144373 0.44417109864556714 0.21492604527599346 1.0 0.5954601984292367 0.49068935779774825 1.0 1.0 0.5983079165955816 0.5816093407973068 1.0 0.0 0.5224307181064838 0.0 0.0 0.0 0.44436378612848265 0.0 2801:1.0 8759:1.0 19:1.0 1716:1.0 188:1.0 34:1.0 1:1.0 3836:1.0 
0.2346241285141146 0.7142969360890082 0.47506366783040527 1.0 0.2973311041647828 1.0 1.0 0.37679983271460593 0.49385511448795777 0.5539507031007826 1.0 0.0 1.0 0.2647403159257059 0.0 0.3544371375741323 0.20163406962971864 0.0 28:1.0 1417:1.0 1332:1.0 4005:1.0 86:1.0 87:1.0 102:1.0 24:1.0 4815:1.0 549:1.0 817:1.0 801:1.0 
0.2778902604539138 0.46397552549232185 0.6297394811495445 0.627192201774436 0.45697752662991253 0.4117215330072074 1.0 0.44756963909140124 0.534891356155495 0.516923030163632 1.0 0.38198967259025324 0.402485255655094 0.2052777945975051 0.0 0.4128945618464174 0.2252791875707188 0.0 559:1.0 1335:1.0 86:1.0 539:1.0 1:2.0 1274:1.0 24:1.0 84:1.0 4366:1.0 
0.5104086909868696 0.6053895853457196 1.0 1.0 0.6179458479752246 0.7107178914542778 1.0 0.6631314985575699 1.0 0.4313040064179374 0.9841047980744182 0.0 0.5204263931419951 0.0 0.0 0.0 0.23913291929089409 0.0 1:1.0 8781:1.0 19:1.0 3889:1.0 24:1.0 28:1.0 2968:1.0 10:1.0 8782:1.0 
0.0 0.0 0.0 0.0 0.0 0.0 1.0 0.21574278302748892 0.0 0.22048120790969325 1.0 0.322841534271824 0.0 0.23610062186962613 0.0 0.0 0.0 0.0 849:1.0 22:1.0 816:1.0 10:1.0 1206:1.0 549:1.0 1:1.0 671:1.0 286:1.0 694:1.0 2250:1.0 24:1.0 6263:1.0 
0.0 0.0 1.0 1.0 0.0 0.0 1.0 0.2688921414258828 0.8115867669309795 0.0 0.28275685210396045 0.0 0.0 0.0 0.0 0.0 0.0 0.0 1:1.0 53:2.0 1660:1.0 86:1.0 87:1.0 88:1.0 24:1.0 127:1.0 1738:1.0 529:1.0 
0.34824033094604573 0.47796023248319 1.0 1.0 0.48020151031172686 0.6322538738219562 1.0 0.5242361437460958 1.0 0.5483913046938274 0.7220503192377543 0.0 0.679625409579518 0.2301868019341092 0.3900802850636156 0.3013117957394703 0.29587050105811497 0.0 1:1.0 2098:1.0 766:1.0 34:2.0 1608:1.0 1047:1.0 205:1.0 112:1.0 3185:1.0 1645:1.0 4671:1.0 350:1.0 
0.0 0.0 1.0 1.0 0.0 0.0 1.0 0.0 0.7007118263072449 0.0 0.0 0.0 0.0 0.0 0.0 0.0 0.0 0.0 1:2.0 575:1.0 97:1.0 2996:3.0 19:1.0 1032:1.0 103:2.0 28:1.0 826:2.0 22:1.0 2045:1.0 8813:1.0 8814:1.0 8815:1.0 594:1.0 439:1.0 
0.09254241689269807 0.628073514456388 0.45851061990109265 0.35710551372826355 0.28056951418047843 0.2690867454695502 1.0 0.44284957899751975 0.20622183637851135 0.42598405132062 0.6860285620859788 0.34555028955329514 0.46620237078874216 0.0 0.3680901177049186 0.0 0.30218382642233943 0.0 36:1.0 59:1.0 1303:1.0 1:1.0 8255:1.0 19:1.0 1749:1.0 2486:1.0 10:1.0 28:1.0 1015:1.0 1514:1.0 98:1.0 485:1.0 817:1.0 990:1.0 1511:1.0 
0.4560354043539947 0.3434280154437493 0.2973192791622375 0.8505672148996264 0.37628730439995806 0.41305459607706096 1.0 0.37430169116291645 0.35684786438911786 0.38190569721784695 0.7716823646454535 0.14451538512664253 0.25200528066918315 0.33011843992285994 0.12301358032133947 0.1336846888637086 0.17467808790940265 0.0 1249:1.0 953:1.0 1666:1.0 43:1.0 1:2.0 8028:1.0 22:1.0 4448:1.0 86:1.0 1154:1.0 8865:1.0 24:1.0 2040:1.0 3782:1.0 
0.4817133664354357 0.5207084377006229 0.5307550397694455 0.649736413531935 0.5192241573504869 0.5136982208894181 1.0 0.30321702857771465 0.45560701381575724 0.2389336445836871 0.7570393423378877 0.21006203127646733 0.2997842946014411 0.0 0.0 0.31667440389101625 0.0 0.0 583:1.0 2994:1.0 8866:1.0 1032:1.0 1:1.0 1606:1.0 10:1.0 28:1.0 8867:1.0 3989:1.0 22:1.0 8868:1.0 7:1.0 
0.34141690670076846 1.0 1.0 1.0 1.0 1.0 1.0 1.0 1.0 0.0 0.0 0.0 0.38799915470885227 0.0 0.0 0.6484703451012983 0.0 0.0 1:2.0 1056:1.0 2127:1.0 2671:1.0 34:1.0 3145:1.0 
0.17075958097697205 0.42310324326003484 0.186257605232298 0.39616725088369303 0.19865273487260132 0.28311351183537536 1.0 0.459852119668563 0.6079274557705661 0.2639550160798176 0.6119540069616278 0.0 0.33269158116759867 0.2683728169298091 0.16980487359654822 0.29235409454719957 0.0 0.0 6793:1.0 6:1.0 2114:1.0 1:2.0 4005:1.0 24:1.0 468:1.0 1729:1.0 1332:1.0 
0.3692872547408369 0.376152005628977 0.43680146363482447 1.0 0.5811160770457116 0.5522033973566733 1.0 0.6349564301203962 0.5645837105029938 0.32855254147883656 1.0 0.2999312413468572 0.39105725395298263 0.2684005686908611 0.257531592894647 0.2562222753808944 0.19216809560456974 0.0 3953:1.0 3763:1.0 286:1.0 840:1.0 1531:1.0 34:1.0 3281:1.0 81:1.0 2411:1.0 349:1.0 10:1.0 5545:1.0 
0.30463729210614915 0.2608381218795354 1.0 1.0 0.0 0.4936940506544007 1.0 0.0 1.0 0.0 0.0 0.0 0.0 0.0 0.0 0.0 0.0 0.0 1:1.0 457:1.0 19:1.0 1032:1.0 103:1.0 28:2.0 1921:1.0 112:1.0 137:1.0 
1.0 1.0 1.0 1.0 1.0 1.0 1.0 1.0 1.0 1.0 0.5956047289924817 0.0 1.0 0.0 0.0 0.30329196308867856 0.2462712603636589 0.0 1:2.0 887:1.0 883:1.0 11:1.0 1861:1.0 24:1.0 8908:1.0 
0.7475905432702821 1.0 1.0 1.0 1.0 1.0 1.0 1.0 1.0 0.3233456144286534 0.6083801458226434 0.0 1.0 0.0 0.0 0.7028813505158251 0.0 0.0 1:2.0 1914:1.0 958:1.0 19:1.0 102:1.0 24:1.0 7020:1.0 2598:1.0 
1.0 1.0 1.0 1.0 1.0 1.0 1.0 1.0 1.0 0.40988305810402736 0.3188345850990172 0.0 1.0 0.0 0.0 0.47784145487876084 1.0 0.0 1:3.0 1394:1.0 1317:1.0 2429:1.0 24:1.0 8715:1.0 
1.0 1.0 1.0 1.0 1.0 1.0 1.0 1.0 1.0 0.37952994077873664 1.0 1.0 1.0 0.0 0.0 0.6244577479074673 0.0 0.0 1:1.0 45:1.0 88:1.0 241:1.0 8974:1.0 24:1.0 8975:1.0 
0.0 0.0 1.0 1.0 0.0 0.21985579785447332 1.0 0.30206785929145535 1.0 0.0 0.0 0.0 0.26964865925659737 0.0 0.0 0.0 0.0 0.0 1:2.0 849:1.0 1896:1.0 565:1.0 34:1.0 4254:1.0 112:1.0 1465:1.0 951:1.0 2665:1.0 
0.6025327989859333 0.3977547348604156 0.27915163780816893 1.0 0.56627554345061 0.5749991594868848 1.0 0.5649905239598592 0.5800750342532769 0.6302711216405541 1.0 0.33441677295914557 0.6122802445521589 0.0 0.22934474364428215 0.36069697641567994 0.4759991282739329 0.0 3885:1.0 47:1.0 735:1.0 24:1.0 1325:1.0 10:1.0 9017:1.0 191:1.0 983:1.0 9018:1.0 
0.0 0.13566860952868753 0.0 0.22566181773801422 0.6816705492225982 0.3982732459277549 1.0 0.25761569862163614 0.0 0.0 1.0 0.0 0.2406950712924215 0.0 0.0 0.0 0.0 0.0 713:1.0 1372:1.0 6:1.0 439:1.0 1082:1.0 2860:1.0 9:1.0 34:1.0 1:1.0 185:1.0 61:1.0 1170:1.0 2892:1.0 
0.595941573813924 0.4377484311156776 0.3837397709871028 1.0 0.5509173150995001 0.586945403922939 1.0 0.5061042042745708 0.6866095335058805 0.3699050635353484 1.0 0.37196152979747893 0.6052287266575144 0.24905945650391112 0.21121910632754962 0.32421598057603895 0.21427250298916548 0.0 9023:1.0 140:1.0 9024:1.0 86:1.0 828:1.0 4670:1.0 24:1.0 85:1.0 61:1.0 2031:1.0 599:1.0 
